GIS
9
0.0
2
T
F
3
14 0
8 0 1
11 1
33
n=
x=Cough
5
n=Consult
v=hypertension.
v=2000.
n=Review
x=concerns
8
v=health
n=Cancer,
x=disease
7
v=heart
eos=.
s=
sn
ncap
xcap
2
x=Mr
v=
n=Testing
x=Dr
v=by
x=hypertension
12
v=cyst,
n=Mr.
x=2000
4
v=20,
n=Cough.
9.650396612913752
8.417698138721482
8.417698138721482
12.002940093113882
14.998670565460273
5.077918330254914
11.896218921053926
8.483738087845165
8.483738087845165
8.483738087845165
8.483738087845165
7.903114126412481
7.903114126412481
7.903114126412481
2.1371296856095383
-2.6467073657127105
2.1371296856095383
-2.6467073657127105
-2.1455565449550766
1.7779450450920549
-2.5846956626488677
2.048855910722109
2.3512182798668193
-3.308944888075682
-7.70995226421063
4.383043850151386
-0.7211021656450476
0.7273818486375847
-3.2468403082431965
3.3848405061957685
12.107460409756008
8.490935622943125
8.490935622943125
8.590825952798907
8.590825952798907
8.590825952798907
8.590825952798907
8.590825952798907
8.590825952798907
8.590825952798907
8.590825952798907
