svm_type c_svc
kernel_type rbf
gamma 8
nr_class 2
total_sv 444
rho 75.3805
label 1 0
probA -1.42108
probB -0.12852
nr_sv 225 219
SV
32768 1:0.063333333 2:0.02 5:1 11:1 14:1 17:1 24:1 30:1 32:1 33:1 36:1 37:1 
32768 1:0.041666667 2:0.02 5:1 11:1 14:1 17:1 24:1 30:1 32:1 33:1 36:1 37:1 
32768 1:0.0083333333 5:1 11:1 14:1 17:1 24:1 30:1 32:1 33:1 36:1 37:1 
32768 1:0.063333333 2:0.02 5:1 11:1 14:1 17:1 24:1 30:1 32:1 33:1 36:1 37:1 
32768 1:0.041666667 2:0.02 5:1 11:1 14:1 17:1 24:1 30:1 32:1 33:1 36:1 37:1 
32768 1:0.0083333333 5:1 11:1 14:1 17:1 24:1 30:1 32:1 33:1 36:1 37:1 
32768 1:0.063333333 2:0.02 5:1 11:1 14:1 17:1 24:1 30:1 32:1 33:1 36:1 37:1 
32768 1:0.041666667 2:0.02 5:1 11:1 14:1 17:1 24:1 30:1 32:1 33:1 36:1 37:1 
32768 1:0.0083333333 5:1 11:1 14:1 17:1 24:1 30:1 32:1 33:1 36:1 37:1 
32768 1:0.063333333 2:0.02 5:1 11:1 14:1 17:1 24:1 30:1 32:1 33:1 36:1 37:1 
32768 1:0.041666667 2:0.02 5:1 11:1 14:1 17:1 24:1 30:1 32:1 33:1 36:1 37:1 
32768 1:0.0083333333 5:1 11:1 14:1 17:1 24:1 30:1 32:1 33:1 36:1 37:1 
23166.88720384772 5:1 11:1 14:1 17:1 24:1 30:1 32:1 33:1 36:1 37:1 
32768 1:0.063333333 2:0.02 5:1 11:1 14:1 17:1 24:1 30:1 32:1 33:1 36:1 37:1 
32768 1:0.041666667 2:0.02 5:1 11:1 14:1 17:1 24:1 30:1 32:1 33:1 36:1 37:1 
32768 1:0.0083333333 5:1 11:1 14:1 17:1 24:1 30:1 32:1 33:1 36:1 37:1 
32768 5:1 11:1 14:1 17:1 24:1 30:1 32:1 33:1 36:1 37:1 
32768 1:0.063333333 2:0.02 5:1 11:1 14:1 17:1 24:1 30:1 32:1 33:1 36:1 37:1 
32768 1:0.041666667 2:0.02 5:1 11:1 14:1 17:1 24:1 30:1 32:1 33:1 36:1 37:1 
10211.98726828981 1:0.013333333 5:1 11:1 14:1 17:1 24:1 30:1 32:1 33:1 36:1 37:1 
32768 1:0.0083333333 5:1 11:1 14:1 17:1 24:1 30:1 32:1 33:1 36:1 37:1 
32768 5:1 11:1 14:1 17:1 24:1 30:1 32:1 33:1 36:1 37:1 
32768 1:0.063333333 2:0.02 5:1 11:1 14:1 17:1 24:1 30:1 32:1 33:1 36:1 37:1 
32768 1:0.041666667 2:0.02 5:1 11:1 14:1 17:1 24:1 30:1 32:1 33:1 36:1 37:1 
32768 1:0.013333333 5:1 11:1 14:1 17:1 24:1 30:1 32:1 33:1 36:1 37:1 
32768 1:0.0083333333 5:1 11:1 14:1 17:1 24:1 30:1 32:1 33:1 36:1 37:1 
32768 5:1 11:1 14:1 17:1 24:1 30:1 32:1 33:1 36:1 37:1 
32768 1:0.063333333 2:0.02 5:1 11:1 14:1 17:1 24:1 30:1 32:1 33:1 36:1 37:1 
27834.87140262416 1:0.023333333 2:0.02 5:1 11:1 14:1 17:1 24:1 30:1 32:1 33:1 36:1 37:1 
32768 1:0.041666667 2:0.02 5:1 11:1 14:1 17:1 24:1 30:1 32:1 33:1 36:1 37:1 
32768 1:0.013333333 5:1 11:1 14:1 17:1 24:1 30:1 32:1 33:1 36:1 37:1 
30546.6868120805 1:0.02 2:0.04 5:1 11:1 14:1 17:1 24:1 30:1 32:1 33:1 36:1 37:1 
32768 1:0.0083333333 5:1 11:1 14:1 17:1 24:1 30:1 32:1 33:1 36:1 37:1 
32768 5:1 11:1 14:1 17:1 24:1 30:1 32:1 33:1 36:1 37:1 
32768 1:0.063333333 2:0.02 5:1 11:1 14:1 17:1 24:1 30:1 32:1 33:1 36:1 37:1 
32768 1:0.023333333 2:0.02 5:1 11:1 14:1 17:1 24:1 30:1 32:1 33:1 36:1 37:1 
32768 1:0.041666667 2:0.02 5:1 11:1 14:1 17:1 24:1 30:1 32:1 33:1 36:1 37:1 
32768 1:0.013333333 5:1 11:1 14:1 17:1 24:1 30:1 32:1 33:1 36:1 37:1 
32768 1:0.02 2:0.04 5:1 11:1 14:1 17:1 24:1 30:1 32:1 33:1 36:1 37:1 
32768 1:0.0083333333 5:1 11:1 14:1 17:1 24:1 30:1 32:1 33:1 36:1 37:1 
32768 5:1 11:1 14:1 17:1 24:1 30:1 32:1 33:1 36:1 37:1 
32768 1:0.063333333 2:0.02 5:1 11:1 14:1 17:1 24:1 30:1 32:1 33:1 36:1 37:1 
32768 1:0.023333333 2:0.02 5:1 11:1 14:1 17:1 24:1 30:1 32:1 33:1 36:1 37:1 
32768 1:0.041666667 2:0.02 5:1 11:1 14:1 17:1 24:1 30:1 32:1 33:1 36:1 37:1 
32768 1:0.013333333 5:1 11:1 14:1 17:1 24:1 30:1 32:1 33:1 36:1 37:1 
32768 1:0.02 2:0.04 5:1 11:1 14:1 17:1 24:1 30:1 32:1 33:1 36:1 37:1 
32768 1:0.0083333333 5:1 11:1 14:1 17:1 24:1 30:1 32:1 33:1 36:1 37:1 
32768 5:1 11:1 14:1 17:1 24:1 30:1 32:1 33:1 36:1 37:1 
32768 1:0.063333333 2:0.02 5:1 11:1 14:1 17:1 24:1 30:1 32:1 33:1 36:1 37:1 
32768 1:0.023333333 2:0.02 5:1 11:1 14:1 17:1 24:1 30:1 32:1 33:1 36:1 37:1 
32768 1:0.041666667 2:0.02 5:1 11:1 14:1 17:1 24:1 30:1 32:1 33:1 36:1 37:1 
32768 1:0.013333333 5:1 11:1 14:1 17:1 24:1 30:1 32:1 33:1 36:1 37:1 
32768 1:0.02 2:0.04 5:1 11:1 14:1 17:1 24:1 30:1 32:1 33:1 36:1 37:1 
32768 1:0.0083333333 5:1 11:1 14:1 17:1 24:1 30:1 32:1 33:1 36:1 37:1 
32768 5:1 11:1 14:1 17:1 24:1 30:1 32:1 33:1 36:1 37:1 
32768 1:0.063333333 2:0.02 5:1 11:1 14:1 17:1 24:1 30:1 32:1 33:1 36:1 37:1 
32768 1:0.023333333 2:0.02 5:1 11:1 14:1 17:1 24:1 30:1 32:1 33:1 36:1 37:1 
32768 1:0.041666667 2:0.02 5:1 11:1 14:1 17:1 24:1 30:1 32:1 33:1 36:1 37:1 
32768 1:0.013333333 5:1 11:1 14:1 17:1 24:1 30:1 32:1 33:1 36:1 37:1 
32768 1:0.02 2:0.04 5:1 11:1 14:1 17:1 24:1 30:1 32:1 33:1 36:1 37:1 
20688.31509290003 1:0.058333333 2:0.06 5:1 14:1 17:1 22:1 24:1 30:1 32:1 33:1 36:1 37:1 
32768 1:0.0083333333 5:1 11:1 14:1 17:1 24:1 30:1 32:1 33:1 36:1 37:1 
1853.743517193159 5:1 11:1 14:1 17:1 24:1 30:1 32:1 33:1 36:1 37:1 
32768 1:0.063333333 2:0.02 5:1 11:1 14:1 17:1 24:1 30:1 32:1 33:1 36:1 37:1 
28040.19062903101 1:0.028333333 5:1 11:1 14:1 17:1 24:1 30:1 32:1 33:1 36:1 37:1 
32768 1:0.023333333 2:0.02 5:1 11:1 14:1 17:1 24:1 30:1 32:1 33:1 36:1 37:1 
32768 1:0.041666667 2:0.02 5:1 11:1 14:1 17:1 24:1 30:1 32:1 33:1 36:1 37:1 
32768 1:0.013333333 5:1 11:1 14:1 17:1 24:1 30:1 32:1 33:1 36:1 37:1 
32768 1:0.02 2:0.04 5:1 11:1 14:1 17:1 24:1 30:1 32:1 33:1 36:1 37:1 
32768 1:0.058333333 2:0.06 5:1 14:1 17:1 22:1 24:1 30:1 32:1 33:1 36:1 37:1 
32768 1:0.0083333333 5:1 11:1 14:1 17:1 24:1 30:1 32:1 33:1 36:1 37:1 
32768 1:0.063333333 2:0.02 5:1 11:1 14:1 17:1 24:1 30:1 32:1 33:1 36:1 37:1 
32768 1:0.028333333 5:1 11:1 14:1 17:1 24:1 30:1 32:1 33:1 36:1 37:1 
32768 1:0.023333333 2:0.02 5:1 11:1 14:1 17:1 24:1 30:1 32:1 33:1 36:1 37:1 
32768 1:0.041666667 2:0.02 5:1 11:1 14:1 17:1 24:1 30:1 32:1 33:1 36:1 37:1 
32768 1:0.013333333 5:1 11:1 14:1 17:1 24:1 30:1 32:1 33:1 36:1 37:1 
32768 1:0.02 2:0.04 5:1 11:1 14:1 17:1 24:1 30:1 32:1 33:1 36:1 37:1 
32768 1:0.058333333 2:0.06 5:1 14:1 17:1 22:1 24:1 30:1 32:1 33:1 36:1 37:1 
32768 1:0.0083333333 5:1 11:1 14:1 17:1 24:1 30:1 32:1 33:1 36:1 37:1 
32768 1:0.063333333 2:0.02 5:1 11:1 14:1 17:1 24:1 30:1 32:1 33:1 36:1 37:1 
32768 1:0.028333333 5:1 11:1 14:1 17:1 24:1 30:1 32:1 33:1 36:1 37:1 
32768 1:0.023333333 2:0.02 5:1 11:1 14:1 17:1 24:1 30:1 32:1 33:1 36:1 37:1 
32768 1:0.041666667 2:0.02 5:1 11:1 14:1 17:1 24:1 30:1 32:1 33:1 36:1 37:1 
32768 1:0.013333333 5:1 11:1 14:1 17:1 24:1 30:1 32:1 33:1 36:1 37:1 
32768 1:0.02 2:0.04 5:1 11:1 14:1 17:1 24:1 30:1 32:1 33:1 36:1 37:1 
32768 1:0.058333333 2:0.06 5:1 14:1 17:1 22:1 24:1 30:1 32:1 33:1 36:1 37:1 
32768 1:0.0083333333 5:1 11:1 14:1 17:1 24:1 30:1 32:1 33:1 36:1 37:1 
32768 1:0.063333333 2:0.02 5:1 11:1 14:1 17:1 24:1 30:1 32:1 33:1 36:1 37:1 
22605.50300381257 1:0.028333333 5:1 11:1 14:1 17:1 24:1 30:1 32:1 33:1 36:1 37:1 
32768 1:0.023333333 2:0.02 5:1 11:1 14:1 17:1 24:1 30:1 32:1 33:1 36:1 37:1 
32768 1:0.041666667 2:0.02 5:1 11:1 14:1 17:1 24:1 30:1 32:1 33:1 36:1 37:1 
32768 1:0.013333333 5:1 11:1 14:1 17:1 24:1 30:1 32:1 33:1 36:1 37:1 
32768 1:0.02 2:0.04 5:1 11:1 14:1 17:1 24:1 30:1 32:1 33:1 36:1 37:1 
32768 1:0.058333333 2:0.06 5:1 14:1 17:1 22:1 24:1 30:1 32:1 33:1 36:1 37:1 
32768 1:0.0083333333 5:1 11:1 14:1 17:1 24:1 30:1 32:1 33:1 36:1 37:1 
32768 1:0.063333333 2:0.02 5:1 11:1 14:1 17:1 24:1 30:1 32:1 33:1 36:1 37:1 
32768 1:0.023333333 2:0.02 5:1 11:1 14:1 17:1 24:1 30:1 32:1 33:1 36:1 37:1 
32768 1:0.041666667 2:0.02 5:1 11:1 14:1 17:1 24:1 30:1 32:1 33:1 36:1 37:1 
31413.42020890331 1:0.013333333 5:1 11:1 14:1 17:1 24:1 30:1 32:1 33:1 36:1 37:1 
32768 1:0.02 2:0.04 5:1 11:1 14:1 17:1 24:1 30:1 32:1 33:1 36:1 37:1 
32768 1:0.058333333 2:0.06 5:1 14:1 17:1 22:1 24:1 30:1 32:1 33:1 36:1 37:1 
2335.087318562648 1:0.063333333 2:0.04 5:1 11:1 14:1 17:1 25:1 30:1 32:1 33:1 34:1 36:1 37:1 
32768 1:0.0083333333 5:1 11:1 14:1 17:1 24:1 30:1 32:1 33:1 36:1 37:1 
32768 1:0.063333333 2:0.02 5:1 11:1 14:1 17:1 24:1 30:1 32:1 33:1 36:1 37:1 
32768 1:0.023333333 2:0.02 5:1 11:1 14:1 17:1 24:1 30:1 32:1 33:1 36:1 37:1 
32768 1:0.041666667 2:0.02 5:1 11:1 14:1 17:1 24:1 30:1 32:1 33:1 36:1 37:1 
32768 1:0.02 2:0.04 5:1 11:1 14:1 17:1 24:1 30:1 32:1 33:1 36:1 37:1 
32768 1:0.058333333 2:0.06 5:1 14:1 17:1 22:1 24:1 30:1 32:1 33:1 36:1 37:1 
32768 1:0.063333333 2:0.04 5:1 11:1 14:1 17:1 25:1 30:1 32:1 33:1 34:1 36:1 37:1 
32768 1:0.0083333333 5:1 11:1 14:1 17:1 24:1 30:1 32:1 33:1 36:1 37:1 
32768 1:0.063333333 2:0.02 5:1 11:1 14:1 17:1 24:1 30:1 32:1 33:1 36:1 37:1 
32768 1:0.023333333 2:0.02 5:1 11:1 14:1 17:1 24:1 30:1 32:1 33:1 36:1 37:1 
32768 1:0.041666667 2:0.02 5:1 11:1 14:1 17:1 24:1 30:1 32:1 33:1 36:1 37:1 
32768 1:0.02 2:0.04 5:1 11:1 14:1 17:1 24:1 30:1 32:1 33:1 36:1 37:1 
32768 1:0.058333333 2:0.06 5:1 14:1 17:1 22:1 24:1 30:1 32:1 33:1 36:1 37:1 
32768 1:0.063333333 2:0.04 5:1 11:1 14:1 17:1 25:1 30:1 32:1 33:1 34:1 36:1 37:1 
32768 1:0.0083333333 5:1 11:1 14:1 17:1 24:1 30:1 32:1 33:1 36:1 37:1 
32768 1:0.063333333 2:0.02 5:1 11:1 14:1 17:1 24:1 30:1 32:1 33:1 36:1 37:1 
32768 1:0.023333333 2:0.02 5:1 11:1 14:1 17:1 24:1 30:1 32:1 33:1 36:1 37:1 
32768 1:0.041666667 2:0.02 5:1 11:1 14:1 17:1 24:1 30:1 32:1 33:1 36:1 37:1 
32768 1:0.02 2:0.04 5:1 11:1 14:1 17:1 24:1 30:1 32:1 33:1 36:1 37:1 
32768 1:0.058333333 2:0.06 5:1 14:1 17:1 22:1 24:1 30:1 32:1 33:1 36:1 37:1 
32768 1:0.063333333 2:0.04 5:1 11:1 14:1 17:1 25:1 30:1 32:1 33:1 34:1 36:1 37:1 
32768 1:0.0083333333 5:1 11:1 14:1 17:1 24:1 30:1 32:1 33:1 36:1 37:1 
32768 1:0.063333333 2:0.02 5:1 11:1 14:1 17:1 24:1 30:1 32:1 33:1 36:1 37:1 
32768 1:0.023333333 2:0.02 5:1 11:1 14:1 17:1 24:1 30:1 32:1 33:1 36:1 37:1 
32768 1:0.041666667 2:0.02 5:1 11:1 14:1 17:1 24:1 30:1 32:1 33:1 36:1 37:1 
32768 1:0.02 2:0.04 5:1 11:1 14:1 17:1 24:1 30:1 32:1 33:1 36:1 37:1 
32768 1:0.058333333 2:0.06 5:1 14:1 17:1 22:1 24:1 30:1 32:1 33:1 36:1 37:1 
32768 1:0.063333333 2:0.04 5:1 11:1 14:1 17:1 25:1 30:1 32:1 33:1 34:1 36:1 37:1 
32768 1:0.0083333333 5:1 11:1 14:1 17:1 24:1 30:1 32:1 33:1 36:1 37:1 
32768 1:0.063333333 2:0.02 5:1 11:1 14:1 17:1 24:1 30:1 32:1 33:1 36:1 37:1 
32768 1:0.023333333 2:0.02 5:1 11:1 14:1 17:1 24:1 30:1 32:1 33:1 36:1 37:1 
32768 1:0.041666667 2:0.02 5:1 11:1 14:1 17:1 24:1 30:1 32:1 33:1 36:1 37:1 
32768 1:0.02 2:0.04 5:1 11:1 14:1 17:1 24:1 30:1 32:1 33:1 36:1 37:1 
32768 1:0.058333333 2:0.06 5:1 14:1 17:1 22:1 24:1 30:1 32:1 33:1 36:1 37:1 
32768 1:0.063333333 2:0.04 5:1 11:1 14:1 17:1 25:1 30:1 32:1 33:1 34:1 36:1 37:1 
32768 1:0.0083333333 5:1 11:1 14:1 17:1 24:1 30:1 32:1 33:1 36:1 37:1 
32768 1:0.063333333 2:0.02 5:1 11:1 14:1 17:1 24:1 30:1 32:1 33:1 36:1 37:1 
32768 1:0.023333333 2:0.02 5:1 11:1 14:1 17:1 24:1 30:1 32:1 33:1 36:1 37:1 
32768 1:0.041666667 2:0.02 5:1 11:1 14:1 17:1 24:1 30:1 32:1 33:1 36:1 37:1 
32768 1:0.02 2:0.04 5:1 11:1 14:1 17:1 24:1 30:1 32:1 33:1 36:1 37:1 
32768 1:0.058333333 2:0.06 5:1 14:1 17:1 22:1 24:1 30:1 32:1 33:1 36:1 37:1 
32768 1:0.063333333 2:0.04 5:1 11:1 14:1 17:1 25:1 30:1 32:1 33:1 34:1 36:1 37:1 
32768 1:0.0083333333 5:1 11:1 14:1 17:1 24:1 30:1 32:1 33:1 36:1 37:1 
32768 1:0.063333333 2:0.02 5:1 11:1 14:1 17:1 24:1 30:1 32:1 33:1 36:1 37:1 
25888.94237881615 1:0.0033333333 5:1 14:1 17:1 22:1 24:1 30:1 32:1 33:1 36:1 37:1 
32768 1:0.023333333 2:0.02 5:1 11:1 14:1 17:1 24:1 30:1 32:1 33:1 36:1 37:1 
32768 1:0.041666667 2:0.02 5:1 11:1 14:1 17:1 24:1 30:1 32:1 33:1 36:1 37:1 
32768 1:0.02 2:0.04 5:1 11:1 14:1 17:1 24:1 30:1 32:1 33:1 36:1 37:1 
32768 1:0.058333333 2:0.06 5:1 14:1 17:1 22:1 24:1 30:1 32:1 33:1 36:1 37:1 
32768 1:0.063333333 2:0.04 5:1 11:1 14:1 17:1 25:1 30:1 32:1 33:1 34:1 36:1 37:1 
32768 1:0.0083333333 5:1 11:1 14:1 17:1 24:1 30:1 32:1 33:1 36:1 37:1 
32768 1:0.063333333 2:0.02 5:1 11:1 14:1 17:1 24:1 30:1 32:1 33:1 36:1 37:1 
32768 1:0.0033333333 5:1 14:1 17:1 22:1 24:1 30:1 32:1 33:1 36:1 37:1 
32768 1:0.0033333333 5:1 14:1 17:1 22:1 24:1 30:1 32:1 33:1 36:1 37:1 
32768 1:0.0033333333 5:1 14:1 17:1 22:1 24:1 30:1 32:1 33:1 36:1 37:1 
32768 1:0.023333333 2:0.02 5:1 11:1 14:1 17:1 24:1 30:1 32:1 33:1 36:1 37:1 
32768 1:0.041666667 2:0.02 5:1 11:1 14:1 17:1 24:1 30:1 32:1 33:1 36:1 37:1 
32768 1:0.02 2:0.04 5:1 11:1 14:1 17:1 24:1 30:1 32:1 33:1 36:1 37:1 
32768 1:0.058333333 2:0.06 5:1 14:1 17:1 22:1 24:1 30:1 32:1 33:1 36:1 37:1 
32768 1:0.063333333 2:0.04 5:1 11:1 14:1 17:1 25:1 30:1 32:1 33:1 34:1 36:1 37:1 
32768 1:0.0083333333 5:1 11:1 14:1 17:1 24:1 30:1 32:1 33:1 36:1 37:1 
32768 1:0.063333333 2:0.02 5:1 11:1 14:1 17:1 24:1 30:1 32:1 33:1 36:1 37:1 
32768 1:0.0033333333 5:1 14:1 17:1 22:1 24:1 30:1 32:1 33:1 36:1 37:1 
32768 1:0.0033333333 5:1 14:1 17:1 22:1 24:1 30:1 32:1 33:1 36:1 37:1 
32768 1:0.0033333333 5:1 14:1 17:1 22:1 24:1 30:1 32:1 33:1 36:1 37:1 
32768 1:0.023333333 2:0.02 5:1 11:1 14:1 17:1 24:1 30:1 32:1 33:1 36:1 37:1 
32768 1:0.041666667 2:0.02 5:1 11:1 14:1 17:1 24:1 30:1 32:1 33:1 36:1 37:1 
32768 1:0.02 2:0.04 5:1 11:1 14:1 17:1 24:1 30:1 32:1 33:1 36:1 37:1 
32768 1:0.058333333 2:0.06 5:1 14:1 17:1 22:1 24:1 30:1 32:1 33:1 36:1 37:1 
32768 1:0.063333333 2:0.04 5:1 11:1 14:1 17:1 25:1 30:1 32:1 33:1 34:1 36:1 37:1 
32768 1:0.0083333333 5:1 11:1 14:1 17:1 24:1 30:1 32:1 33:1 36:1 37:1 
32768 1:0.063333333 2:0.02 5:1 11:1 14:1 17:1 24:1 30:1 32:1 33:1 36:1 37:1 
32768 1:0.0033333333 5:1 14:1 17:1 22:1 24:1 30:1 32:1 33:1 36:1 37:1 
32768 1:0.0033333333 5:1 14:1 17:1 22:1 24:1 30:1 32:1 33:1 36:1 37:1 
32768 1:0.0033333333 5:1 14:1 17:1 22:1 24:1 30:1 32:1 33:1 36:1 37:1 
32768 1:0.023333333 2:0.02 5:1 11:1 14:1 17:1 24:1 30:1 32:1 33:1 36:1 37:1 
32768 1:0.041666667 2:0.02 5:1 11:1 14:1 17:1 24:1 30:1 32:1 33:1 36:1 37:1 
32768 1:0.02 2:0.04 5:1 11:1 14:1 17:1 24:1 30:1 32:1 33:1 36:1 37:1 
32768 1:0.058333333 2:0.06 5:1 14:1 17:1 22:1 24:1 30:1 32:1 33:1 36:1 37:1 
32768 1:0.063333333 2:0.04 5:1 11:1 14:1 17:1 25:1 30:1 32:1 33:1 34:1 36:1 37:1 
32768 1:0.0083333333 5:1 11:1 14:1 17:1 24:1 30:1 32:1 33:1 36:1 37:1 
32768 1:0.063333333 2:0.02 5:1 11:1 14:1 17:1 24:1 30:1 32:1 33:1 36:1 37:1 
32768 1:0.0033333333 5:1 14:1 17:1 22:1 24:1 30:1 32:1 33:1 36:1 37:1 
32768 1:0.0033333333 5:1 14:1 17:1 22:1 24:1 30:1 32:1 33:1 36:1 37:1 
32768 1:0.0033333333 5:1 14:1 17:1 22:1 24:1 30:1 32:1 33:1 36:1 37:1 
32768 1:0.023333333 2:0.02 5:1 11:1 14:1 17:1 24:1 30:1 32:1 33:1 36:1 37:1 
32768 1:0.041666667 2:0.02 5:1 11:1 14:1 17:1 24:1 30:1 32:1 33:1 36:1 37:1 
32768 1:0.02 2:0.04 5:1 11:1 14:1 17:1 24:1 30:1 32:1 33:1 36:1 37:1 
32768 1:0.058333333 2:0.06 5:1 14:1 17:1 22:1 24:1 30:1 32:1 33:1 36:1 37:1 
32768 1:0.063333333 2:0.04 5:1 11:1 14:1 17:1 25:1 30:1 32:1 33:1 34:1 36:1 37:1 
31856.01537382528 1:0.025 5:1 11:1 14:1 17:1 25:1 30:1 32:1 33:1 34:1 36:1 37:1 
32768 1:0.0083333333 5:1 11:1 14:1 17:1 24:1 30:1 32:1 33:1 36:1 37:1 
32768 1:0.063333333 2:0.02 5:1 11:1 14:1 17:1 24:1 30:1 32:1 33:1 36:1 37:1 
32768 1:0.0033333333 5:1 14:1 17:1 22:1 24:1 30:1 32:1 33:1 36:1 37:1 
32768 1:0.0033333333 5:1 14:1 17:1 22:1 24:1 30:1 32:1 33:1 36:1 37:1 
32768 1:0.0033333333 5:1 14:1 17:1 22:1 24:1 30:1 32:1 33:1 36:1 37:1 
15378.14494812971 1:0.028333333 5:1 11:1 14:1 17:1 24:1 30:1 32:1 33:1 36:1 37:1 
32768 1:0.023333333 2:0.02 5:1 11:1 14:1 17:1 24:1 30:1 32:1 33:1 36:1 37:1 
32768 1:0.041666667 2:0.02 5:1 11:1 14:1 17:1 24:1 30:1 32:1 33:1 36:1 37:1 
32768 1:0.02 2:0.04 5:1 11:1 14:1 17:1 24:1 30:1 32:1 33:1 36:1 37:1 
32768 1:0.058333333 2:0.06 5:1 14:1 17:1 22:1 24:1 30:1 32:1 33:1 36:1 37:1 
32768 1:0.063333333 2:0.04 5:1 11:1 14:1 17:1 25:1 30:1 32:1 33:1 34:1 36:1 37:1 
32768 1:0.025 5:1 11:1 14:1 17:1 25:1 30:1 32:1 33:1 34:1 36:1 37:1 
32768 1:0.0083333333 5:1 11:1 14:1 17:1 24:1 30:1 32:1 33:1 36:1 37:1 
0.04415965192698876 5:1 11:1 14:1 17:1 24:1 30:1 32:1 33:1 36:1 37:1 
32768 1:0.063333333 2:0.02 5:1 11:1 14:1 17:1 24:1 30:1 32:1 33:1 36:1 37:1 
32768 1:0.0033333333 5:1 14:1 17:1 22:1 24:1 30:1 32:1 33:1 36:1 37:1 
32768 1:0.0033333333 5:1 14:1 17:1 22:1 24:1 30:1 32:1 33:1 36:1 37:1 
32768 1:0.0033333333 5:1 14:1 17:1 22:1 24:1 30:1 32:1 33:1 36:1 37:1 
32729.43176309887 1:0.028333333 5:1 11:1 14:1 17:1 24:1 30:1 32:1 33:1 36:1 37:1 
3301.299955985851 1:0.023333333 2:0.02 5:1 11:1 14:1 17:1 24:1 30:1 32:1 33:1 36:1 37:1 
749.1968435385278 1:0.056666667 2:0.02 5:1 6:1 11:1 14:1 17:1 24:1 30:1 32:1 33:1 36:1 37:1 
76.35588319959739 1:0.01 2:0.02 5:1 6:1 14:1 17:1 24:1 30:1 32:1 33:1 36:1 37:1 
32768 1:0.041666667 2:0.02 5:1 11:1 14:1 17:1 24:1 30:1 32:1 33:1 36:1 37:1 
40.89874889277144 1:0.013333333 5:1 11:1 14:1 17:1 24:1 30:1 32:1 33:1 36:1 37:1 
32524.66942874558 1:0.02 2:0.04 5:1 11:1 14:1 17:1 24:1 30:1 32:1 33:1 36:1 37:1 
38.36907765105307 1:0.071666667 2:0.04 5:1 6:1 11:1 14:1 17:1 25:1 30:1 32:1 33:1 34:1 36:1 37:1 
32768 1:0.058333333 2:0.06 5:1 14:1 17:1 22:1 24:1 30:1 32:1 33:1 36:1 37:1 
32737.477815474 1:0.063333333 2:0.04 5:1 11:1 14:1 17:1 25:1 30:1 32:1 33:1 34:1 36:1 37:1 
27625.98491818388 1:0.025 5:1 11:1 14:1 17:1 25:1 30:1 32:1 33:1 34:1 36:1 37:1 
32768 1:0.0083333333 5:1 11:1 14:1 17:1 24:1 30:1 32:1 33:1 36:1 37:1 
5312.78920695219 5:1 14:1 17:1 22:1 25:1 30:1 32:1 33:1 34:1 36:1 37:1 
38.38318870184182 1:0.041666667 2:0.02 5:1 6:1 11:1 14:1 17:1 25:1 30:1 32:1 33:1 34:1 36:1 37:1 
-32768 1:0.031666667 5:1 11:1 14:1 17:1 24:1 30:1 32:1 33:1 36:1 37:1 
-32768 1:0.031666667 5:1 11:1 14:1 17:1 24:1 30:1 32:1 33:1 36:1 37:1 
-32768 1:0.036666667 5:1 11:1 14:1 17:1 24:1 30:1 32:1 33:1 36:1 37:1 
-32768 1:0.046666667 5:1 11:1 14:1 17:1 24:1 30:1 32:1 33:1 36:1 37:1 
-1660.29416695642 1:0.061666667 5:1 11:1 14:1 17:1 25:1 30:1 32:1 33:1 34:1 36:1 37:1 
-32768 1:0.075 2:0.02 5:1 11:1 14:1 17:1 24:1 30:1 32:1 33:1 36:1 37:1 
-32768 1:0.01 2:0.02 5:1 11:1 14:1 17:1 24:1 30:1 32:1 33:1 36:1 37:1 
-32768 1:0.046666667 2:0.02 5:1 11:1 14:1 17:1 24:1 30:1 32:1 33:1 36:1 37:1 
-32768 1:0.046666667 2:0.02 5:1 11:1 14:1 17:1 24:1 30:1 32:1 33:1 36:1 37:1 
-32768 1:0.051666667 2:0.02 5:1 11:1 14:1 17:1 24:1 30:1 32:1 33:1 36:1 37:1 
-32768 1:0.061666667 2:0.02 5:1 11:1 14:1 17:1 24:1 30:1 32:1 33:1 36:1 37:1 
-21702.766199899 1:0.076666667 2:0.02 5:1 11:1 14:1 17:1 25:1 30:1 32:1 33:1 34:1 36:1 37:1 
-32768 1:0.021666667 2:0.02 5:1 11:1 14:1 17:1 24:1 30:1 32:1 33:1 36:1 37:1 
-32768 1:0.058333333 2:0.02 5:1 11:1 14:1 17:1 24:1 30:1 32:1 33:1 36:1 37:1 
-32768 1:0.058333333 2:0.02 5:1 11:1 14:1 17:1 24:1 30:1 32:1 33:1 36:1 37:1 
-32768 1:0.073333333 2:0.02 5:1 11:1 14:1 17:1 24:1 30:1 32:1 33:1 36:1 37:1 
-32768 1:0.028333333 5:1 11:1 14:1 17:1 24:1 30:1 32:1 33:1 36:1 37:1 
-32768 1:0.03 5:1 11:1 14:1 17:1 24:1 30:1 32:1 33:1 36:1 37:1 
-32768 1:0.04 5:1 11:1 14:1 17:1 24:1 30:1 32:1 33:1 36:1 37:1 
-32768 1:0.016666667 2:0.02 5:1 11:1 14:1 17:1 24:1 30:1 32:1 33:1 36:1 37:1 
-353.8864610180813 1:0.021666667 2:0.02 5:1 6:1 11:1 14:1 17:1 24:1 30:1 32:1 33:1 36:1 37:1 
-32768 1:0.015 2:0.04 5:1 11:1 14:1 17:1 24:1 30:1 32:1 33:1 36:1 37:1 
-32768 1:0.028333333 2:0.06 5:1 11:1 14:1 17:1 24:1 30:1 32:1 33:1 36:1 37:1 
-32768 1:0.055 2:0.06 5:1 14:1 17:1 22:1 24:1 30:1 32:1 33:1 36:1 37:1 
-32768 5:1 14:1 17:1 22:1 24:1 30:1 32:1 33:1 36:1 37:1 
-4962.995889743444 1:0.005 5:1 14:1 17:1 22:1 25:1 30:1 32:1 33:1 34:1 36:1 37:1 
-32768 1:0.005 5:1 14:1 17:1 22:1 24:1 30:1 32:1 33:1 36:1 37:1 
-32768 1:0.011666667 5:1 14:1 17:1 22:1 24:1 30:1 32:1 33:1 36:1 37:1 
-32768 1:0.07 2:0.06 5:1 14:1 17:1 22:1 24:1 30:1 32:1 33:1 36:1 37:1 
-32768 1:0.075 2:0.06 5:1 14:1 17:1 22:1 24:1 30:1 32:1 33:1 36:1 37:1 
-32768 1:0.065 2:0.06 5:1 14:1 17:1 22:1 24:1 30:1 32:1 33:1 36:1 37:1 
-32768 5:1 14:1 17:1 22:1 24:1 30:1 32:1 33:1 36:1 37:1 
-32768 5:1 14:1 17:1 22:1 24:1 30:1 32:1 33:1 36:1 37:1 
-32768 1:0.005 5:1 14:1 17:1 22:1 24:1 30:1 32:1 33:1 36:1 37:1 
-32768 1:0.051666667 2:0.06 5:1 14:1 17:1 22:1 24:1 30:1 32:1 33:1 36:1 37:1 
-32768 1:0.051666667 2:0.06 5:1 14:1 17:1 22:1 24:1 30:1 32:1 33:1 36:1 37:1 
-32768 1:0.06 2:0.06 5:1 14:1 17:1 22:1 24:1 30:1 32:1 33:1 36:1 37:1 
-32768 1:0.056666667 2:0.06 5:1 14:1 17:1 22:1 24:1 30:1 32:1 33:1 36:1 37:1 
-32768 1:0.0033333333 5:1 11:1 14:1 17:1 24:1 30:1 32:1 33:1 36:1 37:1 
-32768 1:0.028333333 2:0.02 5:1 11:1 14:1 17:1 24:1 30:1 32:1 33:1 36:1 37:1 
-32768 1:0.048333333 2:0.02 5:1 11:1 14:1 17:1 24:1 30:1 32:1 33:1 36:1 37:1 
-32768 1:0.058333333 2:0.02 5:1 11:1 14:1 17:1 24:1 30:1 32:1 33:1 36:1 37:1 
-32768 1:0.026666667 2:0.04 5:1 11:1 14:1 17:1 24:1 30:1 32:1 33:1 36:1 37:1 
-32768 1:0.035 2:0.04 5:1 11:1 14:1 17:1 24:1 30:1 32:1 33:1 36:1 37:1 
-32768 1:0.005 2:0.04 5:1 11:1 14:1 17:1 24:1 30:1 32:1 33:1 36:1 37:1 
-32768 1:0.013333333 2:0.04 5:1 11:1 14:1 17:1 24:1 30:1 32:1 33:1 36:1 37:1 
-32768 1:0.028333333 2:0.04 5:1 11:1 14:1 17:1 24:1 30:1 32:1 33:1 36:1 37:1 
-32768 1:0.05 2:0.02 5:1 11:1 14:1 17:1 24:1 30:1 32:1 33:1 36:1 37:1 
-32768 1:0.055 2:0.02 5:1 11:1 14:1 17:1 24:1 30:1 32:1 33:1 36:1 37:1 
-32768 1:0.023333333 5:1 11:1 14:1 17:1 24:1 30:1 32:1 33:1 36:1 37:1 
-32768 1:0.051666667 2:0.02 5:1 11:1 14:1 17:1 24:1 30:1 32:1 33:1 36:1 37:1 
-326.0700070347697 1:0.088333333 2:0.04 5:1 6:1 11:1 14:1 17:1 24:1 30:1 32:1 33:1 36:1 37:1 
-32768 1:0.021666667 2:0.04 5:1 11:1 14:1 17:1 24:1 30:1 32:1 33:1 36:1 37:1 
-32768 1:0.033333333 2:0.04 5:1 11:1 14:1 17:1 24:1 30:1 32:1 33:1 36:1 37:1 
-32768 1:0.041666667 2:0.04 5:1 11:1 14:1 17:1 24:1 30:1 32:1 33:1 36:1 37:1 
-32768 1:0.015 5:1 11:1 14:1 17:1 24:1 30:1 32:1 33:1 36:1 37:1 
-32768 1:0.031666667 5:1 11:1 14:1 17:1 24:1 30:1 32:1 33:1 36:1 37:1 
-32768 1:0.063333333 2:0.02 5:1 11:1 14:1 17:1 24:1 30:1 32:1 33:1 36:1 37:1 
-32768 1:0.07 2:0.02 5:1 11:1 14:1 17:1 24:1 30:1 32:1 33:1 36:1 37:1 
-32768 5:1 11:1 14:1 17:1 24:1 30:1 32:1 33:1 36:1 37:1 
-32768 1:0.01 5:1 11:1 14:1 17:1 24:1 30:1 32:1 33:1 36:1 37:1 
-32768 1:0.026666667 2:0.02 5:1 11:1 14:1 17:1 24:1 30:1 32:1 33:1 36:1 37:1 
-32768 1:0.041666667 2:0.02 5:1 11:1 14:1 17:1 24:1 30:1 32:1 33:1 36:1 37:1 
-32768 1:0.06 2:0.02 5:1 11:1 14:1 17:1 24:1 30:1 32:1 33:1 36:1 37:1 
-32768 1:0.076666667 2:0.02 5:1 11:1 14:1 17:1 24:1 30:1 32:1 33:1 36:1 37:1 
-32768 1:0.0033333333 5:1 11:1 14:1 17:1 24:1 30:1 32:1 33:1 36:1 37:1 
-32768 1:0.043333333 2:0.04 5:1 11:1 14:1 17:1 24:1 30:1 32:1 33:1 36:1 37:1 
-32768 1:0.075 2:0.06 5:1 11:1 14:1 17:1 25:1 30:1 32:1 33:1 34:1 36:1 37:1 
-21016.81146783665 1:0.036666667 2:0.06 5:1 14:1 17:1 22:1 24:1 30:1 32:1 33:1 36:1 37:1 
-32768 1:0.0016666667 5:1 11:1 14:1 17:1 24:1 30:1 32:1 33:1 36:1 37:1 
-32768 1:0.0016666667 5:1 11:1 14:1 17:1 24:1 30:1 32:1 33:1 36:1 37:1 
-32768 1:0.0066666667 5:1 11:1 14:1 17:1 24:1 30:1 32:1 33:1 36:1 37:1 
-32768 1:0.018333333 2:0.02 5:1 11:1 14:1 17:1 24:1 30:1 32:1 33:1 36:1 37:1 
-32768 1:0.025 2:0.02 5:1 11:1 14:1 17:1 24:1 30:1 32:1 33:1 36:1 37:1 
-32768 1:0.025 2:0.02 5:1 11:1 14:1 17:1 24:1 30:1 32:1 33:1 36:1 37:1 
-32768 1:0.03 2:0.02 5:1 11:1 14:1 17:1 24:1 30:1 32:1 33:1 36:1 37:1 
-32768 1:0.053333333 2:0.02 5:1 11:1 14:1 17:1 24:1 30:1 32:1 33:1 36:1 37:1 
-32768 1:0.005 5:1 11:1 14:1 17:1 24:1 30:1 32:1 33:1 36:1 37:1 
-32768 1:0.011666667 5:1 11:1 14:1 17:1 24:1 30:1 32:1 33:1 36:1 37:1 
-32768 1:0.025 5:1 11:1 14:1 17:1 24:1 30:1 32:1 33:1 36:1 37:1 
-32768 1:0.031666667 2:0.02 5:1 11:1 14:1 17:1 24:1 30:1 32:1 33:1 36:1 37:1 
-32768 1:0.068333333 2:0.02 5:1 11:1 14:1 17:1 24:1 30:1 32:1 33:1 36:1 37:1 
-32768 1:0.038333333 2:0.06 5:1 14:1 17:1 22:1 24:1 30:1 32:1 33:1 36:1 37:1 
-32768 5:1 14:1 17:1 22:1 24:1 30:1 32:1 33:1 36:1 37:1 
-32768 1:0.01 5:1 14:1 17:1 22:1 24:1 30:1 32:1 33:1 36:1 37:1 
-32768 5:1 14:1 17:1 22:1 24:1 30:1 32:1 33:1 36:1 37:1 
-32768 1:0.0016666667 5:1 11:1 14:1 17:1 24:1 30:1 32:1 33:1 36:1 37:1 
-32768 1:0.063333333 2:0.02 5:1 11:1 14:1 17:1 24:1 30:1 32:1 33:1 36:1 37:1 
-32768 1:0.071666667 2:0.02 5:1 11:1 14:1 17:1 24:1 30:1 32:1 33:1 36:1 37:1 
-32539.01420908326 1:0.076666667 2:0.02 5:1 11:1 14:1 17:1 24:1 30:1 32:1 33:1 36:1 37:1 
-32768 1:0.02 2:0.02 5:1 11:1 14:1 17:1 24:1 30:1 32:1 33:1 36:1 37:1 
-32768 1:0.02 2:0.02 5:1 11:1 14:1 17:1 24:1 30:1 32:1 33:1 36:1 37:1 
-32768 1:0.026666667 2:0.02 5:1 11:1 14:1 17:1 24:1 30:1 32:1 33:1 36:1 37:1 
-32768 1:0.026666667 2:0.02 5:1 11:1 14:1 17:1 24:1 30:1 32:1 33:1 36:1 37:1 
-32768 1:0.031666667 2:0.02 5:1 11:1 14:1 17:1 24:1 30:1 32:1 33:1 36:1 37:1 
-32768 1:0.035 2:0.02 5:1 11:1 14:1 17:1 24:1 30:1 32:1 33:1 36:1 37:1 
-32768 1:0.03 2:0.02 5:1 11:1 14:1 17:1 24:1 30:1 32:1 33:1 36:1 37:1 
-32768 1:0.041666667 2:0.02 5:1 11:1 14:1 17:1 24:1 30:1 32:1 33:1 36:1 37:1 
-32768 5:1 14:1 17:1 22:1 24:1 30:1 32:1 33:1 36:1 37:1 
-32768 1:0.063333333 2:0.06 5:1 14:1 17:1 22:1 24:1 30:1 32:1 33:1 36:1 37:1 
-32768 1:0.0016666667 5:1 11:1 14:1 17:1 24:1 30:1 32:1 33:1 36:1 37:1 
-32768 1:0.031666667 2:0.02 5:1 11:1 14:1 17:1 24:1 30:1 32:1 33:1 36:1 37:1 
-32768 1:0.041666667 2:0.02 5:1 11:1 14:1 17:1 24:1 30:1 32:1 33:1 36:1 37:1 
-32768 1:0.01 2:0.02 5:1 11:1 14:1 17:1 24:1 30:1 32:1 33:1 36:1 37:1 
-32768 1:0.016666667 2:0.02 5:1 11:1 14:1 17:1 24:1 30:1 32:1 33:1 36:1 37:1 
-32768 1:0.011666667 5:1 11:1 14:1 17:1 24:1 30:1 32:1 33:1 36:1 37:1 
-32768 1:0.045 2:0.02 5:1 11:1 14:1 17:1 25:1 30:1 32:1 33:1 34:1 36:1 37:1 
-32768 1:0.073333333 2:0.02 5:1 11:1 14:1 17:1 24:1 30:1 32:1 33:1 36:1 37:1 
-32768 1:0.0066666667 5:1 11:1 14:1 17:1 24:1 30:1 32:1 33:1 36:1 37:1 
-32768 1:0.038333333 2:0.02 5:1 11:1 14:1 17:1 24:1 30:1 32:1 33:1 36:1 37:1 
-32768 1:0.051666667 2:0.04 5:1 11:1 14:1 17:1 25:1 30:1 32:1 33:1 34:1 36:1 37:1 
-32768 1:0.011666667 2:0.02 5:1 11:1 14:1 17:1 24:1 30:1 32:1 33:1 36:1 37:1 
-32768 1:0.021666667 2:0.02 5:1 11:1 14:1 17:1 24:1 30:1 32:1 33:1 36:1 37:1 
-32768 1:0.026666667 2:0.04 5:1 11:1 14:1 17:1 24:1 30:1 32:1 33:1 36:1 37:1 
-32768 1:0.005 5:1 14:1 17:1 22:1 24:1 30:1 32:1 33:1 36:1 37:1 
-32768 1:0.0066666667 5:1 11:1 14:1 17:1 24:1 30:1 32:1 33:1 36:1 37:1 
-32768 1:0.03 2:0.02 5:1 11:1 14:1 17:1 24:1 30:1 32:1 33:1 36:1 37:1 
-32768 1:0.068333333 2:0.02 5:1 11:1 14:1 17:1 24:1 30:1 32:1 33:1 36:1 37:1 
-32768 1:0.03 2:0.06 5:1 11:1 14:1 17:1 24:1 30:1 32:1 33:1 36:1 37:1 
-32768 1:0.005 5:1 14:1 17:1 22:1 24:1 30:1 32:1 33:1 36:1 37:1 
-32768 1:0.053333333 2:0.06 5:1 14:1 17:1 22:1 24:1 30:1 32:1 33:1 36:1 37:1 
-32768 1:0.061666667 2:0.06 5:1 14:1 17:1 22:1 24:1 30:1 32:1 33:1 36:1 37:1 
-32768 1:0.02 2:0.02 5:1 11:1 14:1 17:1 24:1 30:1 32:1 33:1 36:1 37:1 
-32768 1:0.021666667 2:0.02 5:1 11:1 14:1 17:1 24:1 30:1 32:1 33:1 36:1 37:1 
-32768 5:1 14:1 17:1 22:1 24:1 30:1 32:1 33:1 36:1 37:1 
-32768 5:1 11:1 14:1 17:1 24:1 30:1 32:1 33:1 36:1 37:1 
-32768 1:0.005 5:1 14:1 17:1 22:1 24:1 30:1 32:1 33:1 36:1 37:1 
-32768 1:0.011666667 5:1 11:1 14:1 17:1 24:1 30:1 32:1 33:1 36:1 37:1 
-32768 1:0.051666667 2:0.02 5:1 11:1 14:1 17:1 24:1 30:1 32:1 33:1 36:1 37:1 
-32768 1:0.081666667 2:0.04 5:1 11:1 14:1 17:1 25:1 30:1 32:1 33:1 34:1 36:1 37:1 
-32768 5:1 14:1 17:1 22:1 24:1 30:1 32:1 33:1 36:1 37:1 
-32768 1:0.0016666667 5:1 11:1 14:1 17:1 24:1 30:1 32:1 33:1 36:1 37:1 
-32768 1:0.013333333 2:0.02 5:1 11:1 14:1 17:1 24:1 30:1 32:1 33:1 36:1 37:1 
-32768 1:0.035 2:0.02 5:1 11:1 14:1 17:1 24:1 30:1 32:1 33:1 36:1 37:1 
-32768 1:0.026666667 2:0.02 5:1 11:1 14:1 17:1 24:1 30:1 32:1 33:1 36:1 37:1 
-32768 1:0.036666667 2:0.02 5:1 11:1 14:1 17:1 24:1 30:1 32:1 33:1 36:1 37:1 
-32768 1:0.041666667 2:0.02 5:1 11:1 14:1 17:1 24:1 30:1 32:1 33:1 36:1 37:1 
-32768 1:0.0016666667 5:1 11:1 14:1 17:1 24:1 30:1 32:1 33:1 36:1 37:1 
-32768 1:0.01 5:1 11:1 14:1 17:1 24:1 30:1 32:1 33:1 36:1 37:1 
-32768 1:0.023333333 2:0.02 5:1 11:1 14:1 17:1 24:1 30:1 32:1 33:1 36:1 37:1 
-32768 1:0.065 2:0.04 5:1 11:1 14:1 17:1 25:1 30:1 32:1 33:1 34:1 36:1 37:1 
-32768 1:0.088333333 2:0.06 5:1 11:1 14:1 17:1 25:1 30:1 32:1 33:1 34:1 36:1 37:1 
-275.2844121268193 2:0.02 5:1 14:1 17:1 22:1 25:1 30:1 32:1 33:1 34:1 36:1 37:1 
-32768 1:0.073333333 2:0.06 5:1 14:1 17:1 22:1 24:1 30:1 32:1 33:1 36:1 37:1 
-32768 1:0.016666667 2:0.02 5:1 11:1 14:1 17:1 24:1 30:1 32:1 33:1 36:1 37:1 
-32768 1:0.028333333 2:0.02 5:1 11:1 14:1 17:1 24:1 30:1 32:1 33:1 36:1 37:1 
-32768 1:0.038333333 2:0.02 5:1 11:1 14:1 17:1 24:1 30:1 32:1 33:1 36:1 37:1 
-25748.04234260023 1:0.02 5:1 14:1 17:1 22:1 24:1 30:1 32:1 33:1 36:1 37:1 
-32768 1:0.015 2:0.02 5:1 11:1 14:1 17:1 24:1 30:1 32:1 33:1 36:1 37:1 
-32768 1:0.036666667 2:0.02 5:1 11:1 14:1 17:1 24:1 30:1 32:1 33:1 36:1 37:1 
-32768 5:1 14:1 17:1 22:1 24:1 30:1 32:1 33:1 36:1 37:1 
-32768 1:0.005 2:0.02 5:1 11:1 14:1 17:1 24:1 30:1 32:1 33:1 36:1 37:1 
-32768 1:0.0016666667 5:1 11:1 14:1 17:1 24:1 30:1 32:1 33:1 36:1 37:1 
-32768 1:0.005 5:1 11:1 14:1 17:1 24:1 30:1 32:1 33:1 36:1 37:1 
-32768 1:0.035 2:0.02 5:1 11:1 14:1 17:1 24:1 30:1 32:1 33:1 36:1 37:1 
-32768 1:0.045 2:0.02 5:1 11:1 14:1 17:1 24:1 30:1 32:1 33:1 36:1 37:1 
-32768 1:0.058333333 2:0.04 5:1 11:1 14:1 17:1 25:1 30:1 32:1 33:1 34:1 36:1 37:1 
-32768 1:0.063333333 2:0.04 5:1 11:1 14:1 17:1 25:1 30:1 32:1 33:1 34:1 36:1 37:1 
-32768 1:0.025 5:1 11:1 14:1 17:1 24:1 30:1 32:1 33:1 36:1 37:1 
-32768 1:0.04 2:0.04 5:1 11:1 14:1 17:1 24:1 30:1 32:1 33:1 36:1 37:1 
-32768 1:0.0016666667 5:1 11:1 14:1 17:1 24:1 30:1 32:1 33:1 36:1 37:1 
-32768 1:0.046666667 2:0.06 5:1 14:1 17:1 22:1 24:1 30:1 32:1 33:1 36:1 37:1 
-32768 1:0.065 2:0.06 5:1 14:1 17:1 22:1 24:1 30:1 32:1 33:1 36:1 37:1 
-32768 1:0.011666667 2:0.02 5:1 11:1 14:1 17:1 24:1 30:1 32:1 33:1 36:1 37:1 
-32768 1:0.023333333 2:0.04 5:1 11:1 14:1 17:1 24:1 30:1 32:1 33:1 36:1 37:1 
-32768 1:0.031666667 2:0.04 5:1 11:1 14:1 17:1 24:1 30:1 32:1 33:1 36:1 37:1 
-32768 1:0.0016666667 5:1 11:1 14:1 17:1 24:1 30:1 32:1 33:1 36:1 37:1 
-32768 1:0.038333333 5:1 11:1 14:1 17:1 24:1 30:1 32:1 33:1 36:1 37:1 
-32768 1:0.051666667 2:0.02 5:1 11:1 14:1 17:1 24:1 30:1 32:1 33:1 36:1 37:1 
-32768 1:0.005 2:0.02 5:1 11:1 14:1 17:1 24:1 30:1 32:1 33:1 36:1 37:1 
-32768 1:0.038333333 5:1 11:1 14:1 17:1 25:1 30:1 32:1 33:1 34:1 36:1 37:1 
-32768 1:0.055 2:0.02 5:1 11:1 14:1 17:1 25:1 30:1 32:1 33:1 34:1 36:1 37:1 
-32768 1:0.02 2:0.02 5:1 11:1 14:1 17:1 24:1 30:1 32:1 33:1 36:1 37:1 
-32768 1:0.033333333 2:0.02 5:1 11:1 14:1 17:1 24:1 30:1 32:1 33:1 36:1 37:1 
-30628.88238290724 1:0.046666667 2:0.04 5:1 11:1 14:1 17:1 24:1 30:1 32:1 33:1 36:1 37:1 
-32534.25422819391 1:0.046666667 2:0.04 5:1 11:1 14:1 17:1 24:1 30:1 32:1 33:1 36:1 37:1 
-32768 1:0.005 5:1 11:1 14:1 17:1 24:1 30:1 32:1 33:1 36:1 37:1 
-32768 1:0.026666667 2:0.02 5:1 11:1 14:1 17:1 24:1 30:1 32:1 33:1 36:1 37:1 
-32768 1:0.005 5:1 11:1 14:1 17:1 24:1 30:1 32:1 33:1 36:1 37:1 
-32768 1:0.016666667 2:0.02 5:1 11:1 14:1 17:1 24:1 30:1 32:1 33:1 36:1 37:1 
-32768 1:0.025 2:0.04 5:1 11:1 14:1 17:1 24:1 30:1 32:1 33:1 36:1 37:1 
-32768 1:0.038333333 2:0.06 5:1 14:1 17:1 22:1 24:1 30:1 32:1 33:1 36:1 37:1 
-32768 1:0.048333333 2:0.06 5:1 14:1 17:1 22:1 24:1 30:1 32:1 33:1 36:1 37:1 
-6900.534514457147 1:0.06 2:0.06 5:1 11:1 14:1 17:1 25:1 30:1 32:1 33:1 34:1 36:1 37:1 
-32768 1:0.053333333 2:0.04 5:1 11:1 14:1 17:1 25:1 30:1 32:1 33:1 34:1 36:1 37:1 
-32768 1:0.073333333 2:0.06 5:1 14:1 17:1 22:1 24:1 30:1 32:1 33:1 36:1 37:1 
-32768 1:0.01 5:1 11:1 14:1 17:1 24:1 30:1 32:1 33:1 36:1 37:1 
-32768 1:0.031666667 2:0.02 5:1 11:1 14:1 17:1 24:1 30:1 32:1 33:1 36:1 37:1 
-32768 1:0.0083333333 5:1 14:1 17:1 22:1 24:1 30:1 32:1 33:1 36:1 37:1 
-32768 1:0.016666667 5:1 11:1 14:1 17:1 24:1 30:1 32:1 33:1 36:1 37:1 
-32768 1:0.033333333 2:0.02 5:1 11:1 14:1 17:1 25:1 30:1 32:1 33:1 34:1 36:1 37:1 
-32768 1:0.0016666667 5:1 11:1 14:1 17:1 24:1 30:1 32:1 33:1 36:1 37:1 
-32768 1:0.021666667 2:0.02 5:1 11:1 14:1 17:1 24:1 30:1 32:1 33:1 36:1 37:1 
-31737.85986623551 1:0.045 2:0.04 5:1 11:1 14:1 17:1 25:1 30:1 32:1 33:1 34:1 36:1 37:1 
-32768 1:0.01 5:1 14:1 17:1 22:1 24:1 30:1 32:1 33:1 36:1 37:1 
-32768 1:0.0066666667 5:1 11:1 14:1 17:1 24:1 30:1 32:1 33:1 36:1 37:1 
-32768 1:0.023333333 5:1 11:1 14:1 17:1 24:1 30:1 32:1 33:1 36:1 37:1 
-32768 1:0.031666667 5:1 11:1 14:1 17:1 24:1 30:1 32:1 33:1 36:1 37:1 
-32768 1:0.045 2:0.02 5:1 11:1 14:1 17:1 24:1 30:1 32:1 33:1 36:1 37:1 
-32768 1:0.061666667 2:0.02 5:1 11:1 14:1 17:1 24:1 30:1 32:1 33:1 36:1 37:1 
-32768 1:0.073333333 2:0.02 5:1 11:1 14:1 17:1 24:1 30:1 32:1 33:1 36:1 37:1 
-32768 1:0.015 2:0.02 5:1 11:1 14:1 17:1 24:1 30:1 32:1 33:1 36:1 37:1 
-32768 1:0.031666667 2:0.02 5:1 11:1 14:1 17:1 24:1 30:1 32:1 33:1 36:1 37:1 
-32768 1:0.04 2:0.02 5:1 11:1 14:1 17:1 24:1 30:1 32:1 33:1 36:1 37:1 
-32768 1:0.045 2:0.02 5:1 11:1 14:1 17:1 24:1 30:1 32:1 33:1 36:1 37:1 
-32768 1:0.061666667 2:0.02 5:1 11:1 14:1 17:1 24:1 30:1 32:1 33:1 36:1 37:1 
-32768 1:0.07 2:0.02 5:1 11:1 14:1 17:1 24:1 30:1 32:1 33:1 36:1 37:1 
-32768 1:0.0016666667 5:1 11:1 14:1 17:1 24:1 30:1 32:1 33:1 36:1 37:1 
-32768 1:0.033333333 2:0.02 5:1 11:1 14:1 17:1 25:1 30:1 32:1 33:1 34:1 36:1 37:1 
-32768 1:0.01 5:1 11:1 14:1 17:1 24:1 30:1 32:1 33:1 36:1 37:1 
-32768 1:0.0016666667 5:1 11:1 14:1 17:1 24:1 30:1 32:1 33:1 36:1 37:1 
-32768 1:0.013333333 5:1 11:1 14:1 17:1 24:1 30:1 32:1 33:1 36:1 37:1 
-32768 1:0.016666667 5:1 11:1 14:1 17:1 24:1 30:1 32:1 33:1 36:1 37:1 
-32768 1:0.048333333 2:0.02 5:1 11:1 14:1 17:1 25:1 30:1 32:1 33:1 34:1 36:1 37:1 
-32768 1:0.0083333333 5:1 11:1 14:1 17:1 24:1 30:1 32:1 33:1 36:1 37:1 
-32768 1:0.0083333333 5:1 11:1 14:1 17:1 24:1 30:1 32:1 33:1 36:1 37:1 
-32768 1:0.018333333 5:1 11:1 14:1 17:1 24:1 30:1 32:1 33:1 36:1 37:1 
-32768 1:0.03 2:0.02 5:1 11:1 14:1 17:1 24:1 30:1 32:1 33:1 36:1 37:1 
-32768 1:0.048333333 2:0.02 5:1 11:1 14:1 17:1 24:1 30:1 32:1 33:1 36:1 37:1 
