svm_type c_svc
kernel_type rbf
gamma 0.125
nr_class 2
total_sv 1416
rho -0.368400692648625
label 0 1
probA -2.4774606033429656
probB -0.3589409551296657
nr_sv 851 565
SV
1.7822592608417676 1:0.096667 2:0.2 9:1.0 11:1.0 14:1.0 19:1.0 20:1.0 21:1.0 24:1.0 29:1.0 31:1.0 32:1.0 35:1.0 36:0.65525 37:0.852941 38:1.3 43:1.0 44:1.0 52:1.0 53:1.0 71:1.0 75:1.0 120:1.0 
2.0 1:0.378333 2:1.0 3:1.0 4:1.0 5:1.0 6:1.0 11:1.0 14:1.0 17:1.0 19:1.0 20:1.0 21:1.0 23:1.0 29:1.0 31:1.0 32:1.0 36:0.655243 38:0.9 39:1.0 40:1.0 50:1.0 56:1.0 118:1.0 
2.0 1:0.001667 11:1.0 14:1.0 20:1.0 21:1.0 23:1.0 29:1.0 31:1.0 32:1.0 34:1.0 35:1.0 36:0.655251 37:0.703182 38:0.1 
0.3934425999193434 1:0.02 2:0.1 9:1.0 12:1.0 14:1.0 21:1.0 24:1.0 29:1.0 31:1.0 32:1.0 34:1.0 35:1.0 36:0.622618 37:0.837662 38:0.8 44:1.0 58:1.0 92:1.0 93:1.0 
2.0 1:0.051667 2:0.2 11:1.0 14:1.0 19:1.0 20:1.0 21:1.0 23:1.0 29:1.0 31:1.0 32:1.0 36:0.655252 37:0.294118 38:1.5 39:1.0 63:1.0 
0.051570706644047754 1:0.423333 2:0.9 7:1.0 11:1.0 16:1.0 23:1.0 30:1.0 31:1.0 35:1.0 36:0.303878 37:1.0 38:1.3 41:1.0 45:1.0 60:1.0 69:1.0 70:1.0 102:1.0 
0.14081079519099096 1:0.096667 2:0.5 11:1.0 14:1.0 21:1.0 24:1.0 29:1.0 31:1.0 32:1.0 33:1.0 35:1.0 36:0.655246 37:0.6 38:0.6 39:1.0 73:1.0 122:1.0 123:1.0 
0.10223615740092849 1:0.31 2:0.9 11:1.0 14:1.0 20:1.0 21:1.0 23:1.0 29:1.0 31:1.0 32:1.0 35:1.0 36:0.303876 37:0.798701 38:1.8 43:1.0 49:1.0 52:1.0 62:1.0 
1.095034770599658 1:0.39 2:1.0 5:1.0 13:1.0 14:1.0 17:1.0 20:1.0 21:1.0 23:1.0 29:1.0 31:1.0 32:1.0 35:1.0 36:0.655251 37:0.459181 38:0.3 41:1.0 42:1.0 45:1.0 46:1.0 47:1.0 
0.17829735918335943 1:0.046667 2:0.3 11:1.0 14:1.0 20:1.0 21:1.0 23:1.0 29:1.0 31:1.0 32:1.0 34:1.0 35:1.0 36:0.303882 37:0.704191 38:0.8 40:1.0 43:1.0 49:1.0 
0.010751536040955047 1:0.236667 2:0.8 13:1.0 16:1.0 23:1.0 29:1.0 31:1.0 32:1.0 35:1.0 36:0.303881 37:1.0 38:2.6 41:1.0 45:1.0 57:1.0 58:1.0 63:1.0 64:1.0 93:1.0 98:1.0 113:1.0 114:1.0 
2.0 1:0.023333 11:1.0 14:1.0 19:1.0 20:1.0 21:1.0 23:1.0 29:1.0 31:1.0 32:1.0 35:1.0 36:0.303878 37:0.710526 38:0.3 
0.08311342306462462 1:0.121667 2:0.3 9:1.0 11:1.0 14:1.0 21:1.0 24:1.0 29:1.0 31:1.0 32:1.0 35:1.0 36:0.65525 37:0.842857 38:1.6 44:1.0 49:1.0 50:1.0 51:1.0 52:1.0 58:1.0 59:1.0 92:1.0 93:1.0 
0.11550720263729367 1:0.27 2:0.8 12:1.0 14:1.0 21:1.0 23:1.0 29:1.0 31:1.0 32:1.0 35:1.0 36:0.303883 37:0.842742 38:2.7 43:1.0 44:1.0 63:1.0 64:1.0 125:1.0 126:1.0 127:1.0 132:1.0 133:1.0 
0.3010748402955916 1:0.011667 2:0.1 11:1.0 14:1.0 24:1.0 29:1.0 31:1.0 32:1.0 33:1.0 34:1.0 35:1.0 36:0.303875 37:1.0 38:1.1 43:1.0 91:1.0 103:1.0 104:1.0 171:1.0 
0.402919422959945 1:0.091667 2:0.2 11:1.0 14:1.0 21:1.0 24:1.0 29:1.0 31:1.0 32:1.0 33:1.0 35:1.0 36:0.303875 37:0.690909 38:2.4 39:1.0 49:1.0 65:1.0 100:1.0 112:1.0 166:1.0 
2.0 1:0.34 2:0.8 3:1.0 4:1.0 5:1.0 6:1.0 11:1.0 14:1.0 17:1.0 19:1.0 20:1.0 21:1.0 23:1.0 29:1.0 31:1.0 32:1.0 35:1.0 36:0.303882 38:1.2 49:1.0 50:1.0 59:1.0 62:1.0 
0.8463698401564923 1:0.021667 2:0.1 9:1.0 11:1.0 14:1.0 21:1.0 24:1.0 29:1.0 31:1.0 32:1.0 34:1.0 36:0.65525 37:0.813012 38:0.7 44:1.0 56:1.0 111:1.0 
0.4192644109356562 1:0.21 2:0.7 5:1.0 13:1.0 14:1.0 19:1.0 20:1.0 21:1.0 23:1.0 29:1.0 31:1.0 32:1.0 36:0.303875 37:0.076923 38:2.2 43:1.0 49:1.0 50:1.0 59:1.0 78:1.0 79:1.0 80:1.0 107:1.0 
2.0 1:0.081667 2:0.2 4:1.0 5:1.0 11:1.0 14:1.0 17:1.0 19:1.0 20:1.0 21:1.0 23:1.0 29:1.0 32:1.0 35:1.0 36:0.655249 37:0.35 38:0.7 40:1.0 96:1.0 104:1.0 
0.1841255646976589 1:0.195 2:0.5 9:1.0 13:1.0 16:1.0 21:1.0 24:1.0 29:1.0 31:1.0 32:1.0 35:1.0 36:0.65525 37:1.0 38:1.2 41:1.0 44:1.0 45:1.0 58:1.0 92:1.0 93:1.0 
2.0 1:0.003333 3:1.0 4:1.0 5:1.0 6:1.0 11:1.0 14:1.0 17:1.0 19:1.0 20:1.0 21:1.0 23:1.0 29:1.0 31:1.0 32:1.0 34:1.0 35:1.0 36:0.303876 38:0.5 
2.0 1:0.025 2:0.1 11:1.0 14:1.0 17:1.0 20:1.0 21:1.0 23:1.0 29:1.0 31:1.0 32:1.0 34:1.0 35:1.0 36:0.30388 37:0.606754 38:0.8 39:1.0 49:1.0 
2.0 1:0.231667 2:1.0 3:1.0 4:1.0 5:1.0 6:1.0 11:1.0 14:1.0 17:1.0 19:1.0 20:1.0 21:1.0 23:1.0 29:1.0 31:1.0 32:1.0 34:1.0 35:1.0 36:0.303876 38:0.6 
2.0 1:0.006667 2:0.1 9:1.0 11:1.0 14:1.0 21:1.0 24:1.0 29:1.0 31:1.0 32:1.0 34:1.0 36:0.65525 37:0.571429 38:0.4 42:1.0 46:1.0 
0.43506761657363563 1:0.166667 2:0.6 12:1.0 14:1.0 21:1.0 23:1.0 29:1.0 31:1.0 32:1.0 35:1.0 36:0.30388 37:0.7 38:1.7 41:1.0 45:1.0 57:1.0 58:1.0 60:1.0 63:1.0 64:1.0 93:1.0 95:1.0 112:1.0 113:1.0 160:1.0 
0.20689304548150786 1:0.035 2:0.3 13:1.0 14:1.0 21:1.0 23:1.0 29:1.0 31:1.0 32:1.0 35:1.0 36:0.655247 37:0.785714 38:0.6 63:1.0 
0.5648069807330068 1:0.16 2:0.6 11:1.0 16:1.0 23:1.0 29:1.0 31:1.0 32:1.0 35:1.0 36:0.303875 37:1.0 38:0.8 39:1.0 49:1.0 62:1.0 94:1.0 95:1.0 
0.08439170695422601 1:0.011667 2:0.1 12:1.0 14:1.0 21:1.0 23:1.0 29:1.0 31:1.0 32:1.0 34:1.0 35:1.0 36:0.30388 37:0.973684 38:0.9 50:1.0 63:1.0 71:1.0 72:1.0 
2.0 1:0.175 2:0.7 11:1.0 14:1.0 17:1.0 19:1.0 20:1.0 21:1.0 23:1.0 29:1.0 31:1.0 32:1.0 35:1.0 36:0.303876 38:1.1 40:1.0 49:1.0 
0.19018494268226388 1:0.101667 2:0.4 11:1.0 14:1.0 20:1.0 21:1.0 23:1.0 29:1.0 31:1.0 32:1.0 35:1.0 36:0.655243 37:0.838095 38:2.0 43:1.0 50:1.0 56:1.0 107:1.0 118:1.0 124:1.0 125:1.0 126:1.0 
0.09132920175510974 1:0.083333 2:0.2 12:1.0 14:1.0 21:1.0 23:1.0 29:1.0 31:1.0 32:1.0 34:1.0 35:1.0 36:0.303883 37:0.787298 38:2.5 40:1.0 43:1.0 96:1.0 125:1.0 
0.7693703447912086 13:1.0 14:1.0 21:1.0 24:1.0 29:1.0 31:1.0 32:1.0 33:1.0 34:1.0 36:0.65525 37:0.909091 38:0.2 40:1.0 41:1.0 45:1.0 
0.2791448839646277 1:0.1 2:0.5 4:1.0 9:1.0 12:1.0 14:1.0 21:1.0 22:1.0 29:1.0 31:1.0 32:1.0 33:1.0 35:1.0 36:0.303883 37:0.928571 38:1.0 43:1.0 44:1.0 91:1.0 103:1.0 104:1.0 124:1.0 125:1.0 126:1.0 171:1.0 
2.0 1:0.085 11:1.0 14:1.0 21:1.0 23:1.0 29:1.0 31:1.0 32:1.0 34:1.0 35:1.0 36:0.655243 37:0.857937 38:1.3 44:1.0 62:1.0 94:1.0 95:1.0 102:1.0 
2.0 1:0.016667 11:1.0 14:1.0 21:1.0 23:1.0 29:1.0 31:1.0 32:1.0 34:1.0 35:1.0 36:0.655243 37:0.839636 38:0.9 40:1.0 43:1.0 61:1.0 
2.0 1:0.243333 2:0.9 11:1.0 14:1.0 17:1.0 19:1.0 20:1.0 21:1.0 23:1.0 29:1.0 31:1.0 32:1.0 36:0.303878 37:0.214286 38:1.7 49:1.0 
0.5247340480654644 1:0.248333 2:0.8 4:1.0 9:1.0 11:1.0 14:1.0 21:1.0 22:1.0 29:1.0 31:1.0 32:1.0 33:1.0 35:1.0 36:0.65525 37:1.0 38:2.5 43:1.0 44:1.0 56:1.0 58:1.0 69:1.0 77:1.0 78:1.0 79:1.0 80:1.0 93:1.0 108:1.0 111:1.0 112:1.0 113:1.0 114:1.0 
2.0 1:0.153333 2:0.4 9:1.0 11:1.0 14:1.0 21:1.0 24:1.0 29:1.0 31:1.0 32:1.0 35:1.0 36:0.655246 37:0.880642 38:0.6 42:1.0 46:1.0 53:1.0 56:1.0 
2.0 1:0.001667 2:0.1 3:1.0 4:1.0 5:1.0 6:1.0 11:1.0 14:1.0 17:1.0 19:1.0 20:1.0 21:1.0 23:1.0 29:1.0 31:1.0 32:1.0 34:1.0 35:1.0 36:0.30388 38:0.1 
2.0 1:0.01 2:0.1 4:1.0 11:1.0 14:1.0 17:1.0 19:1.0 20:1.0 21:1.0 23:1.0 29:1.0 31:1.0 32:1.0 34:1.0 35:1.0 36:0.30388 38:0.3 40:1.0 
0.0646667421045771 1:0.063333 2:0.1 11:1.0 14:1.0 21:1.0 23:1.0 29:1.0 31:1.0 32:1.0 34:1.0 35:1.0 36:0.655247 37:0.9 38:3.2 43:1.0 49:1.0 50:1.0 52:1.0 59:1.0 78:1.0 79:1.0 80:1.0 
0.9533970695275151 1:0.006667 9:1.0 12:1.0 14:1.0 21:1.0 24:1.0 29:1.0 31:1.0 32:1.0 34:1.0 35:1.0 36:0.65525 37:0.884615 38:0.4 
2.0 1:0.006667 11:1.0 14:1.0 17:1.0 19:1.0 20:1.0 21:1.0 23:1.0 29:1.0 31:1.0 32:1.0 34:1.0 35:1.0 36:0.655246 37:0.85 38:0.5 43:1.0 52:1.0 
2.0 1:0.076667 2:0.2 3:1.0 4:1.0 5:1.0 6:1.0 11:1.0 14:1.0 17:1.0 19:1.0 20:1.0 21:1.0 23:1.0 29:1.0 31:1.0 32:1.0 35:1.0 36:0.303882 38:1.2 53:1.0 
1.0714177417986153 1:0.081667 2:0.3 11:1.0 14:1.0 17:1.0 19:1.0 20:1.0 21:1.0 23:1.0 29:1.0 31:1.0 32:1.0 36:0.303878 37:0.15625 38:1.4 49:1.0 50:1.0 57:1.0 58:1.0 59:1.0 60:1.0 
0.026832519385687238 1:0.098333 2:0.3 13:1.0 16:1.0 23:1.0 29:1.0 31:1.0 32:1.0 35:1.0 36:0.655247 37:0.780769 38:1.5 43:1.0 63:1.0 68:1.0 
0.6911386665792084 1:0.148333 2:0.3 4:1.0 9:1.0 11:1.0 14:1.0 20:1.0 21:1.0 22:1.0 29:1.0 31:1.0 32:1.0 33:1.0 35:1.0 36:0.65525 37:0.59908 38:0.9 40:1.0 41:1.0 45:1.0 108:1.0 149:1.0 163:1.0 
1.350465776977934 1:0.023333 2:0.3 11:1.0 14:1.0 21:1.0 23:1.0 29:1.0 31:1.0 32:1.0 34:1.0 36:0.303875 37:1.0 38:0.5 42:1.0 46:1.0 53:1.0 56:1.0 
3.649408024141202E-4 1:0.015 2:0.1 13:1.0 14:1.0 21:1.0 23:1.0 29:1.0 31:1.0 32:1.0 34:1.0 35:1.0 36:0.655246 37:0.909091 38:0.8 39:1.0 49:1.0 60:1.0 
2.0 1:0.06 2:0.1 11:1.0 14:1.0 21:1.0 23:1.0 29:1.0 31:1.0 32:1.0 34:1.0 35:1.0 36:0.655243 37:0.879032 38:1.1 44:1.0 49:1.0 167:1.0 180:1.0 
1.6365524311452273 1:0.055 2:0.3 6:1.0 11:1.0 14:1.0 17:1.0 19:1.0 20:1.0 21:1.0 23:1.0 29:1.0 31:1.0 32:1.0 35:1.0 36:0.655243 38:1.5 43:1.0 49:1.0 50:1.0 59:1.0 104:1.0 124:1.0 125:1.0 126:1.0 127:1.0 152:1.0 171:1.0 
0.2256580150126688 1:0.045 2:0.1 13:1.0 16:1.0 23:1.0 29:1.0 31:1.0 32:1.0 35:1.0 36:0.30388 37:1.0 38:0.8 41:1.0 45:1.0 60:1.0 63:1.0 64:1.0 69:1.0 76:1.0 105:1.0 106:1.0 
2.0 1:0.01 2:0.1 9:1.0 11:1.0 14:1.0 19:1.0 20:1.0 21:1.0 24:1.0 29:1.0 31:1.0 32:1.0 34:1.0 36:0.655249 37:0.35 38:0.8 42:1.0 46:1.0 50:1.0 63:1.0 
0.19655023903463384 1:0.023333 7:1.0 11:1.0 16:1.0 23:1.0 30:1.0 31:1.0 35:1.0 36:0.655247 37:1.0 38:0.8 41:1.0 45:1.0 62:1.0 94:1.0 95:1.0 
0.1648811507081301 1:0.018333 2:0.1 4:1.0 9:1.0 11:1.0 14:1.0 21:1.0 22:1.0 29:1.0 31:1.0 32:1.0 33:1.0 34:1.0 35:1.0 36:0.65525 37:0.845039 38:0.7 44:1.0 56:1.0 111:1.0 
0.4844345499087644 1:0.035 2:0.1 12:1.0 14:1.0 17:1.0 21:1.0 23:1.0 29:1.0 32:1.0 35:1.0 36:0.303876 37:0.425481 38:1.6 43:1.0 49:1.0 51:1.0 52:1.0 108:1.0 148:1.0 
0.5479987499231036 1:0.033333 2:0.1 12:1.0 14:1.0 17:1.0 23:1.0 29:1.0 31:1.0 32:1.0 35:1.0 36:0.30388 37:0.7 38:1.3 40:1.0 41:1.0 45:1.0 49:1.0 58:1.0 92:1.0 93:1.0 
0.7042542702982637 1:0.14 2:0.5 11:1.0 14:1.0 20:1.0 21:1.0 23:1.0 29:1.0 31:1.0 32:1.0 35:1.0 36:0.655251 37:0.382857 38:1.5 39:1.0 49:1.0 58:1.0 78:1.0 79:1.0 92:1.0 93:1.0 113:1.0 
2.0 1:0.331667 2:0.4 11:1.0 14:1.0 21:1.0 23:1.0 29:1.0 31:1.0 32:1.0 35:1.0 36:0.655243 37:0.88648 38:1.2 44:1.0 58:1.0 91:1.0 93:1.0 108:1.0 114:1.0 147:1.0 148:1.0 149:1.0 163:1.0 
2.0 1:0.001667 2:0.1 4:1.0 11:1.0 14:1.0 17:1.0 20:1.0 21:1.0 23:1.0 29:1.0 31:1.0 32:1.0 34:1.0 35:1.0 36:0.655251 37:0.173913 38:0.7 39:1.0 40:1.0 63:1.0 
0.1667274253689839 1:0.061667 2:0.1 11:1.0 14:1.0 21:1.0 23:1.0 29:1.0 31:1.0 32:1.0 34:1.0 35:1.0 36:0.655246 37:0.88141 38:0.8 43:1.0 44:1.0 63:1.0 
2.0 1:0.018333 4:1.0 9:1.0 11:1.0 14:1.0 20:1.0 21:1.0 22:1.0 29:1.0 31:1.0 32:1.0 33:1.0 34:1.0 35:1.0 36:0.65525 37:0.4375 38:0.7 43:1.0 44:1.0 58:1.0 
0.3160601487537146 1:0.008333 2:0.1 4:1.0 11:1.0 14:1.0 20:1.0 21:1.0 23:1.0 29:1.0 31:1.0 32:1.0 34:1.0 35:1.0 36:0.655246 37:0.434615 38:0.6 43:1.0 49:1.0 
0.63864759580413 1:0.086667 2:0.4 11:1.0 14:1.0 21:1.0 23:1.0 29:1.0 31:1.0 32:1.0 34:1.0 35:1.0 36:0.303876 37:0.75 38:1.5 39:1.0 49:1.0 98:1.0 
2.0 1:0.043333 3:1.0 4:1.0 5:1.0 6:1.0 11:1.0 14:1.0 17:1.0 19:1.0 20:1.0 21:1.0 23:1.0 29:1.0 31:1.0 32:1.0 34:1.0 35:1.0 36:0.655246 38:0.9 
1.1353536882971578 1:0.278333 2:0.6 12:1.0 14:1.0 17:1.0 21:1.0 23:1.0 29:1.0 31:1.0 32:1.0 35:1.0 36:0.303875 37:0.939394 38:1.8 43:1.0 63:1.0 69:1.0 
2.0 1:0.093333 2:0.9 3:1.0 4:1.0 5:1.0 6:1.0 11:1.0 14:1.0 17:1.0 19:1.0 20:1.0 21:1.0 23:1.0 29:1.0 31:1.0 32:1.0 36:0.303875 38:0.6 40:1.0 74:1.0 
2.0 1:0.215 2:0.8 5:1.0 6:1.0 11:1.0 14:1.0 17:1.0 19:1.0 20:1.0 21:1.0 23:1.0 29:1.0 31:1.0 32:1.0 35:1.0 36:0.30388 38:1.2 39:1.0 49:1.0 
0.2763198116387566 1:0.025 2:0.1 11:1.0 14:1.0 21:1.0 23:1.0 29:1.0 31:1.0 32:1.0 35:1.0 36:0.303876 37:0.883333 38:2.0 43:1.0 49:1.0 61:1.0 
2.0 1:0.175 2:0.8 3:1.0 4:1.0 5:1.0 6:1.0 11:1.0 14:1.0 17:1.0 19:1.0 20:1.0 21:1.0 23:1.0 29:1.0 31:1.0 32:1.0 35:1.0 36:0.303876 38:1.1 63:1.0 
0.3676983001668947 1:0.273333 2:1.0 7:1.0 11:1.0 16:1.0 23:1.0 30:1.0 36:0.655246 37:1.0 38:1.3 44:1.0 
2.0 1:0.056667 2:0.2 11:1.0 14:1.0 19:1.0 20:1.0 21:1.0 23:1.0 29:1.0 31:1.0 32:1.0 35:1.0 36:0.303878 37:0.426829 38:1.0 73:1.0 84:1.0 
0.17927071998031202 1:0.023333 2:0.6 13:1.0 14:1.0 21:1.0 23:1.0 29:1.0 31:1.0 32:1.0 35:1.0 36:0.65525 37:0.856459 38:0.2 42:1.0 
0.23608270516457508 1:0.168333 2:0.6 13:1.0 14:1.0 21:1.0 23:1.0 29:1.0 31:1.0 32:1.0 35:1.0 36:0.303877 37:0.869346 38:1.3 41:1.0 45:1.0 58:1.0 63:1.0 64:1.0 92:1.0 93:1.0 113:1.0 
1.3593766023788423 1:0.023333 2:0.1 11:1.0 14:1.0 21:1.0 23:1.0 29:1.0 31:1.0 32:1.0 34:1.0 35:1.0 36:0.655247 37:0.826449 38:2.2 43:1.0 49:1.0 50:1.0 
0.06941903641446985 1:0.1 2:0.1 11:1.0 14:1.0 21:1.0 23:1.0 29:1.0 31:1.0 32:1.0 34:1.0 36:0.655243 37:0.861538 38:1.4 53:1.0 54:1.0 55:1.0 56:1.0 57:1.0 58:1.0 
0.0030522542250067397 1:0.035 11:1.0 16:1.0 19:1.0 20:1.0 21:1.0 23:1.0 29:1.0 31:1.0 32:1.0 35:1.0 36:0.655251 37:0.871795 38:0.9 40:1.0 41:1.0 45:1.0 
2.0 1:0.011667 2:0.1 5:1.0 11:1.0 14:1.0 21:1.0 23:1.0 29:1.0 31:1.0 32:1.0 34:1.0 35:1.0 36:0.655246 37:0.545455 38:0.4 42:1.0 46:1.0 
2.0 1:0.011667 2:0.2 11:1.0 14:1.0 17:1.0 19:1.0 20:1.0 21:1.0 23:1.0 29:1.0 31:1.0 32:1.0 36:0.30388 38:0.2 
0.4047816792958027 1:0.19 2:0.7 11:1.0 14:1.0 21:1.0 23:1.0 29:1.0 31:1.0 32:1.0 35:1.0 36:0.303878 37:0.625 38:1.2 43:1.0 49:1.0 50:1.0 51:1.0 52:1.0 98:1.0 123:1.0 
2.0 1:0.23 2:0.8 9:1.0 11:1.0 14:1.0 19:1.0 20:1.0 21:1.0 24:1.0 29:1.0 31:1.0 32:1.0 36:0.65525 37:0.333333 38:1.5 44:1.0 49:1.0 50:1.0 59:1.0 
2.0 1:0.045 2:0.1 11:1.0 14:1.0 17:1.0 20:1.0 21:1.0 23:1.0 29:1.0 31:1.0 32:1.0 35:1.0 36:0.30388 37:0.233333 38:1.3 40:1.0 43:1.0 52:1.0 56:1.0 
0.7585084077956936 1:0.07 2:0.2 11:1.0 14:1.0 17:1.0 19:1.0 20:1.0 21:1.0 23:1.0 29:1.0 31:1.0 32:1.0 36:0.30388 37:0.305556 38:0.8 40:1.0 43:1.0 63:1.0 64:1.0 
2.0 1:0.036667 2:0.4 9:1.0 11:1.0 14:1.0 21:1.0 24:1.0 29:1.0 31:1.0 32:1.0 36:0.65525 37:0.826389 38:0.4 42:1.0 46:1.0 
1.6369419979591102 1:0.043333 9:1.0 11:1.0 14:1.0 21:1.0 24:1.0 29:1.0 31:1.0 32:1.0 34:1.0 36:0.65525 37:0.765415 38:1.4 44:1.0 98:1.0 142:1.0 
0.035103470454507874 1:0.055 2:0.2 3:1.0 4:1.0 5:1.0 6:1.0 9:1.0 11:1.0 14:1.0 17:1.0 19:1.0 20:1.0 21:1.0 22:1.0 29:1.0 31:1.0 32:1.0 33:1.0 34:1.0 35:1.0 36:0.30388 38:1.9 43:1.0 44:1.0 49:1.0 50:1.0 59:1.0 60:1.0 78:1.0 79:1.0 80:1.0 107:1.0 
2.0 1:0.028333 2:0.2 3:1.0 4:1.0 5:1.0 6:1.0 11:1.0 14:1.0 17:1.0 19:1.0 20:1.0 21:1.0 23:1.0 29:1.0 31:1.0 32:1.0 35:1.0 36:0.303878 38:0.7 
0.1496246966234336 1:0.001667 11:1.0 14:1.0 23:1.0 29:1.0 31:1.0 32:1.0 34:1.0 35:1.0 36:0.655246 37:0.8 38:0.1 
0.6314270479782169 1:0.021667 2:0.1 5:1.0 11:1.0 14:1.0 20:1.0 21:1.0 24:1.0 29:1.0 31:1.0 32:1.0 33:1.0 34:1.0 35:1.0 36:0.655246 37:0.822222 38:0.5 43:1.0 
1.0651422202324996 2:0.1 4:1.0 13:1.0 14:1.0 17:1.0 20:1.0 21:1.0 23:1.0 29:1.0 31:1.0 32:1.0 34:1.0 35:1.0 36:0.303881 37:0.484234 38:0.4 39:1.0 42:1.0 46:1.0 49:1.0 
2.0 1:0.346667 2:0.8 3:1.0 4:1.0 5:1.0 6:1.0 11:1.0 14:1.0 17:1.0 19:1.0 20:1.0 21:1.0 23:1.0 29:1.0 31:1.0 32:1.0 35:1.0 36:0.303876 38:0.9 52:1.0 
0.011938542057963093 1:0.016667 2:0.1 13:1.0 16:1.0 23:1.0 29:1.0 31:1.0 32:1.0 35:1.0 36:0.303877 37:1.0 38:1.3 43:1.0 44:1.0 57:1.0 58:1.0 63:1.0 64:1.0 
1.614922202798209 1:0.121667 2:0.4 3:1.0 4:1.0 5:1.0 6:1.0 13:1.0 14:1.0 17:1.0 19:1.0 20:1.0 21:1.0 23:1.0 29:1.0 31:1.0 32:1.0 36:0.303882 38:0.7 41:1.0 42:1.0 115:1.0 116:1.0 178:1.0 198:1.0 
1.7128001588661803 1:0.04 2:0.1 5:1.0 11:1.0 14:1.0 19:1.0 20:1.0 21:1.0 23:1.0 29:1.0 31:1.0 32:1.0 34:1.0 36:0.303878 37:0.31015 38:1.3 63:1.0 65:1.0 
2.0 1:0.043333 2:0.2 3:1.0 4:1.0 5:1.0 6:1.0 11:1.0 14:1.0 17:1.0 19:1.0 20:1.0 21:1.0 23:1.0 29:1.0 31:1.0 32:1.0 36:0.303878 38:1.6 50:1.0 56:1.0 104:1.0 111:1.0 118:1.0 152:1.0 170:1.0 171:1.0 
0.045798097454295084 1:0.025 2:0.1 3:1.0 4:1.0 5:1.0 6:1.0 11:1.0 14:1.0 17:1.0 19:1.0 20:1.0 21:1.0 23:1.0 29:1.0 31:1.0 32:1.0 34:1.0 36:0.303878 38:1.4 49:1.0 97:1.0 
0.24663690666128218 1:0.043333 2:0.3 11:1.0 14:1.0 21:1.0 23:1.0 29:1.0 31:1.0 32:1.0 35:1.0 36:0.655246 37:0.841176 38:0.7 43:1.0 49:1.0 123:1.0 139:1.0 159:1.0 
0.17981157968855957 1:0.036667 2:0.2 11:1.0 14:1.0 21:1.0 24:1.0 29:1.0 31:1.0 32:1.0 33:1.0 34:1.0 35:1.0 36:0.655246 37:0.72028 38:0.9 42:1.0 43:1.0 46:1.0 52:1.0 
1.106990964994348 1:0.068333 2:0.2 11:1.0 14:1.0 19:1.0 20:1.0 21:1.0 23:1.0 29:1.0 32:1.0 35:1.0 36:0.303879 37:0.916667 38:1.6 44:1.0 50:1.0 53:1.0 56:1.0 57:1.0 58:1.0 111:1.0 112:1.0 160:1.0 
1.1763907640915945 1:0.108333 2:0.2 11:1.0 14:1.0 19:1.0 20:1.0 21:1.0 23:1.0 29:1.0 31:1.0 32:1.0 36:0.303878 37:0.321429 38:0.8 43:1.0 49:1.0 60:1.0 69:1.0 
0.7800787481925576 1:0.078333 3:1.0 4:1.0 5:1.0 6:1.0 11:1.0 14:1.0 17:1.0 19:1.0 20:1.0 21:1.0 23:1.0 29:1.0 31:1.0 32:1.0 35:1.0 36:0.655246 38:2.2 43:1.0 44:1.0 52:1.0 62:1.0 94:1.0 95:1.0 98:1.0 121:1.0 
0.7857964083094877 1:0.185 2:0.5 11:1.0 14:1.0 21:1.0 23:1.0 29:1.0 31:1.0 32:1.0 35:1.0 36:0.655247 37:0.748889 38:1.1 44:1.0 49:1.0 167:1.0 180:1.0 
0.037175032879743546 1:0.096667 2:0.4 11:1.0 14:1.0 21:1.0 23:1.0 29:1.0 31:1.0 32:1.0 35:1.0 36:0.655243 37:0.869622 38:0.7 44:1.0 91:1.0 124:1.0 125:1.0 126:1.0 
0.2942952151445954 1:0.326667 2:0.9 9:1.0 11:1.0 14:1.0 17:1.0 20:1.0 21:1.0 24:1.0 29:1.0 31:1.0 32:1.0 35:1.0 36:0.303879 37:0.375 38:1.7 43:1.0 63:1.0 78:1.0 79:1.0 80:1.0 132:1.0 
0.5447041061322617 1:0.086667 2:0.3 11:1.0 14:1.0 21:1.0 23:1.0 29:1.0 31:1.0 32:1.0 35:1.0 36:0.655247 37:0.851852 38:1.6 43:1.0 49:1.0 60:1.0 61:1.0 81:1.0 
0.8662206338489395 1:0.116667 2:0.2 10:1.0 12:1.0 14:1.0 23:1.0 29:1.0 31:1.0 32:1.0 35:1.0 36:0.655251 37:0.877622 38:1.4 40:1.0 
0.5427976152899616 1:0.018333 2:0.1 11:1.0 14:1.0 21:1.0 23:1.0 29:1.0 31:1.0 32:1.0 35:1.0 36:0.303876 37:0.928571 38:2.0 40:1.0 43:1.0 50:1.0 96:1.0 
0.19556171737790534 1:0.06 13:1.0 16:1.0 21:1.0 23:1.0 29:1.0 31:1.0 32:1.0 35:1.0 36:0.303875 37:1.0 38:1.8 41:1.0 45:1.0 58:1.0 93:1.0 95:1.0 113:1.0 133:1.0 
1.779618833326937 1:0.055 2:0.2 11:1.0 14:1.0 20:1.0 21:1.0 23:1.0 29:1.0 31:1.0 32:1.0 34:1.0 35:1.0 36:0.30388 37:0.87931 38:1.6 44:1.0 50:1.0 
0.08866085813872009 1:0.065 2:0.4 13:1.0 14:1.0 21:1.0 23:1.0 29:1.0 32:1.0 35:1.0 36:0.531217 37:0.987603 38:0.4 40:1.0 
1.4816112794198986 1:0.055 2:0.3 4:1.0 11:1.0 14:1.0 20:1.0 21:1.0 23:1.0 29:1.0 32:1.0 35:1.0 36:0.655249 37:0.782609 38:0.6 42:1.0 46:1.0 103:1.0 104:1.0 
0.30265082718649866 1:0.035 11:1.0 16:1.0 19:1.0 20:1.0 21:1.0 23:1.0 29:1.0 31:1.0 32:1.0 35:1.0 36:0.655251 37:0.871795 38:0.9 40:1.0 41:1.0 45:1.0 
1.167608362178503 1:0.45 2:0.8 3:1.0 4:1.0 5:1.0 6:1.0 11:1.0 14:1.0 17:1.0 19:1.0 20:1.0 21:1.0 23:1.0 29:1.0 31:1.0 32:1.0 36:0.303875 38:1.2 50:1.0 51:1.0 63:1.0 64:1.0 
0.08524480968604543 1:0.12 2:0.6 9:1.0 13:1.0 14:1.0 20:1.0 21:1.0 24:1.0 29:1.0 31:1.0 32:1.0 35:1.0 36:0.303882 37:0.948529 38:0.7 42:1.0 43:1.0 46:1.0 63:1.0 
2.0 1:0.055 2:0.2 11:1.0 14:1.0 21:1.0 24:1.0 29:1.0 31:1.0 32:1.0 33:1.0 35:1.0 36:0.303876 37:1.0 38:0.6 41:1.0 44:1.0 45:1.0 124:1.0 125:1.0 126:1.0 127:1.0 
0.8842086649906246 1:0.058333 2:0.2 9:1.0 11:1.0 14:1.0 21:1.0 24:1.0 29:1.0 31:1.0 32:1.0 35:1.0 36:0.65525 37:0.875 38:0.7 44:1.0 53:1.0 75:1.0 119:1.0 120:1.0 141:1.0 
0.565272937861053 1:0.05 2:0.1 11:1.0 14:1.0 19:1.0 20:1.0 21:1.0 23:1.0 29:1.0 31:1.0 32:1.0 35:1.0 36:0.303879 37:0.295455 38:1.9 57:1.0 58:1.0 63:1.0 64:1.0 78:1.0 79:1.0 132:1.0 
0.08301252717833454 1:0.006667 2:0.1 4:1.0 9:1.0 12:1.0 14:1.0 21:1.0 22:1.0 29:1.0 31:1.0 32:1.0 33:1.0 34:1.0 35:1.0 36:0.65525 37:0.857143 38:0.3 41:1.0 42:1.0 45:1.0 46:1.0 47:1.0 
0.1808595062487481 1:0.026667 2:0.2 11:1.0 14:1.0 21:1.0 23:1.0 29:1.0 31:1.0 32:1.0 34:1.0 36:0.655246 37:0.857143 38:1.6 49:1.0 50:1.0 59:1.0 102:1.0 107:1.0 108:1.0 
0.3980682813474599 1:0.163333 2:0.6 7:1.0 9:1.0 11:1.0 16:1.0 24:1.0 30:1.0 31:1.0 35:1.0 36:0.65525 37:1.0 38:4.7 44:1.0 50:1.0 58:1.0 69:1.0 77:1.0 78:1.0 79:1.0 80:1.0 93:1.0 107:1.0 108:1.0 112:1.0 113:1.0 114:1.0 
2.0 1:0.021667 2:0.1 11:1.0 14:1.0 21:1.0 23:1.0 29:1.0 31:1.0 32:1.0 34:1.0 35:1.0 36:0.655243 37:0.958333 38:0.9 43:1.0 44:1.0 49:1.0 124:1.0 125:1.0 126:1.0 127:1.0 128:1.0 129:1.0 130:1.0 
0.8306996566227157 1:0.041667 2:0.1 7:1.0 11:1.0 16:1.0 23:1.0 30:1.0 31:1.0 35:1.0 36:0.655249 37:1.0 38:0.8 41:1.0 45:1.0 49:1.0 60:1.0 
2.0 1:0.035 2:0.1 11:1.0 14:1.0 21:1.0 23:1.0 29:1.0 32:1.0 34:1.0 35:1.0 36:0.65525 37:0.948718 38:0.4 40:1.0 
1.7328147284492295 1:0.195 2:0.6 3:1.0 4:1.0 5:1.0 6:1.0 11:1.0 14:1.0 17:1.0 19:1.0 20:1.0 21:1.0 23:1.0 29:1.0 31:1.0 32:1.0 36:0.303878 38:1.0 60:1.0 63:1.0 64:1.0 69:1.0 
1.7391416815227314 1:0.145 2:0.1 11:1.0 14:1.0 20:1.0 21:1.0 23:1.0 29:1.0 32:1.0 35:1.0 36:0.65525 37:0.768707 38:1.5 56:1.0 
2.0 1:0.426667 2:0.8 3:1.0 4:1.0 5:1.0 6:1.0 11:1.0 14:1.0 17:1.0 19:1.0 20:1.0 21:1.0 23:1.0 29:1.0 31:1.0 32:1.0 35:1.0 36:0.303875 38:1.2 62:1.0 86:1.0 87:1.0 88:1.0 89:1.0 90:1.0 94:1.0 95:1.0 
1.894288590194479 1:0.295 2:1.0 4:1.0 11:1.0 14:1.0 17:1.0 19:1.0 20:1.0 21:1.0 23:1.0 29:1.0 31:1.0 32:1.0 35:1.0 36:0.303878 37:0.45614 38:1.3 43:1.0 49:1.0 50:1.0 58:1.0 59:1.0 69:1.0 102:1.0 108:1.0 
1.905613842727124 1:0.07 2:0.1 11:1.0 14:1.0 17:1.0 21:1.0 23:1.0 29:1.0 31:1.0 32:1.0 35:1.0 36:0.655249 37:0.767025 38:1.8 50:1.0 51:1.0 58:1.0 60:1.0 63:1.0 64:1.0 
0.6821406733061849 1:0.046667 2:0.1 13:1.0 16:1.0 20:1.0 23:1.0 29:1.0 31:1.0 32:1.0 35:1.0 36:0.30388 37:1.0 38:0.8 49:1.0 60:1.0 
0.6136957068142794 1:0.05 2:0.2 12:1.0 14:1.0 21:1.0 23:1.0 29:1.0 31:1.0 32:1.0 34:1.0 36:0.303883 37:0.916667 38:3.2 50:1.0 63:1.0 107:1.0 
2.0 1:0.055 2:0.2 3:1.0 4:1.0 5:1.0 6:1.0 9:1.0 11:1.0 14:1.0 17:1.0 19:1.0 20:1.0 21:1.0 22:1.0 29:1.0 31:1.0 32:1.0 33:1.0 34:1.0 35:1.0 36:0.30388 38:1.9 43:1.0 44:1.0 49:1.0 50:1.0 59:1.0 60:1.0 78:1.0 79:1.0 80:1.0 107:1.0 
2.0 1:0.071667 2:0.1 3:1.0 4:1.0 5:1.0 6:1.0 11:1.0 14:1.0 17:1.0 19:1.0 20:1.0 21:1.0 23:1.0 29:1.0 31:1.0 32:1.0 35:1.0 36:0.655251 38:1.0 96:1.0 
2.0 1:0.071667 2:0.2 11:1.0 14:1.0 17:1.0 19:1.0 20:1.0 21:1.0 23:1.0 29:1.0 31:1.0 32:1.0 35:1.0 36:0.30388 37:0.333333 38:0.5 63:1.0 134:1.0 
0.35435216926976354 1:0.026667 2:0.2 11:1.0 14:1.0 21:1.0 23:1.0 29:1.0 31:1.0 32:1.0 35:1.0 36:0.655247 37:0.950617 38:1.0 44:1.0 50:1.0 63:1.0 172:1.0 
0.4362880368152419 1:0.026667 2:0.1 9:1.0 11:1.0 14:1.0 21:1.0 24:1.0 29:1.0 31:1.0 32:1.0 35:1.0 36:0.65525 37:0.833333 38:0.6 42:1.0 43:1.0 46:1.0 49:1.0 50:1.0 59:1.0 
0.42663784999762566 1:0.02 2:0.1 7:1.0 11:1.0 16:1.0 23:1.0 30:1.0 31:1.0 35:1.0 36:0.655243 37:1.0 38:0.5 40:1.0 41:1.0 45:1.0 63:1.0 64:1.0 
2.0 1:0.023333 2:0.1 13:1.0 16:1.0 23:1.0 29:1.0 32:1.0 35:1.0 36:0.655252 37:1.0 38:0.4 40:1.0 41:1.0 45:1.0 
0.086209914295634 1:0.088333 2:0.2 10:1.0 11:1.0 14:1.0 23:1.0 29:1.0 31:1.0 32:1.0 35:1.0 36:0.655251 37:0.90625 38:1.4 40:1.0 
2.0 1:0.008333 3:1.0 4:1.0 5:1.0 6:1.0 11:1.0 14:1.0 17:1.0 19:1.0 20:1.0 21:1.0 23:1.0 29:1.0 31:1.0 32:1.0 34:1.0 35:1.0 36:0.303877 38:0.7 69:1.0 
2.0 1:0.578333 2:1.0 11:1.0 14:1.0 17:1.0 19:1.0 20:1.0 21:1.0 23:1.0 29:1.0 31:1.0 32:1.0 35:1.0 36:0.303876 37:0.1875 38:2.1 49:1.0 
0.4468818649959746 1:0.11 2:0.5 11:1.0 14:1.0 21:1.0 23:1.0 29:1.0 31:1.0 32:1.0 35:1.0 36:0.303876 37:0.720854 38:1.3 43:1.0 49:1.0 50:1.0 52:1.0 100:1.0 166:1.0 
2.0 1:0.021667 11:1.0 14:1.0 19:1.0 20:1.0 21:1.0 23:1.0 29:1.0 31:1.0 32:1.0 34:1.0 36:0.655243 37:0.826923 38:0.7 40:1.0 
2.0 1:0.853333 2:1.0 3:1.0 4:1.0 5:1.0 6:1.0 11:1.0 14:1.0 17:1.0 19:1.0 20:1.0 21:1.0 23:1.0 29:1.0 31:1.0 32:1.0 35:1.0 36:0.303877 38:1.1 49:1.0 
2.0 1:0.028333 2:0.1 5:1.0 11:1.0 14:1.0 20:1.0 21:1.0 23:1.0 29:1.0 31:1.0 32:1.0 34:1.0 36:0.655246 37:0.530639 38:1.1 43:1.0 49:1.0 
1.2003998066380615 1:0.068333 2:0.2 11:1.0 14:1.0 17:1.0 19:1.0 20:1.0 21:1.0 23:1.0 29:1.0 31:1.0 32:1.0 35:1.0 36:0.30388 37:0.333333 38:1.2 44:1.0 53:1.0 54:1.0 55:1.0 56:1.0 58:1.0 78:1.0 79:1.0 80:1.0 93:1.0 95:1.0 
2.0 2:0.1 3:1.0 4:1.0 5:1.0 6:1.0 11:1.0 14:1.0 17:1.0 19:1.0 20:1.0 21:1.0 23:1.0 29:1.0 31:1.0 32:1.0 34:1.0 35:1.0 36:0.303877 38:0.3 42:1.0 46:1.0 
0.2647391742643728 1:0.091667 2:0.3 4:1.0 11:1.0 14:1.0 17:1.0 19:1.0 20:1.0 21:1.0 23:1.0 29:1.0 31:1.0 32:1.0 35:1.0 36:0.303879 37:0.333333 38:1.2 43:1.0 44:1.0 75:1.0 143:1.0 144:1.0 187:1.0 
0.32302157637375806 1:0.155 2:1.0 9:1.0 11:1.0 14:1.0 21:1.0 24:1.0 29:1.0 31:1.0 32:1.0 35:1.0 36:0.65525 37:0.96875 38:0.3 42:1.0 46:1.0 
2.0 1:0.163333 2:0.4 5:1.0 6:1.0 11:1.0 14:1.0 17:1.0 19:1.0 20:1.0 21:1.0 24:1.0 29:1.0 31:1.0 32:1.0 33:1.0 35:1.0 36:0.303877 38:0.8 40:1.0 41:1.0 45:1.0 60:1.0 
1.7020579256963193 1:0.095 2:0.2 5:1.0 11:1.0 14:1.0 20:1.0 21:1.0 23:1.0 29:1.0 31:1.0 32:1.0 35:1.0 36:0.30388 37:0.688453 38:1.5 44:1.0 49:1.0 65:1.0 69:1.0 
2.0 1:0.001667 2:0.1 3:1.0 4:1.0 5:1.0 6:1.0 11:1.0 14:1.0 17:1.0 19:1.0 20:1.0 21:1.0 23:1.0 29:1.0 31:1.0 32:1.0 34:1.0 36:0.655252 38:0.7 49:1.0 50:1.0 59:1.0 98:1.0 
2.0 1:0.015 2:0.1 11:1.0 14:1.0 21:1.0 23:1.0 29:1.0 31:1.0 32:1.0 34:1.0 35:1.0 36:0.655246 37:1.0 38:0.4 42:1.0 46:1.0 
2.0 1:0.001667 2:0.1 3:1.0 4:1.0 5:1.0 6:1.0 11:1.0 14:1.0 17:1.0 19:1.0 20:1.0 21:1.0 23:1.0 29:1.0 31:1.0 32:1.0 34:1.0 35:1.0 36:0.30388 38:0.2 42:1.0 46:1.0 
2.0 1:0.058333 2:0.2 11:1.0 14:1.0 20:1.0 21:1.0 23:1.0 29:1.0 31:1.0 32:1.0 35:1.0 36:0.655243 37:0.667419 38:0.9 44:1.0 57:1.0 58:1.0 91:1.0 
0.1499950799515819 1:0.226667 2:0.4 12:1.0 14:1.0 21:1.0 23:1.0 29:1.0 31:1.0 32:1.0 35:1.0 36:0.303877 37:0.824735 38:0.9 39:1.0 40:1.0 63:1.0 
1.3187494475270247 1:0.006667 11:1.0 14:1.0 17:1.0 20:1.0 21:1.0 23:1.0 29:1.0 32:1.0 34:1.0 36:0.303879 37:0.677083 38:0.3 40:1.0 
0.7091855747916013 1:0.118333 2:0.4 10:1.0 11:1.0 14:1.0 23:1.0 29:1.0 31:1.0 32:1.0 35:1.0 36:0.655249 37:0.705357 38:0.7 42:1.0 46:1.0 91:1.0 
1.4719550399094619 1:0.028333 2:0.2 11:1.0 14:1.0 21:1.0 23:1.0 29:1.0 31:1.0 32:1.0 34:1.0 35:1.0 36:0.655247 37:0.7 38:1.0 49:1.0 124:1.0 125:1.0 126:1.0 127:1.0 
0.05859463297302152 1:0.001667 11:1.0 16:1.0 23:1.0 29:1.0 31:1.0 32:1.0 35:1.0 36:0.303878 37:0.4 38:1.2 43:1.0 50:1.0 52:1.0 98:1.0 
2.0 1:0.191667 2:0.6 3:1.0 4:1.0 5:1.0 6:1.0 11:1.0 14:1.0 17:1.0 19:1.0 20:1.0 21:1.0 23:1.0 29:1.0 31:1.0 32:1.0 35:1.0 36:0.655249 38:1.5 39:1.0 69:1.0 77:1.0 112:1.0 
0.13095254585281904 1:0.05 2:0.1 7:1.0 11:1.0 16:1.0 23:1.0 30:1.0 31:1.0 35:1.0 36:0.30388 37:1.0 38:1.5 41:1.0 44:1.0 45:1.0 
0.5805487893773688 1:0.138333 2:0.6 11:1.0 14:1.0 20:1.0 21:1.0 24:1.0 29:1.0 31:1.0 32:1.0 33:1.0 35:1.0 36:0.655246 37:0.4375 38:0.6 43:1.0 49:1.0 50:1.0 
2.0 1:0.053333 2:0.1 5:1.0 11:1.0 14:1.0 17:1.0 19:1.0 20:1.0 21:1.0 23:1.0 29:1.0 31:1.0 32:1.0 35:1.0 36:0.655251 37:0.157895 38:1.3 39:1.0 40:1.0 49:1.0 108:1.0 149:1.0 163:1.0 
2.0 2:0.1 3:1.0 4:1.0 5:1.0 6:1.0 11:1.0 14:1.0 17:1.0 19:1.0 20:1.0 21:1.0 23:1.0 29:1.0 31:1.0 32:1.0 34:1.0 35:1.0 36:0.655246 38:0.3 42:1.0 46:1.0 56:1.0 
1.6222497283132913 1:0.091667 2:0.3 11:1.0 14:1.0 17:1.0 21:1.0 23:1.0 29:1.0 31:1.0 32:1.0 35:1.0 36:0.303882 37:0.767025 38:0.8 50:1.0 51:1.0 63:1.0 
0.3326597840285264 1:0.191667 2:0.7 12:1.0 14:1.0 21:1.0 23:1.0 29:1.0 31:1.0 32:1.0 34:1.0 35:1.0 36:0.655249 37:0.769231 38:0.3 42:1.0 46:1.0 56:1.0 
0.7852150241379244 1:0.083333 2:0.2 13:1.0 16:1.0 23:1.0 29:1.0 31:1.0 32:1.0 35:1.0 36:0.303875 37:1.0 38:0.8 41:1.0 45:1.0 60:1.0 63:1.0 64:1.0 69:1.0 
0.08652483457009337 1:0.15 2:0.3 11:1.0 16:1.0 23:1.0 29:1.0 31:1.0 32:1.0 35:1.0 36:0.655247 37:0.559677 38:1.5 39:1.0 49:1.0 50:1.0 97:1.0 107:1.0 
1.64206891347646 1:0.15 2:0.6 11:1.0 14:1.0 19:1.0 20:1.0 21:1.0 23:1.0 29:1.0 31:1.0 32:1.0 36:0.303876 37:0.333333 38:1.2 52:1.0 
2.0 1:0.241667 2:0.9 3:1.0 4:1.0 5:1.0 6:1.0 11:1.0 14:1.0 17:1.0 19:1.0 20:1.0 21:1.0 23:1.0 29:1.0 31:1.0 32:1.0 36:0.655252 38:1.2 63:1.0 64:1.0 
0.04619906841156046 1:0.013333 2:0.1 11:1.0 14:1.0 21:1.0 23:1.0 29:1.0 31:1.0 32:1.0 34:1.0 35:1.0 36:0.655246 37:0.894928 38:2.0 49:1.0 50:1.0 51:1.0 59:1.0 65:1.0 
0.7920951799902186 1:0.066667 2:0.2 11:1.0 14:1.0 21:1.0 23:1.0 29:1.0 31:1.0 32:1.0 34:1.0 36:0.655246 37:0.982143 38:1.1 44:1.0 61:1.0 63:1.0 64:1.0 
2.0 1:0.17 2:0.4 11:1.0 14:1.0 17:1.0 19:1.0 20:1.0 21:1.0 23:1.0 29:1.0 31:1.0 32:1.0 36:0.303875 37:0.25 38:2.1 49:1.0 50:1.0 59:1.0 112:1.0 
2.0 1:0.001667 2:0.1 3:1.0 4:1.0 5:1.0 6:1.0 11:1.0 14:1.0 17:1.0 19:1.0 20:1.0 21:1.0 23:1.0 29:1.0 31:1.0 32:1.0 34:1.0 35:1.0 36:0.30388 38:0.2 42:1.0 46:1.0 
0.8449007544980485 1:0.083333 2:0.2 13:1.0 16:1.0 23:1.0 29:1.0 32:1.0 35:1.0 36:0.655251 37:1.0 38:0.6 40:1.0 41:1.0 45:1.0 63:1.0 
2.0 1:0.093333 2:0.8 3:1.0 4:1.0 5:1.0 6:1.0 11:1.0 14:1.0 17:1.0 19:1.0 20:1.0 21:1.0 23:1.0 29:1.0 31:1.0 32:1.0 35:1.0 36:0.303882 38:1.1 52:1.0 53:1.0 
2.0 1:0.013333 2:0.1 3:1.0 4:1.0 5:1.0 6:1.0 9:1.0 11:1.0 14:1.0 17:1.0 19:1.0 20:1.0 21:1.0 22:1.0 29:1.0 31:1.0 32:1.0 33:1.0 34:1.0 35:1.0 36:0.65525 38:0.9 39:1.0 49:1.0 
0.17804284258349792 1:0.071667 2:0.2 11:1.0 16:1.0 19:1.0 21:1.0 23:1.0 29:1.0 31:1.0 32:1.0 35:1.0 36:0.655251 37:0.948718 38:1.2 40:1.0 96:1.0 
0.8743098571673504 1:0.015 2:0.2 12:1.0 14:1.0 17:1.0 19:1.0 21:1.0 23:1.0 29:1.0 31:1.0 32:1.0 34:1.0 35:1.0 36:0.655246 37:0.342857 38:1.2 43:1.0 49:1.0 50:1.0 51:1.0 52:1.0 59:1.0 
0.41114955001358444 1:0.163333 2:0.5 11:1.0 14:1.0 21:1.0 23:1.0 29:1.0 31:1.0 32:1.0 35:1.0 36:0.303876 37:1.0 38:2.0 49:1.0 58:1.0 60:1.0 78:1.0 79:1.0 80:1.0 93:1.0 95:1.0 108:1.0 113:1.0 114:1.0 147:1.0 148:1.0 149:1.0 
1.8787532171797285 1:0.095 2:0.7 11:1.0 14:1.0 17:1.0 21:1.0 24:1.0 29:1.0 32:1.0 33:1.0 35:1.0 36:0.62268 37:0.508772 38:0.6 42:1.0 43:1.0 46:1.0 
0.3616566574072846 1:0.165 2:0.3 7:1.0 13:1.0 16:1.0 23:1.0 30:1.0 31:1.0 35:1.0 36:0.303876 37:1.0 38:1.3 40:1.0 41:1.0 45:1.0 63:1.0 64:1.0 
0.18484089233256576 1:0.273333 2:0.8 7:1.0 11:1.0 16:1.0 23:1.0 30:1.0 31:1.0 35:1.0 36:0.303876 37:1.0 38:0.9 41:1.0 44:1.0 45:1.0 49:1.0 124:1.0 125:1.0 126:1.0 127:1.0 
0.34499665094991844 1:0.128333 2:0.4 13:1.0 16:1.0 23:1.0 29:1.0 31:1.0 32:1.0 35:1.0 36:0.655251 37:0.8 38:0.7 98:1.0 
0.08529002637479327 1:0.206667 2:0.6 10:1.0 11:1.0 14:1.0 23:1.0 29:1.0 31:1.0 32:1.0 35:1.0 36:0.655249 37:0.857143 38:1.4 44:1.0 50:1.0 63:1.0 
0.9550715844699665 1:0.026667 2:0.1 13:1.0 14:1.0 21:1.0 23:1.0 29:1.0 31:1.0 32:1.0 35:1.0 36:0.655247 37:0.916667 38:0.9 40:1.0 63:1.0 64:1.0 
0.26976774174907364 1:0.16 2:0.3 12:1.0 14:1.0 21:1.0 23:1.0 29:1.0 31:1.0 32:1.0 36:0.303883 37:0.875 38:2.7 58:1.0 63:1.0 64:1.0 65:1.0 92:1.0 93:1.0 113:1.0 
2.0 1:0.013333 11:1.0 14:1.0 17:1.0 19:1.0 20:1.0 21:1.0 23:1.0 29:1.0 32:1.0 34:1.0 35:1.0 36:0.303879 37:0.333333 38:0.8 43:1.0 
1.2780027539364867 1:0.216667 2:0.6 12:1.0 14:1.0 17:1.0 23:1.0 29:1.0 31:1.0 32:1.0 35:1.0 36:0.303882 37:0.111111 38:0.9 43:1.0 
0.16664173054226883 1:0.071667 2:0.1 9:1.0 11:1.0 14:1.0 21:1.0 24:1.0 29:1.0 31:1.0 32:1.0 34:1.0 35:1.0 36:0.65525 37:0.823669 38:1.1 43:1.0 44:1.0 52:1.0 86:1.0 87:1.0 88:1.0 89:1.0 90:1.0 
0.49438283642253184 1:0.013333 2:0.2 9:1.0 11:1.0 14:1.0 21:1.0 24:1.0 29:1.0 31:1.0 32:1.0 34:1.0 36:0.65525 37:0.765415 38:1.1 39:1.0 44:1.0 63:1.0 
0.25863883166024254 1:0.226667 2:0.8 11:1.0 14:1.0 21:1.0 23:1.0 29:1.0 31:1.0 32:1.0 36:0.303875 37:0.964286 38:2.4 57:1.0 58:1.0 102:1.0 104:1.0 169:1.0 170:1.0 171:1.0 
0.6772593123740381 1:0.05 2:0.2 7:1.0 12:1.0 16:1.0 23:1.0 30:1.0 31:1.0 35:1.0 36:0.655247 37:1.0 38:0.6 41:1.0 44:1.0 45:1.0 63:1.0 
0.10670286407305156 1:0.146667 2:0.4 12:1.0 14:1.0 17:1.0 23:1.0 29:1.0 31:1.0 32:1.0 35:1.0 36:0.303882 37:0.111111 38:1.0 43:1.0 69:1.0 96:1.0 100:1.0 109:1.0 
0.8665217604552969 1:0.016667 9:1.0 13:1.0 16:1.0 24:1.0 29:1.0 31:1.0 32:1.0 35:1.0 36:0.65525 37:1.0 38:0.4 44:1.0 
2.0 1:0.23 2:0.9 11:1.0 14:1.0 17:1.0 19:1.0 20:1.0 21:1.0 23:1.0 29:1.0 31:1.0 32:1.0 36:0.30388 37:0.846154 38:0.5 40:1.0 96:1.0 
0.14621788933297886 1:0.011667 2:0.2 11:1.0 14:1.0 20:1.0 21:1.0 23:1.0 29:1.0 31:1.0 32:1.0 35:1.0 36:0.30388 37:0.519841 38:0.9 43:1.0 49:1.0 128:1.0 129:1.0 146:1.0 
0.696416583546451 1:0.011667 2:0.1 12:1.0 14:1.0 20:1.0 21:1.0 23:1.0 29:1.0 31:1.0 32:1.0 34:1.0 35:1.0 36:0.303878 37:0.850271 38:0.9 44:1.0 49:1.0 124:1.0 125:1.0 126:1.0 127:1.0 
1.2450438870007228 1:0.023333 2:0.1 5:1.0 11:1.0 14:1.0 17:1.0 20:1.0 21:1.0 23:1.0 29:1.0 31:1.0 32:1.0 35:1.0 36:0.303877 37:0.4 38:0.5 40:1.0 41:1.0 45:1.0 
2.0 1:0.035 2:0.1 5:1.0 11:1.0 14:1.0 19:1.0 20:1.0 21:1.0 24:1.0 29:1.0 32:1.0 33:1.0 34:1.0 35:1.0 36:0.303879 37:0.805556 38:0.6 60:1.0 96:1.0 
2.0 1:0.005 11:1.0 14:1.0 21:1.0 23:1.0 29:1.0 31:1.0 32:1.0 34:1.0 35:1.0 36:0.655247 37:0.795455 38:0.4 39:1.0 42:1.0 46:1.0 
2.0 1:0.193333 2:0.4 11:1.0 14:1.0 17:1.0 19:1.0 20:1.0 21:1.0 24:1.0 29:1.0 31:1.0 32:1.0 33:1.0 34:1.0 35:1.0 36:0.30388 37:0.28125 38:1.0 41:1.0 45:1.0 58:1.0 92:1.0 93:1.0 113:1.0 
0.5493287137681402 1:0.138333 2:1.0 11:1.0 14:1.0 21:1.0 23:1.0 29:1.0 31:1.0 32:1.0 34:1.0 35:1.0 36:0.303875 37:1.0 38:9.1 43:1.0 52:1.0 89:1.0 
2.0 1:0.12 2:0.3 11:1.0 14:1.0 19:1.0 20:1.0 21:1.0 23:1.0 29:1.0 31:1.0 32:1.0 35:1.0 36:0.303879 37:0.403846 38:1.5 96:1.0 
2.0 1:0.185 2:0.5 12:1.0 14:1.0 19:1.0 21:1.0 23:1.0 29:1.0 31:1.0 32:1.0 35:1.0 36:0.655243 37:0.345238 38:0.3 
0.3187530136711819 1:0.706667 3:1.0 4:1.0 5:1.0 6:1.0 11:1.0 14:1.0 17:1.0 19:1.0 20:1.0 21:1.0 23:1.0 29:1.0 31:1.0 32:1.0 35:1.0 36:0.655246 38:7.4 52:1.0 121:1.0 
0.07722659439953272 1:0.116667 2:0.4 9:1.0 12:1.0 14:1.0 21:1.0 24:1.0 29:1.0 31:1.0 32:1.0 36:0.622618 37:0.930556 38:1.0 44:1.0 58:1.0 63:1.0 64:1.0 124:1.0 125:1.0 126:1.0 127:1.0 
2.0 2:0.1 11:1.0 14:1.0 17:1.0 19:1.0 20:1.0 21:1.0 23:1.0 29:1.0 31:1.0 32:1.0 34:1.0 35:1.0 36:0.303879 37:0.25 38:0.2 
1.435046060082606 1:0.036667 2:0.1 3:1.0 4:1.0 5:1.0 6:1.0 11:1.0 14:1.0 17:1.0 19:1.0 20:1.0 21:1.0 23:1.0 29:1.0 31:1.0 32:1.0 34:1.0 36:0.303878 38:1.0 49:1.0 51:1.0 60:1.0 
2.0 1:0.126667 2:0.5 5:1.0 11:1.0 14:1.0 17:1.0 20:1.0 21:1.0 23:1.0 29:1.0 31:1.0 32:1.0 34:1.0 35:1.0 36:0.303876 37:0.794872 38:0.1 
2.0 1:0.405 2:0.5 11:1.0 14:1.0 17:1.0 20:1.0 21:1.0 23:1.0 29:1.0 31:1.0 32:1.0 35:1.0 36:0.303877 37:0.723146 38:1.0 43:1.0 44:1.0 49:1.0 50:1.0 59:1.0 60:1.0 
2.0 1:0.036667 11:1.0 14:1.0 17:1.0 19:1.0 21:1.0 23:1.0 29:1.0 31:1.0 32:1.0 34:1.0 36:0.303875 37:0.910714 38:0.4 42:1.0 46:1.0 90:1.0 168:1.0 
1.0357403134503187 1:0.37 2:0.9 11:1.0 14:1.0 21:1.0 23:1.0 29:1.0 31:1.0 32:1.0 35:1.0 36:0.655246 37:0.875 38:0.6 40:1.0 91:1.0 
0.4534998433141657 1:0.093333 2:0.2 11:1.0 14:1.0 21:1.0 23:1.0 29:1.0 31:1.0 32:1.0 35:1.0 36:0.655252 37:0.625 38:1.6 43:1.0 49:1.0 50:1.0 51:1.0 52:1.0 59:1.0 132:1.0 
2.0 1:0.196667 2:0.5 9:1.0 11:1.0 14:1.0 17:1.0 19:1.0 20:1.0 21:1.0 24:1.0 29:1.0 31:1.0 32:1.0 35:1.0 36:0.65525 37:0.357143 38:0.9 44:1.0 57:1.0 58:1.0 
0.19292677906420955 1:0.17 2:0.6 11:1.0 14:1.0 20:1.0 21:1.0 23:1.0 29:1.0 31:1.0 32:1.0 35:1.0 36:0.655252 37:0.754937 38:1.7 43:1.0 44:1.0 49:1.0 50:1.0 59:1.0 132:1.0 
0.7539112329626951 1:0.026667 2:0.1 9:1.0 11:1.0 14:1.0 21:1.0 24:1.0 29:1.0 31:1.0 32:1.0 34:1.0 36:0.65525 37:1.0 38:0.8 44:1.0 102:1.0 
2.0 1:0.46 2:0.8 4:1.0 11:1.0 14:1.0 17:1.0 19:1.0 20:1.0 21:1.0 23:1.0 29:1.0 31:1.0 32:1.0 35:1.0 36:0.655246 37:0.274194 38:0.8 44:1.0 
0.5856074992363367 1:0.035 2:0.2 9:1.0 11:1.0 14:1.0 21:1.0 24:1.0 29:1.0 31:1.0 32:1.0 35:1.0 36:0.655249 37:0.79037 38:1.7 44:1.0 49:1.0 124:1.0 125:1.0 126:1.0 127:1.0 
0.052652518389562 1:0.073333 2:0.4 9:1.0 13:1.0 16:1.0 24:1.0 29:1.0 31:1.0 32:1.0 35:1.0 36:0.65525 37:1.0 38:1.8 44:1.0 49:1.0 50:1.0 59:1.0 60:1.0 69:1.0 77:1.0 143:1.0 144:1.0 154:1.0 155:1.0 156:1.0 
2.0 1:0.021667 2:0.1 5:1.0 11:1.0 14:1.0 20:1.0 21:1.0 23:1.0 29:1.0 31:1.0 32:1.0 35:1.0 36:0.655246 37:0.507867 38:0.8 43:1.0 
2.0 1:0.381667 2:0.7 5:1.0 9:1.0 11:1.0 14:1.0 19:1.0 20:1.0 21:1.0 24:1.0 29:1.0 31:1.0 32:1.0 36:0.65525 37:0.730769 38:1.0 42:1.0 46:1.0 63:1.0 65:1.0 
1.10554737769079 1:0.178333 2:0.5 3:1.0 4:1.0 5:1.0 6:1.0 11:1.0 14:1.0 17:1.0 19:1.0 20:1.0 21:1.0 23:1.0 29:1.0 31:1.0 32:1.0 36:0.303878 38:1.3 40:1.0 56:1.0 
0.5188772389332598 1:0.028333 2:0.1 13:1.0 14:1.0 19:1.0 21:1.0 23:1.0 29:1.0 31:1.0 32:1.0 34:1.0 35:1.0 36:0.303876 37:1.0 38:0.4 74:1.0 89:1.0 
2.0 1:0.043333 2:0.1 11:1.0 14:1.0 17:1.0 20:1.0 21:1.0 23:1.0 29:1.0 32:1.0 35:1.0 36:0.303879 37:0.426389 38:1.3 40:1.0 43:1.0 52:1.0 56:1.0 
0.1644098818023743 1:0.033333 2:0.2 11:1.0 14:1.0 21:1.0 23:1.0 29:1.0 31:1.0 32:1.0 34:1.0 35:1.0 36:0.303877 37:0.631016 38:0.7 41:1.0 45:1.0 124:1.0 125:1.0 126:1.0 127:1.0 
1.4833173643977413 1:0.036667 13:1.0 14:1.0 19:1.0 20:1.0 21:1.0 23:1.0 29:1.0 31:1.0 32:1.0 36:0.439767 37:0.7 38:0.8 44:1.0 
2.0 1:0.241667 2:1.0 3:1.0 4:1.0 5:1.0 6:1.0 11:1.0 14:1.0 17:1.0 19:1.0 20:1.0 21:1.0 23:1.0 29:1.0 31:1.0 32:1.0 36:0.655252 38:1.7 49:1.0 
2.0 1:0.055 2:0.3 11:1.0 14:1.0 21:1.0 23:1.0 29:1.0 31:1.0 32:1.0 34:1.0 35:1.0 36:0.655246 37:0.75 38:1.4 43:1.0 49:1.0 60:1.0 61:1.0 65:1.0 
1.9262360784482127 1:0.19 2:0.4 7:1.0 11:1.0 16:1.0 23:1.0 30:1.0 31:1.0 35:1.0 36:0.303875 37:1.0 38:2.2 43:1.0 49:1.0 50:1.0 67:1.0 
0.09532270037982944 1:0.088333 2:0.6 5:1.0 11:1.0 14:1.0 20:1.0 21:1.0 23:1.0 29:1.0 31:1.0 32:1.0 35:1.0 36:0.30388 37:0.623932 38:0.4 49:1.0 50:1.0 
2.0 1:0.016667 2:0.1 5:1.0 11:1.0 14:1.0 17:1.0 19:1.0 20:1.0 21:1.0 23:1.0 29:1.0 31:1.0 32:1.0 35:1.0 36:0.303879 38:0.4 53:1.0 75:1.0 120:1.0 
1.4328967511241177 1:0.085 2:0.2 9:1.0 13:1.0 16:1.0 24:1.0 29:1.0 31:1.0 32:1.0 35:1.0 36:0.65525 37:1.0 38:0.4 42:1.0 46:1.0 56:1.0 
2.0 1:0.055 2:0.3 9:1.0 11:1.0 14:1.0 17:1.0 19:1.0 20:1.0 21:1.0 24:1.0 29:1.0 31:1.0 32:1.0 35:1.0 36:0.65525 37:0.785714 38:0.6 44:1.0 56:1.0 
0.5165957207878041 1:0.12 2:0.2 10:1.0 13:1.0 16:1.0 23:1.0 29:1.0 31:1.0 32:1.0 35:1.0 36:0.655249 37:1.0 38:1.2 42:1.0 46:1.0 96:1.0 
0.7637665659295768 1:0.155 2:0.1 5:1.0 6:1.0 9:1.0 11:1.0 14:1.0 17:1.0 19:1.0 20:1.0 21:1.0 24:1.0 29:1.0 31:1.0 32:1.0 34:1.0 35:1.0 36:0.65525 38:2.0 62:1.0 78:1.0 79:1.0 80:1.0 83:1.0 85:1.0 89:1.0 132:1.0 141:1.0 
0.1467360933040081 1:0.15 2:1.0 9:1.0 11:1.0 14:1.0 21:1.0 24:1.0 29:1.0 31:1.0 32:1.0 34:1.0 35:1.0 36:0.303879 37:0.978788 38:1.1 39:1.0 44:1.0 49:1.0 50:1.0 59:1.0 107:1.0 
0.38336670886799945 1:0.093333 2:0.3 9:1.0 11:1.0 14:1.0 24:1.0 29:1.0 31:1.0 32:1.0 34:1.0 35:1.0 36:0.655252 37:0.945455 38:1.7 43:1.0 44:1.0 49:1.0 50:1.0 59:1.0 62:1.0 107:1.0 
0.008120943190315744 1:0.01 13:1.0 16:1.0 23:1.0 29:1.0 31:1.0 32:1.0 35:1.0 36:0.655252 37:1.0 38:0.5 40:1.0 41:1.0 45:1.0 
2.0 1:0.258333 2:1.0 5:1.0 11:1.0 14:1.0 17:1.0 20:1.0 23:1.0 29:1.0 31:1.0 32:1.0 35:1.0 36:0.30388 37:0.389474 38:2.1 43:1.0 49:1.0 61:1.0 124:1.0 125:1.0 126:1.0 127:1.0 
0.17379456893292144 1:0.211667 2:0.8 11:1.0 14:1.0 21:1.0 23:1.0 29:1.0 31:1.0 32:1.0 36:0.303875 37:0.924603 38:2.4 57:1.0 58:1.0 76:1.0 102:1.0 104:1.0 169:1.0 170:1.0 171:1.0 
0.051223224468227156 1:0.013333 2:0.2 11:1.0 14:1.0 21:1.0 23:1.0 29:1.0 31:1.0 32:1.0 34:1.0 35:1.0 36:0.303875 37:0.777778 38:0.8 49:1.0 50:1.0 59:1.0 104:1.0 
2.0 1:0.028333 2:0.1 11:1.0 14:1.0 17:1.0 19:1.0 20:1.0 21:1.0 23:1.0 29:1.0 31:1.0 32:1.0 36:0.303878 37:0.208333 38:0.6 85:1.0 89:1.0 122:1.0 123:1.0 137:1.0 138:1.0 139:1.0 
0.14113495737612627 1:0.013333 9:1.0 13:1.0 16:1.0 21:1.0 24:1.0 29:1.0 31:1.0 32:1.0 35:1.0 36:0.65525 37:1.0 38:0.7 44:1.0 102:1.0 
2.0 1:0.29 2:0.7 5:1.0 6:1.0 9:1.0 11:1.0 14:1.0 17:1.0 19:1.0 20:1.0 21:1.0 24:1.0 29:1.0 31:1.0 32:1.0 35:1.0 36:0.655244 38:0.7 42:1.0 43:1.0 46:1.0 49:1.0 
0.34208697441127034 1:0.035 2:0.2 9:1.0 11:1.0 14:1.0 21:1.0 24:1.0 29:1.0 31:1.0 32:1.0 35:1.0 36:0.65525 37:0.74 38:1.3 44:1.0 49:1.0 50:1.0 59:1.0 
2.0 1:0.098333 2:0.9 4:1.0 11:1.0 14:1.0 17:1.0 20:1.0 21:1.0 23:1.0 29:1.0 31:1.0 32:1.0 34:1.0 35:1.0 36:0.655247 37:0.588843 38:0.5 43:1.0 44:1.0 
2.0 1:0.02 9:1.0 11:1.0 14:1.0 21:1.0 24:1.0 29:1.0 31:1.0 32:1.0 34:1.0 35:1.0 36:0.65525 37:0.884864 38:0.8 44:1.0 
2.0 1:0.141667 2:0.4 11:1.0 14:1.0 17:1.0 19:1.0 20:1.0 21:1.0 23:1.0 29:1.0 31:1.0 32:1.0 35:1.0 36:0.655246 37:0.375 38:0.9 85:1.0 86:1.0 87:1.0 88:1.0 89:1.0 90:1.0 122:1.0 123:1.0 137:1.0 138:1.0 139:1.0 
0.6629539500750048 1:0.096667 3:1.0 4:1.0 5:1.0 6:1.0 11:1.0 14:1.0 17:1.0 19:1.0 20:1.0 21:1.0 23:1.0 29:1.0 31:1.0 32:1.0 35:1.0 36:0.655246 38:1.7 121:1.0 
0.8468954213708085 1:0.026667 13:1.0 14:1.0 19:1.0 21:1.0 23:1.0 29:1.0 31:1.0 32:1.0 34:1.0 35:1.0 36:0.303881 37:0.666667 38:0.3 48:1.0 
1.5726916612084931 2:0.1 5:1.0 11:1.0 14:1.0 20:1.0 23:1.0 29:1.0 31:1.0 32:1.0 34:1.0 35:1.0 36:0.30388 37:0.217732 38:1.4 39:1.0 42:1.0 46:1.0 50:1.0 65:1.0 107:1.0 
1.1902295485859387 1:0.143333 2:0.5 11:1.0 14:1.0 21:1.0 23:1.0 29:1.0 31:1.0 32:1.0 35:1.0 36:0.655247 37:0.921569 38:1.3 44:1.0 57:1.0 58:1.0 63:1.0 64:1.0 93:1.0 95:1.0 113:1.0 
1.7925658846063408 1:0.006667 2:0.2 11:1.0 14:1.0 21:1.0 23:1.0 29:1.0 31:1.0 32:1.0 34:1.0 35:1.0 36:0.655252 37:0.837037 38:0.7 98:1.0 99:1.0 
0.5056168530125414 1:0.006667 2:0.1 4:1.0 9:1.0 11:1.0 14:1.0 21:1.0 22:1.0 29:1.0 31:1.0 32:1.0 33:1.0 34:1.0 35:1.0 36:0.65525 37:0.668067 38:0.9 43:1.0 44:1.0 103:1.0 
0.0057018335547996 1:0.066667 2:0.2 12:1.0 16:1.0 23:1.0 29:1.0 31:1.0 32:1.0 35:1.0 36:0.303877 37:0.963235 38:2.4 39:1.0 44:1.0 50:1.0 91:1.0 103:1.0 107:1.0 
0.31174306956765135 1:0.088333 2:0.2 11:1.0 14:1.0 21:1.0 23:1.0 29:1.0 31:1.0 32:1.0 34:1.0 35:1.0 36:0.655243 37:0.756621 38:3.0 43:1.0 56:1.0 78:1.0 79:1.0 80:1.0 111:1.0 
2.0 1:0.028333 2:0.1 6:1.0 9:1.0 11:1.0 14:1.0 17:1.0 19:1.0 20:1.0 21:1.0 24:1.0 29:1.0 31:1.0 32:1.0 34:1.0 36:0.655249 38:1.4 44:1.0 58:1.0 92:1.0 93:1.0 113:1.0 
2.0 1:0.048333 2:0.2 11:1.0 14:1.0 19:1.0 20:1.0 21:1.0 23:1.0 29:1.0 31:1.0 32:1.0 34:1.0 35:1.0 36:0.655252 37:0.192308 38:1.4 39:1.0 44:1.0 63:1.0 
1.0924206616147825 1:0.023333 2:0.1 11:1.0 14:1.0 17:1.0 20:1.0 21:1.0 23:1.0 29:1.0 31:1.0 32:1.0 35:1.0 36:0.30388 38:0.3 53:1.0 
0.42680192887659174 1:0.033333 2:0.4 13:1.0 14:1.0 21:1.0 23:1.0 29:1.0 31:1.0 32:1.0 35:1.0 36:0.655246 37:0.809131 38:0.5 39:1.0 63:1.0 
1.6694998553659555 1:0.048333 2:0.4 4:1.0 13:1.0 14:1.0 17:1.0 20:1.0 23:1.0 29:1.0 32:1.0 35:1.0 36:0.65525 37:0.215909 38:0.5 39:1.0 40:1.0 49:1.0 
1.796364503929808 1:0.101667 2:0.1 11:1.0 14:1.0 20:1.0 21:1.0 23:1.0 29:1.0 31:1.0 32:1.0 35:1.0 36:0.655243 37:0.901923 38:1.4 40:1.0 49:1.0 51:1.0 52:1.0 
0.14623110843593431 1:0.346667 2:0.5 9:1.0 11:1.0 14:1.0 21:1.0 24:1.0 29:1.0 31:1.0 32:1.0 35:1.0 36:0.303879 37:0.832482 38:2.7 43:1.0 52:1.0 62:1.0 71:1.0 78:1.0 79:1.0 80:1.0 82:1.0 85:1.0 87:1.0 89:1.0 90:1.0 94:1.0 95:1.0 132:1.0 183:1.0 
2.0 1:0.031667 2:0.2 3:1.0 4:1.0 5:1.0 6:1.0 11:1.0 14:1.0 17:1.0 19:1.0 20:1.0 21:1.0 23:1.0 29:1.0 31:1.0 32:1.0 36:0.303878 38:0.5 44:1.0 
0.10196062086025198 1:0.576667 2:1.0 11:1.0 14:1.0 21:1.0 23:1.0 29:1.0 31:1.0 32:1.0 35:1.0 36:0.655251 37:0.96 38:1.1 62:1.0 74:1.0 89:1.0 94:1.0 95:1.0 
0.27735173687091763 1:0.065 2:0.2 12:1.0 14:1.0 21:1.0 23:1.0 29:1.0 31:1.0 32:1.0 34:1.0 35:1.0 36:0.303879 37:0.748718 38:1.4 39:1.0 49:1.0 62:1.0 65:1.0 
0.9189066575919425 1:0.056667 2:0.1 11:1.0 14:1.0 21:1.0 23:1.0 29:1.0 31:1.0 32:1.0 35:1.0 36:0.655247 37:0.70671 38:0.9 39:1.0 44:1.0 60:1.0 63:1.0 64:1.0 
0.4912997300201188 1:0.163333 2:0.3 11:1.0 14:1.0 21:1.0 23:1.0 29:1.0 31:1.0 32:1.0 35:1.0 36:0.303879 37:0.762048 38:1.7 43:1.0 52:1.0 58:1.0 82:1.0 87:1.0 89:1.0 90:1.0 92:1.0 93:1.0 113:1.0 183:1.0 
0.04780311192394961 1:0.021667 13:1.0 14:1.0 21:1.0 24:1.0 29:1.0 31:1.0 32:1.0 33:1.0 34:1.0 35:1.0 36:0.303881 37:0.873333 38:0.9 40:1.0 
0.03748038944974227 1:0.233333 2:0.8 12:1.0 14:1.0 21:1.0 23:1.0 29:1.0 32:1.0 35:1.0 36:0.655244 37:0.850126 38:0.6 41:1.0 45:1.0 63:1.0 98:1.0 
2.0 1:0.168333 2:0.5 11:1.0 14:1.0 17:1.0 19:1.0 21:1.0 23:1.0 29:1.0 31:1.0 32:1.0 35:1.0 36:0.655246 37:0.277778 38:0.6 53:1.0 75:1.0 120:1.0 123:1.0 139:1.0 150:1.0 151:1.0 
1.010443933920131 1:0.11 2:0.2 3:1.0 4:1.0 5:1.0 6:1.0 11:1.0 14:1.0 17:1.0 19:1.0 20:1.0 21:1.0 23:1.0 29:1.0 31:1.0 32:1.0 34:1.0 36:0.303878 38:1.3 49:1.0 
0.12967381546158102 1:0.056667 2:0.3 13:1.0 16:1.0 23:1.0 29:1.0 31:1.0 32:1.0 35:1.0 36:0.655247 37:0.953125 38:0.4 123:1.0 139:1.0 
2.0 1:0.021667 13:1.0 14:1.0 19:1.0 21:1.0 23:1.0 29:1.0 31:1.0 32:1.0 34:1.0 35:1.0 36:0.30388 37:1.0 38:0.4 
0.09382851767614793 1:0.01 2:0.1 7:1.0 9:1.0 11:1.0 16:1.0 24:1.0 30:1.0 31:1.0 35:1.0 36:0.30388 37:1.0 38:0.9 41:1.0 42:1.0 45:1.0 46:1.0 47:1.0 49:1.0 65:1.0 
0.5943900154374313 1:0.186667 2:0.2 13:1.0 16:1.0 23:1.0 29:1.0 31:1.0 32:1.0 35:1.0 36:0.655246 37:1.0 38:0.9 62:1.0 94:1.0 95:1.0 
1.6055221756732785 3:1.0 4:1.0 5:1.0 6:1.0 11:1.0 14:1.0 17:1.0 19:1.0 20:1.0 21:1.0 23:1.0 29:1.0 31:1.0 32:1.0 34:1.0 36:0.303875 38:0.1 
2.0 1:0.1 2:0.3 11:1.0 14:1.0 19:1.0 20:1.0 21:1.0 23:1.0 29:1.0 31:1.0 32:1.0 34:1.0 36:0.303878 37:0.1875 38:0.4 
2.0 1:0.026667 2:0.2 11:1.0 14:1.0 17:1.0 19:1.0 20:1.0 21:1.0 23:1.0 29:1.0 31:1.0 32:1.0 34:1.0 36:0.303878 37:0.833333 38:0.6 85:1.0 88:1.0 89:1.0 90:1.0 122:1.0 123:1.0 137:1.0 
0.49008467567640746 1:0.34 2:0.6 11:1.0 14:1.0 21:1.0 23:1.0 29:1.0 31:1.0 32:1.0 34:1.0 35:1.0 36:0.655247 37:0.795024 38:1.1 56:1.0 58:1.0 93:1.0 95:1.0 
0.16107136982173587 1:0.208333 2:0.2 12:1.0 14:1.0 21:1.0 23:1.0 29:1.0 31:1.0 32:1.0 34:1.0 35:1.0 36:0.655251 37:0.806077 38:1.5 39:1.0 62:1.0 94:1.0 95:1.0 
0.016219731967658833 3:1.0 4:1.0 5:1.0 6:1.0 11:1.0 14:1.0 17:1.0 19:1.0 20:1.0 21:1.0 23:1.0 29:1.0 31:1.0 32:1.0 34:1.0 36:0.303875 38:0.1 
1.1758979303876573 1:0.273333 2:0.5 11:1.0 14:1.0 19:1.0 20:1.0 21:1.0 23:1.0 29:1.0 31:1.0 32:1.0 35:1.0 36:0.303878 37:0.333333 38:2.0 53:1.0 56:1.0 58:1.0 62:1.0 
1.934983840487653 1:0.141667 2:0.4 11:1.0 14:1.0 19:1.0 20:1.0 21:1.0 23:1.0 29:1.0 31:1.0 32:1.0 35:1.0 36:0.655252 37:0.365385 38:0.9 39:1.0 60:1.0 63:1.0 64:1.0 135:1.0 136:1.0 
1.3621981874149056 1:0.201667 2:0.8 3:1.0 4:1.0 5:1.0 6:1.0 11:1.0 14:1.0 17:1.0 19:1.0 20:1.0 21:1.0 23:1.0 29:1.0 31:1.0 32:1.0 35:1.0 36:0.303876 38:1.7 43:1.0 44:1.0 56:1.0 58:1.0 93:1.0 95:1.0 124:1.0 125:1.0 126:1.0 143:1.0 187:1.0 
1.3600066787491798 1:0.025 2:0.1 3:1.0 4:1.0 5:1.0 6:1.0 12:1.0 14:1.0 17:1.0 19:1.0 20:1.0 21:1.0 23:1.0 29:1.0 31:1.0 32:1.0 35:1.0 36:0.30388 38:0.7 43:1.0 44:1.0 52:1.0 53:1.0 
0.06229553652211413 1:0.188333 2:0.9 7:1.0 11:1.0 16:1.0 23:1.0 30:1.0 31:1.0 35:1.0 36:0.303876 37:1.0 38:0.9 41:1.0 45:1.0 49:1.0 60:1.0 135:1.0 136:1.0 
2.0 1:0.086667 2:0.4 4:1.0 11:1.0 14:1.0 19:1.0 20:1.0 21:1.0 23:1.0 29:1.0 31:1.0 32:1.0 35:1.0 36:0.303875 37:0.25 38:0.9 39:1.0 44:1.0 49:1.0 57:1.0 58:1.0 
0.11752595991038058 1:0.095 2:0.3 12:1.0 14:1.0 23:1.0 29:1.0 31:1.0 32:1.0 35:1.0 36:0.303878 37:1.0 38:1.3 39:1.0 58:1.0 63:1.0 64:1.0 93:1.0 95:1.0 113:1.0 
0.037366239674287746 1:0.063333 2:0.3 7:1.0 12:1.0 16:1.0 23:1.0 30:1.0 31:1.0 35:1.0 36:0.30388 37:1.0 38:0.8 41:1.0 45:1.0 60:1.0 63:1.0 64:1.0 69:1.0 76:1.0 105:1.0 106:1.0 
0.9575915362109522 1:0.026667 2:0.1 9:1.0 13:1.0 16:1.0 24:1.0 29:1.0 31:1.0 32:1.0 35:1.0 36:0.65525 37:1.0 38:0.8 39:1.0 44:1.0 49:1.0 124:1.0 125:1.0 126:1.0 127:1.0 
0.1696352577751842 1:0.008333 12:1.0 16:1.0 23:1.0 29:1.0 31:1.0 32:1.0 35:1.0 36:0.303877 37:0.855185 38:0.6 39:1.0 100:1.0 
1.3731129980935384 1:0.046667 2:0.1 5:1.0 11:1.0 14:1.0 19:1.0 20:1.0 21:1.0 24:1.0 29:1.0 31:1.0 32:1.0 33:1.0 35:1.0 36:0.30388 37:0.777778 38:0.5 39:1.0 49:1.0 67:1.0 
2.0 1:0.02 2:0.1 11:1.0 14:1.0 17:1.0 20:1.0 21:1.0 23:1.0 29:1.0 31:1.0 32:1.0 34:1.0 35:1.0 36:0.303877 37:0.690625 38:1.0 40:1.0 43:1.0 49:1.0 51:1.0 52:1.0 
1.3480746126595804 1:0.161667 2:0.7 4:1.0 12:1.0 14:1.0 17:1.0 19:1.0 21:1.0 23:1.0 29:1.0 31:1.0 32:1.0 35:1.0 36:0.655247 37:0.166667 38:0.6 43:1.0 75:1.0 123:1.0 139:1.0 150:1.0 151:1.0 
2.0 1:0.108333 2:0.4 11:1.0 14:1.0 17:1.0 19:1.0 20:1.0 21:1.0 23:1.0 29:1.0 31:1.0 32:1.0 34:1.0 35:1.0 36:0.303877 37:0.357143 38:1.3 43:1.0 44:1.0 49:1.0 
1.6924367291919356 1:0.15 2:1.0 9:1.0 12:1.0 14:1.0 17:1.0 19:1.0 20:1.0 21:1.0 24:1.0 29:1.0 31:1.0 32:1.0 35:1.0 36:0.303883 37:0.482609 38:0.9 42:1.0 46:1.0 49:1.0 104:1.0 
0.15294936034611675 1:0.011667 11:1.0 14:1.0 23:1.0 29:1.0 31:1.0 32:1.0 35:1.0 36:0.655246 37:0.6 38:0.6 44:1.0 52:1.0 
2.0 1:0.113333 2:0.4 11:1.0 14:1.0 19:1.0 20:1.0 21:1.0 23:1.0 29:1.0 31:1.0 32:1.0 35:1.0 36:0.655247 37:0.863636 38:0.9 44:1.0 86:1.0 91:1.0 124:1.0 125:1.0 126:1.0 
1.3248821726175934 1:0.238333 2:0.9 6:1.0 9:1.0 11:1.0 14:1.0 17:1.0 19:1.0 20:1.0 21:1.0 24:1.0 29:1.0 31:1.0 32:1.0 35:1.0 36:0.30388 38:1.1 44:1.0 54:1.0 56:1.0 78:1.0 79:1.0 80:1.0 
1.813278118437527 1:0.066667 2:0.2 3:1.0 4:1.0 5:1.0 6:1.0 11:1.0 14:1.0 17:1.0 19:1.0 20:1.0 21:1.0 23:1.0 29:1.0 31:1.0 32:1.0 36:0.303878 38:1.2 73:1.0 84:1.0 86:1.0 
0.20684472258913228 1:0.041667 2:0.1 9:1.0 13:1.0 16:1.0 24:1.0 29:1.0 31:1.0 32:1.0 35:1.0 36:0.65525 37:1.0 38:1.5 41:1.0 44:1.0 45:1.0 49:1.0 
1.7290520816708213 1:0.235 2:1.0 3:1.0 4:1.0 5:1.0 6:1.0 11:1.0 14:1.0 17:1.0 19:1.0 20:1.0 21:1.0 23:1.0 29:1.0 31:1.0 32:1.0 36:0.303875 38:0.7 49:1.0 50:1.0 59:1.0 
0.2833099125093034 1:0.135 2:0.3 11:1.0 14:1.0 21:1.0 23:1.0 29:1.0 31:1.0 32:1.0 34:1.0 36:0.303878 37:0.848684 38:1.5 53:1.0 54:1.0 55:1.0 56:1.0 78:1.0 79:1.0 80:1.0 100:1.0 
0.03185618000465668 1:0.041667 2:0.1 7:1.0 12:1.0 16:1.0 23:1.0 30:1.0 31:1.0 35:1.0 36:0.303876 37:1.0 38:1.1 41:1.0 45:1.0 60:1.0 63:1.0 64:1.0 69:1.0 77:1.0 78:1.0 79:1.0 80:1.0 
0.02860970589882612 1:0.201667 2:0.8 11:1.0 14:1.0 21:1.0 23:1.0 29:1.0 32:1.0 35:1.0 36:0.65525 37:0.813282 38:2.4 39:1.0 50:1.0 65:1.0 95:1.0 107:1.0 
0.3338457023533532 1:0.256667 2:0.8 11:1.0 14:1.0 20:1.0 21:1.0 23:1.0 29:1.0 31:1.0 32:1.0 35:1.0 36:0.30388 37:0.848214 38:0.7 40:1.0 56:1.0 
0.2981547744135068 1:0.155 2:0.5 11:1.0 14:1.0 21:1.0 23:1.0 29:1.0 31:1.0 32:1.0 34:1.0 36:0.655246 37:0.811966 38:0.6 84:1.0 123:1.0 139:1.0 
0.23124356701429818 1:0.046667 2:0.1 10:1.0 13:1.0 16:1.0 23:1.0 29:1.0 31:1.0 32:1.0 35:1.0 36:0.655249 37:1.0 38:2.0 44:1.0 49:1.0 50:1.0 58:1.0 59:1.0 92:1.0 93:1.0 
2.0 1:0.196667 2:0.3 3:1.0 4:1.0 5:1.0 6:1.0 11:1.0 14:1.0 17:1.0 19:1.0 20:1.0 21:1.0 23:1.0 29:1.0 31:1.0 32:1.0 35:1.0 36:0.655251 38:1.2 53:1.0 55:1.0 56:1.0 
2.0 1:0.191667 2:0.6 3:1.0 4:1.0 5:1.0 6:1.0 11:1.0 14:1.0 17:1.0 19:1.0 20:1.0 21:1.0 23:1.0 29:1.0 31:1.0 32:1.0 35:1.0 36:0.655247 38:2.2 40:1.0 
1.0998011204967553 1:0.068333 2:0.5 12:1.0 14:1.0 21:1.0 23:1.0 29:1.0 31:1.0 32:1.0 34:1.0 35:1.0 36:0.655247 37:0.715132 38:1.1 39:1.0 44:1.0 49:1.0 60:1.0 
2.0 1:0.048333 2:0.2 11:1.0 14:1.0 21:1.0 24:1.0 29:1.0 31:1.0 32:1.0 33:1.0 35:1.0 36:0.655243 37:0.958333 38:0.6 41:1.0 44:1.0 45:1.0 124:1.0 125:1.0 126:1.0 127:1.0 
2.0 1:0.001667 2:0.1 11:1.0 14:1.0 17:1.0 20:1.0 21:1.0 23:1.0 29:1.0 31:1.0 32:1.0 34:1.0 35:1.0 36:0.30388 37:0.441288 38:0.6 39:1.0 40:1.0 49:1.0 
2.0 1:0.085 2:0.3 6:1.0 11:1.0 14:1.0 17:1.0 19:1.0 20:1.0 21:1.0 24:1.0 29:1.0 31:1.0 32:1.0 33:1.0 35:1.0 36:0.303882 38:0.7 41:1.0 45:1.0 124:1.0 125:1.0 126:1.0 127:1.0 
0.36079808739508673 1:0.015 2:0.1 11:1.0 14:1.0 21:1.0 23:1.0 29:1.0 31:1.0 32:1.0 35:1.0 36:0.30388 37:0.969697 38:1.7 44:1.0 49:1.0 61:1.0 
2.0 1:0.075 2:0.3 11:1.0 14:1.0 17:1.0 19:1.0 20:1.0 21:1.0 23:1.0 29:1.0 31:1.0 32:1.0 35:1.0 36:0.30388 38:0.7 40:1.0 49:1.0 
0.3497142481157916 1:0.088333 2:0.3 9:1.0 13:1.0 16:1.0 24:1.0 29:1.0 31:1.0 32:1.0 35:1.0 36:0.65525 37:1.0 38:1.9 39:1.0 44:1.0 49:1.0 
0.984504403712464 1:0.21 2:0.9 4:1.0 12:1.0 14:1.0 17:1.0 19:1.0 21:1.0 23:1.0 29:1.0 31:1.0 32:1.0 35:1.0 36:0.655243 37:0.166667 38:0.5 43:1.0 75:1.0 
1.8086049736694203 1:0.145 2:0.3 3:1.0 4:1.0 5:1.0 6:1.0 11:1.0 14:1.0 17:1.0 19:1.0 20:1.0 21:1.0 23:1.0 29:1.0 31:1.0 32:1.0 36:0.655252 38:1.7 49:1.0 132:1.0 
2.0 1:0.068333 2:0.4 9:1.0 11:1.0 14:1.0 21:1.0 24:1.0 29:1.0 31:1.0 32:1.0 34:1.0 35:1.0 36:0.65525 37:0.958333 38:0.4 41:1.0 42:1.0 45:1.0 46:1.0 47:1.0 
0.3768454659622348 1:0.001667 7:1.0 9:1.0 11:1.0 16:1.0 24:1.0 30:1.0 31:1.0 35:1.0 36:0.655249 37:1.0 38:0.3 41:1.0 45:1.0 
0.08651859670795219 1:0.191667 2:0.6 5:1.0 11:1.0 14:1.0 20:1.0 21:1.0 23:1.0 29:1.0 31:1.0 32:1.0 35:1.0 36:0.303877 37:0.7125 38:0.8 40:1.0 49:1.0 
2.0 1:0.041667 2:0.1 11:1.0 14:1.0 19:1.0 20:1.0 21:1.0 23:1.0 29:1.0 31:1.0 32:1.0 35:1.0 36:0.655246 37:0.75 38:0.6 
0.20748329167709317 1:0.2 2:0.7 9:1.0 11:1.0 14:1.0 21:1.0 24:1.0 29:1.0 31:1.0 32:1.0 35:1.0 36:0.655249 37:0.832666 38:1.2 42:1.0 46:1.0 50:1.0 51:1.0 103:1.0 104:1.0 
2.0 1:0.373333 2:1.0 3:1.0 4:1.0 5:1.0 6:1.0 11:1.0 14:1.0 17:1.0 19:1.0 20:1.0 21:1.0 23:1.0 29:1.0 31:1.0 32:1.0 35:1.0 36:0.30388 38:0.9 44:1.0 49:1.0 50:1.0 51:1.0 59:1.0 
2.0 1:0.115 2:0.7 4:1.0 9:1.0 12:1.0 14:1.0 17:1.0 20:1.0 21:1.0 22:1.0 29:1.0 31:1.0 32:1.0 33:1.0 36:0.655251 37:0.043561 38:1.1 43:1.0 44:1.0 49:1.0 60:1.0 
0.020883218667208964 1:0.123333 2:0.4 9:1.0 13:1.0 16:1.0 24:1.0 29:1.0 31:1.0 32:1.0 35:1.0 36:0.65525 37:1.0 38:1.4 41:1.0 44:1.0 45:1.0 62:1.0 63:1.0 71:1.0 72:1.0 94:1.0 95:1.0 
2.0 1:0.005 2:0.1 11:1.0 14:1.0 19:1.0 21:1.0 24:1.0 29:1.0 31:1.0 32:1.0 33:1.0 34:1.0 35:1.0 36:0.303877 37:0.454545 38:0.3 41:1.0 42:1.0 45:1.0 46:1.0 47:1.0 
0.7826995370684353 1:0.013333 2:0.1 11:1.0 14:1.0 20:1.0 21:1.0 23:1.0 29:1.0 31:1.0 32:1.0 34:1.0 35:1.0 36:0.655243 37:0.835185 38:2.6 43:1.0 44:1.0 49:1.0 50:1.0 51:1.0 52:1.0 162:1.0 
2.0 1:0.125 2:1.0 11:1.0 14:1.0 17:1.0 19:1.0 20:1.0 21:1.0 23:1.0 29:1.0 31:1.0 32:1.0 36:0.303876 37:0.423913 38:0.4 39:1.0 49:1.0 
0.3728173832149594 1:0.256667 2:0.6 3:1.0 4:1.0 5:1.0 6:1.0 11:1.0 14:1.0 17:1.0 19:1.0 20:1.0 21:1.0 23:1.0 29:1.0 31:1.0 32:1.0 36:0.303875 38:1.6 52:1.0 82:1.0 125:1.0 
0.08718045112430507 1:0.071667 2:0.3 9:1.0 11:1.0 14:1.0 21:1.0 24:1.0 29:1.0 31:1.0 32:1.0 34:1.0 36:0.65525 37:1.0 38:0.7 44:1.0 53:1.0 56:1.0 
0.06398081980896887 1:0.051667 2:0.1 7:1.0 11:1.0 16:1.0 23:1.0 30:1.0 31:1.0 35:1.0 36:0.303875 37:1.0 38:2.7 41:1.0 45:1.0 49:1.0 62:1.0 65:1.0 69:1.0 70:1.0 77:1.0 
0.056828919705748 1:0.06 11:1.0 14:1.0 21:1.0 23:1.0 29:1.0 31:1.0 32:1.0 35:1.0 36:0.655246 37:0.890045 38:0.7 44:1.0 90:1.0 157:1.0 173:1.0 
0.3948164999235054 1:0.083333 2:0.4 9:1.0 11:1.0 14:1.0 20:1.0 21:1.0 24:1.0 29:1.0 31:1.0 32:1.0 36:0.65525 37:0.902778 38:3.2 44:1.0 49:1.0 50:1.0 51:1.0 58:1.0 59:1.0 69:1.0 77:1.0 78:1.0 79:1.0 80:1.0 93:1.0 107:1.0 108:1.0 112:1.0 113:1.0 114:1.0 
0.7331758439331512 1:0.131667 2:0.3 11:1.0 14:1.0 17:1.0 19:1.0 20:1.0 21:1.0 23:1.0 29:1.0 31:1.0 32:1.0 36:0.655251 37:0.714286 38:2.1 44:1.0 49:1.0 68:1.0 164:1.0 176:1.0 177:1.0 
2.0 1:0.108333 2:0.3 11:1.0 14:1.0 21:1.0 23:1.0 29:1.0 32:1.0 34:1.0 35:1.0 36:0.655246 37:0.85124 38:1.1 40:1.0 56:1.0 
1.157235101236116 1:0.2 2:0.8 11:1.0 14:1.0 19:1.0 20:1.0 21:1.0 23:1.0 29:1.0 31:1.0 32:1.0 35:1.0 36:0.303876 37:0.894737 38:1.3 43:1.0 49:1.0 50:1.0 59:1.0 
0.40829880411429065 1:0.081667 2:0.4 7:1.0 11:1.0 16:1.0 23:1.0 30:1.0 35:1.0 36:0.303876 37:1.0 38:0.5 40:1.0 41:1.0 45:1.0 
2.0 1:0.073333 2:0.6 11:1.0 14:1.0 17:1.0 20:1.0 21:1.0 23:1.0 29:1.0 31:1.0 32:1.0 34:1.0 35:1.0 36:0.655243 37:0.772727 38:0.6 44:1.0 
0.21110033790701552 1:0.278333 2:0.5 11:1.0 14:1.0 21:1.0 23:1.0 29:1.0 31:1.0 32:1.0 35:1.0 36:0.30388 37:0.823832 38:2.0 39:1.0 44:1.0 63:1.0 64:1.0 176:1.0 177:1.0 
0.33565097389358467 1:0.218333 2:0.6 4:1.0 9:1.0 11:1.0 14:1.0 20:1.0 21:1.0 22:1.0 29:1.0 31:1.0 32:1.0 33:1.0 35:1.0 36:0.65525 37:0.807692 38:3.1 44:1.0 50:1.0 58:1.0 69:1.0 77:1.0 78:1.0 79:1.0 80:1.0 93:1.0 107:1.0 108:1.0 112:1.0 113:1.0 114:1.0 
2.0 1:0.093333 2:0.3 5:1.0 11:1.0 14:1.0 17:1.0 19:1.0 20:1.0 21:1.0 23:1.0 29:1.0 31:1.0 32:1.0 36:0.655243 37:0.529762 38:0.7 41:1.0 44:1.0 45:1.0 
2.0 1:0.171667 2:1.0 3:1.0 4:1.0 5:1.0 6:1.0 11:1.0 14:1.0 17:1.0 19:1.0 20:1.0 21:1.0 23:1.0 29:1.0 31:1.0 32:1.0 36:0.303875 38:1.3 49:1.0 50:1.0 57:1.0 58:1.0 
0.8906120678654594 1:0.083333 2:0.3 12:1.0 14:1.0 17:1.0 19:1.0 21:1.0 23:1.0 29:1.0 31:1.0 32:1.0 35:1.0 36:0.303877 37:0.4 38:0.9 44:1.0 53:1.0 55:1.0 56:1.0 58:1.0 93:1.0 95:1.0 
1.277054762653495 1:0.028333 2:0.2 11:1.0 14:1.0 21:1.0 23:1.0 29:1.0 31:1.0 32:1.0 34:1.0 35:1.0 36:0.655247 37:0.702287 38:1.1 49:1.0 50:1.0 59:1.0 
0.13505938969048273 1:0.336667 2:0.7 9:1.0 11:1.0 14:1.0 20:1.0 21:1.0 24:1.0 29:1.0 31:1.0 32:1.0 36:0.65525 37:0.56419 38:0.6 42:1.0 43:1.0 46:1.0 63:1.0 
0.3463732410121332 1:0.286667 2:0.6 7:1.0 11:1.0 16:1.0 23:1.0 30:1.0 35:1.0 36:0.655249 37:1.0 38:1.0 40:1.0 41:1.0 45:1.0 63:1.0 
0.7654188943912009 1:0.065 2:0.2 3:1.0 4:1.0 5:1.0 6:1.0 11:1.0 14:1.0 17:1.0 19:1.0 20:1.0 21:1.0 23:1.0 29:1.0 31:1.0 32:1.0 36:0.303878 38:1.6 54:1.0 56:1.0 57:1.0 58:1.0 62:1.0 94:1.0 95:1.0 112:1.0 160:1.0 
0.3135445247010942 1:0.02 13:1.0 16:1.0 23:1.0 29:1.0 31:1.0 32:1.0 35:1.0 36:0.655247 37:0.811169 38:0.8 41:1.0 44:1.0 45:1.0 58:1.0 92:1.0 93:1.0 
2.0 1:0.031667 2:0.1 9:1.0 11:1.0 14:1.0 21:1.0 24:1.0 29:1.0 31:1.0 32:1.0 34:1.0 35:1.0 36:0.655252 37:0.845142 38:0.7 42:1.0 43:1.0 46:1.0 103:1.0 
2.0 1:0.02 2:0.1 11:1.0 14:1.0 19:1.0 20:1.0 21:1.0 23:1.0 29:1.0 31:1.0 32:1.0 34:1.0 36:0.655252 37:0.05 38:1.3 49:1.0 
1.0264352202268356 1:0.201667 2:0.7 12:1.0 14:1.0 17:1.0 19:1.0 20:1.0 21:1.0 23:1.0 29:1.0 31:1.0 32:1.0 35:1.0 36:0.303877 37:0.422222 38:0.8 43:1.0 49:1.0 50:1.0 59:1.0 60:1.0 
0.12026483807870736 1:0.075 2:0.3 3:1.0 4:1.0 5:1.0 6:1.0 11:1.0 14:1.0 17:1.0 19:1.0 20:1.0 21:1.0 23:1.0 29:1.0 31:1.0 32:1.0 36:0.655252 38:1.0 49:1.0 50:1.0 51:1.0 59:1.0 
1.4475460110319711 1:0.035 2:0.3 9:1.0 13:1.0 14:1.0 20:1.0 21:1.0 24:1.0 29:1.0 31:1.0 32:1.0 35:1.0 36:0.655249 37:0.517857 38:0.6 39:1.0 44:1.0 49:1.0 
2.0 1:0.13 2:0.5 11:1.0 14:1.0 21:1.0 23:1.0 29:1.0 31:1.0 32:1.0 35:1.0 36:0.303877 37:0.857466 38:0.5 85:1.0 89:1.0 122:1.0 123:1.0 137:1.0 
2.0 1:0.106667 2:0.8 5:1.0 11:1.0 14:1.0 17:1.0 20:1.0 21:1.0 23:1.0 29:1.0 31:1.0 32:1.0 35:1.0 36:0.655247 38:0.5 39:1.0 40:1.0 49:1.0 
2.0 1:0.021667 2:0.1 3:1.0 4:1.0 5:1.0 6:1.0 11:1.0 14:1.0 17:1.0 19:1.0 20:1.0 21:1.0 23:1.0 29:1.0 31:1.0 32:1.0 35:1.0 36:0.30388 38:0.8 43:1.0 44:1.0 52:1.0 53:1.0 75:1.0 119:1.0 120:1.0 
0.46338122734397835 1:0.073333 2:0.3 11:1.0 14:1.0 21:1.0 23:1.0 29:1.0 31:1.0 32:1.0 34:1.0 35:1.0 36:0.655247 37:0.842657 38:2.9 50:1.0 107:1.0 
2.0 1:0.018333 2:0.2 5:1.0 11:1.0 14:1.0 19:1.0 21:1.0 23:1.0 29:1.0 31:1.0 32:1.0 35:1.0 36:0.303875 37:0.166667 38:0.6 43:1.0 52:1.0 53:1.0 75:1.0 120:1.0 123:1.0 150:1.0 182:1.0 
2.0 1:0.263333 2:0.8 3:1.0 4:1.0 5:1.0 6:1.0 11:1.0 14:1.0 17:1.0 19:1.0 20:1.0 21:1.0 23:1.0 29:1.0 31:1.0 32:1.0 36:0.30388 38:0.7 44:1.0 
0.7586379553109095 1:0.026667 2:0.1 4:1.0 9:1.0 11:1.0 14:1.0 21:1.0 22:1.0 29:1.0 31:1.0 32:1.0 33:1.0 35:1.0 36:0.65525 37:0.727273 38:0.6 42:1.0 46:1.0 
0.9449184466179745 1:0.011667 2:0.1 13:1.0 16:1.0 23:1.0 29:1.0 31:1.0 32:1.0 35:1.0 36:0.655251 37:1.0 38:0.9 40:1.0 43:1.0 49:1.0 61:1.0 
2.0 1:0.076667 2:0.1 3:1.0 4:1.0 5:1.0 6:1.0 11:1.0 14:1.0 17:1.0 19:1.0 20:1.0 21:1.0 23:1.0 29:1.0 31:1.0 32:1.0 35:1.0 36:0.655246 38:2.4 43:1.0 44:1.0 52:1.0 62:1.0 63:1.0 97:1.0 
2.0 1:0.07 2:0.7 11:1.0 14:1.0 17:1.0 19:1.0 20:1.0 21:1.0 23:1.0 29:1.0 31:1.0 32:1.0 35:1.0 36:0.655247 37:0.322581 38:0.6 39:1.0 49:1.0 
0.04148044027529246 1:0.04 2:0.1 11:1.0 14:1.0 21:1.0 24:1.0 29:1.0 31:1.0 32:1.0 33:1.0 35:1.0 36:0.303875 37:0.814583 38:1.9 43:1.0 44:1.0 49:1.0 50:1.0 57:1.0 58:1.0 59:1.0 60:1.0 69:1.0 77:1.0 143:1.0 144:1.0 154:1.0 155:1.0 156:1.0 
2.0 1:0.176667 2:0.3 12:1.0 14:1.0 19:1.0 20:1.0 21:1.0 23:1.0 29:1.0 31:1.0 32:1.0 35:1.0 36:0.303877 37:0.941176 38:0.9 39:1.0 40:1.0 49:1.0 
0.14672703913499935 1:0.063333 2:0.1 13:1.0 16:1.0 23:1.0 29:1.0 31:1.0 32:1.0 35:1.0 36:0.655247 37:1.0 38:0.8 49:1.0 60:1.0 128:1.0 130:1.0 
1.0205003663007546 1:0.201667 2:0.7 11:1.0 14:1.0 21:1.0 23:1.0 29:1.0 31:1.0 32:1.0 35:1.0 36:0.655247 37:0.735783 38:1.6 43:1.0 44:1.0 50:1.0 56:1.0 107:1.0 118:1.0 
0.7705991998896106 1:0.058333 2:0.2 11:1.0 14:1.0 17:1.0 19:1.0 20:1.0 21:1.0 23:1.0 29:1.0 31:1.0 32:1.0 36:0.303878 37:0.785714 38:2.5 49:1.0 50:1.0 58:1.0 78:1.0 79:1.0 92:1.0 93:1.0 113:1.0 
2.0 1:0.158333 2:0.7 5:1.0 11:1.0 14:1.0 17:1.0 20:1.0 21:1.0 23:1.0 29:1.0 31:1.0 32:1.0 35:1.0 36:0.30388 37:0.846154 38:0.5 39:1.0 40:1.0 49:1.0 
2.0 1:0.005 2:0.1 5:1.0 11:1.0 14:1.0 20:1.0 21:1.0 23:1.0 29:1.0 31:1.0 32:1.0 34:1.0 35:1.0 36:0.655243 37:0.51864 38:0.3 
1.1124625662119696 1:0.015 2:0.1 3:1.0 4:1.0 5:1.0 6:1.0 12:1.0 14:1.0 17:1.0 19:1.0 20:1.0 21:1.0 23:1.0 29:1.0 31:1.0 32:1.0 35:1.0 36:0.30388 38:0.6 43:1.0 52:1.0 53:1.0 
0.5964065197602402 1:0.088333 2:0.3 7:1.0 11:1.0 16:1.0 23:1.0 30:1.0 35:1.0 36:0.655251 37:1.0 38:0.5 40:1.0 41:1.0 45:1.0 63:1.0 64:1.0 
2.0 1:0.266667 2:0.7 11:1.0 14:1.0 17:1.0 19:1.0 20:1.0 21:1.0 23:1.0 29:1.0 31:1.0 32:1.0 34:1.0 35:1.0 36:0.655249 37:0.409091 38:1.8 43:1.0 49:1.0 50:1.0 52:1.0 59:1.0 112:1.0 
1.560754557737397 1:0.033333 2:0.1 11:1.0 14:1.0 21:1.0 23:1.0 29:1.0 31:1.0 32:1.0 34:1.0 35:1.0 36:0.303876 37:0.614984 38:0.7 39:1.0 44:1.0 49:1.0 60:1.0 
1.709700801878756 1:0.238333 2:0.4 5:1.0 11:1.0 14:1.0 17:1.0 20:1.0 21:1.0 24:1.0 29:1.0 31:1.0 32:1.0 33:1.0 35:1.0 36:0.303878 37:0.322169 38:0.9 49:1.0 50:1.0 59:1.0 69:1.0 
2.0 1:0.008333 2:0.1 4:1.0 11:1.0 14:1.0 17:1.0 20:1.0 21:1.0 23:1.0 29:1.0 31:1.0 32:1.0 34:1.0 35:1.0 36:0.655251 37:0.550013 38:0.9 43:1.0 44:1.0 49:1.0 50:1.0 59:1.0 60:1.0 
2.0 1:0.458333 2:0.8 11:1.0 14:1.0 17:1.0 19:1.0 20:1.0 21:1.0 23:1.0 29:1.0 31:1.0 32:1.0 35:1.0 36:0.655249 37:0.272727 38:1.2 39:1.0 63:1.0 
2.0 1:0.093333 3:1.0 4:1.0 5:1.0 6:1.0 11:1.0 14:1.0 17:1.0 19:1.0 20:1.0 21:1.0 23:1.0 29:1.0 31:1.0 32:1.0 35:1.0 36:0.655246 38:1.6 121:1.0 
0.5166690071151862 1:0.178333 2:0.8 3:1.0 4:1.0 5:1.0 6:1.0 11:1.0 14:1.0 17:1.0 19:1.0 20:1.0 21:1.0 23:1.0 29:1.0 31:1.0 32:1.0 36:0.303878 38:1.2 49:1.0 60:1.0 135:1.0 136:1.0 
0.965935891341413 1:0.141667 2:0.6 11:1.0 14:1.0 20:1.0 21:1.0 23:1.0 29:1.0 31:1.0 32:1.0 35:1.0 36:0.303876 37:0.730769 38:1.0 43:1.0 63:1.0 
0.316338224190519 1:0.046667 2:0.2 4:1.0 9:1.0 11:1.0 14:1.0 21:1.0 22:1.0 29:1.0 31:1.0 32:1.0 33:1.0 35:1.0 36:0.65525 37:0.679525 38:1.2 39:1.0 44:1.0 60:1.0 63:1.0 64:1.0 
1.209525187125509 1:0.03 2:0.3 5:1.0 11:1.0 14:1.0 21:1.0 23:1.0 29:1.0 31:1.0 32:1.0 34:1.0 35:1.0 36:0.303877 37:0.5 38:0.9 43:1.0 44:1.0 49:1.0 50:1.0 59:1.0 124:1.0 125:1.0 126:1.0 127:1.0 
1.320077371276331 1:0.02 2:0.3 9:1.0 11:1.0 14:1.0 21:1.0 24:1.0 29:1.0 31:1.0 32:1.0 35:1.0 36:0.65525 37:0.841346 38:0.5 42:1.0 46:1.0 49:1.0 50:1.0 59:1.0 
2.0 1:0.043333 3:1.0 4:1.0 5:1.0 6:1.0 11:1.0 14:1.0 17:1.0 19:1.0 20:1.0 21:1.0 23:1.0 29:1.0 31:1.0 32:1.0 34:1.0 35:1.0 36:0.655246 38:1.1 52:1.0 
0.091603351763379 1:0.246667 2:0.7 11:1.0 14:1.0 21:1.0 23:1.0 29:1.0 31:1.0 32:1.0 36:0.655246 37:0.785714 38:2.6 44:1.0 53:1.0 54:1.0 55:1.0 56:1.0 57:1.0 58:1.0 61:1.0 78:1.0 79:1.0 80:1.0 92:1.0 93:1.0 113:1.0 
2.0 1:0.17 2:0.5 11:1.0 14:1.0 17:1.0 19:1.0 21:1.0 23:1.0 29:1.0 31:1.0 32:1.0 34:1.0 35:1.0 36:0.303877 37:0.25 38:0.4 42:1.0 46:1.0 
0.11662409350976143 1:0.053333 2:0.5 13:1.0 16:1.0 23:1.0 29:1.0 31:1.0 32:1.0 35:1.0 36:0.65525 37:0.89881 38:0.4 43:1.0 
0.06867237264940039 1:0.038333 9:1.0 11:1.0 14:1.0 21:1.0 24:1.0 29:1.0 31:1.0 32:1.0 34:1.0 35:1.0 36:0.303878 37:0.851852 38:0.8 44:1.0 58:1.0 93:1.0 102:1.0 114:1.0 
1.4033585503036439 1:0.02 2:0.2 4:1.0 13:1.0 14:1.0 17:1.0 20:1.0 23:1.0 29:1.0 31:1.0 32:1.0 35:1.0 36:0.303881 37:0.357143 38:0.3 41:1.0 42:1.0 45:1.0 46:1.0 47:1.0 
0.14994664721720308 1:0.031667 2:0.1 11:1.0 14:1.0 21:1.0 23:1.0 29:1.0 32:1.0 35:1.0 36:0.655251 37:0.919192 38:2.6 40:1.0 43:1.0 49:1.0 50:1.0 51:1.0 52:1.0 59:1.0 60:1.0 78:1.0 79:1.0 80:1.0 107:1.0 112:1.0 
2.0 1:0.223333 2:0.8 3:1.0 4:1.0 5:1.0 6:1.0 11:1.0 14:1.0 17:1.0 19:1.0 20:1.0 21:1.0 23:1.0 29:1.0 31:1.0 32:1.0 35:1.0 36:0.303875 38:0.9 43:1.0 52:1.0 53:1.0 75:1.0 120:1.0 123:1.0 139:1.0 150:1.0 151:1.0 
0.17463719072283482 1:0.023333 2:0.1 11:1.0 14:1.0 21:1.0 23:1.0 29:1.0 31:1.0 32:1.0 34:1.0 35:1.0 36:0.655247 37:0.852241 38:1.1 39:1.0 44:1.0 58:1.0 60:1.0 63:1.0 64:1.0 
0.4339356357730244 1:0.116667 2:0.1 13:1.0 14:1.0 21:1.0 23:1.0 29:1.0 31:1.0 32:1.0 34:1.0 35:1.0 36:0.655246 37:0.959912 38:0.6 41:1.0 122:1.0 123:1.0 138:1.0 139:1.0 
0.007970390813769634 1:0.076667 2:0.3 13:1.0 16:1.0 23:1.0 29:1.0 31:1.0 32:1.0 35:1.0 36:0.303876 37:0.878205 38:1.7 43:1.0 63:1.0 68:1.0 69:1.0 70:1.0 
2.0 1:0.316667 2:1.0 5:1.0 6:1.0 9:1.0 11:1.0 14:1.0 17:1.0 19:1.0 20:1.0 21:1.0 24:1.0 29:1.0 31:1.0 32:1.0 35:1.0 36:0.655244 38:1.2 58:1.0 93:1.0 96:1.0 113:1.0 114:1.0 
1.5481250432174827 1:0.141667 2:0.5 9:1.0 11:1.0 14:1.0 21:1.0 24:1.0 29:1.0 31:1.0 32:1.0 35:1.0 36:0.65525 37:0.865741 38:0.6 42:1.0 46:1.0 52:1.0 53:1.0 56:1.0 
0.1706450419032883 1:0.145 2:0.5 11:1.0 16:1.0 23:1.0 29:1.0 31:1.0 32:1.0 35:1.0 36:0.303875 37:0.728571 38:1.7 49:1.0 57:1.0 58:1.0 102:1.0 169:1.0 172:1.0 
1.5330662374515802 1:0.356667 2:0.5 11:1.0 14:1.0 21:1.0 23:1.0 29:1.0 31:1.0 32:1.0 35:1.0 36:0.655243 37:0.872619 38:1.3 44:1.0 58:1.0 88:1.0 89:1.0 90:1.0 93:1.0 108:1.0 114:1.0 147:1.0 148:1.0 149:1.0 163:1.0 
2.0 1:0.145 2:0.5 11:1.0 14:1.0 20:1.0 21:1.0 23:1.0 29:1.0 31:1.0 32:1.0 35:1.0 36:0.30388 37:0.519841 38:0.2 42:1.0 46:1.0 
1.0728263786740435 1:0.003333 4:1.0 9:1.0 11:1.0 14:1.0 21:1.0 22:1.0 29:1.0 31:1.0 32:1.0 33:1.0 34:1.0 35:1.0 36:0.655251 37:0.744246 38:0.5 40:1.0 43:1.0 
2.0 1:0.4 2:0.6 5:1.0 11:1.0 14:1.0 20:1.0 21:1.0 23:1.0 29:1.0 31:1.0 32:1.0 35:1.0 36:0.655246 37:0.698485 38:0.7 88:1.0 89:1.0 90:1.0 
0.1765301485366203 1:0.02 2:0.1 7:1.0 13:1.0 16:1.0 23:1.0 30:1.0 31:1.0 35:1.0 36:0.303876 37:1.0 38:1.0 39:1.0 44:1.0 63:1.0 64:1.0 
0.24562327757143343 1:0.065 2:0.2 9:1.0 11:1.0 16:1.0 24:1.0 29:1.0 31:1.0 32:1.0 35:1.0 36:0.65525 37:0.714286 38:1.0 43:1.0 44:1.0 63:1.0 64:1.0 100:1.0 
0.3012858751150322 1:0.086667 2:0.2 3:1.0 4:1.0 5:1.0 6:1.0 11:1.0 14:1.0 17:1.0 19:1.0 20:1.0 21:1.0 23:1.0 29:1.0 31:1.0 32:1.0 36:0.655243 38:0.6 39:1.0 40:1.0 96:1.0 
2.0 1:0.026667 12:1.0 14:1.0 17:1.0 19:1.0 21:1.0 23:1.0 29:1.0 31:1.0 32:1.0 34:1.0 35:1.0 36:0.303882 37:0.2 38:0.8 44:1.0 
2.0 1:0.01 3:1.0 4:1.0 5:1.0 6:1.0 11:1.0 14:1.0 17:1.0 19:1.0 20:1.0 21:1.0 23:1.0 29:1.0 31:1.0 32:1.0 34:1.0 35:1.0 36:0.303877 38:0.2 39:1.0 
0.4860343820676586 1:0.04 2:0.1 11:1.0 14:1.0 21:1.0 23:1.0 29:1.0 31:1.0 32:1.0 34:1.0 35:1.0 36:0.303877 37:0.844 38:2.2 39:1.0 49:1.0 58:1.0 65:1.0 92:1.0 93:1.0 113:1.0 
2.0 1:0.03 2:0.1 3:1.0 4:1.0 5:1.0 6:1.0 11:1.0 14:1.0 17:1.0 19:1.0 20:1.0 21:1.0 23:1.0 29:1.0 31:1.0 32:1.0 36:0.303878 38:1.0 43:1.0 44:1.0 49:1.0 
0.307657184713133 1:0.036667 2:0.2 4:1.0 9:1.0 11:1.0 14:1.0 21:1.0 22:1.0 29:1.0 31:1.0 32:1.0 33:1.0 35:1.0 36:0.65525 37:0.81746 38:1.1 43:1.0 44:1.0 57:1.0 58:1.0 91:1.0 103:1.0 
2.0 1:0.075 2:0.6 3:1.0 4:1.0 5:1.0 6:1.0 13:1.0 14:1.0 17:1.0 19:1.0 20:1.0 21:1.0 23:1.0 29:1.0 31:1.0 32:1.0 35:1.0 36:0.303876 38:0.4 39:1.0 49:1.0 
0.06591134110683115 1:0.49 2:0.9 11:1.0 16:1.0 23:1.0 29:1.0 31:1.0 32:1.0 35:1.0 36:0.303878 37:0.615385 38:2.5 39:1.0 50:1.0 62:1.0 63:1.0 94:1.0 95:1.0 107:1.0 134:1.0 
1.1937728847393807 1:0.053333 2:0.3 3:1.0 4:1.0 5:1.0 6:1.0 9:1.0 11:1.0 14:1.0 17:1.0 19:1.0 20:1.0 21:1.0 22:1.0 29:1.0 31:1.0 32:1.0 33:1.0 35:1.0 36:0.65525 38:1.6 42:1.0 46:1.0 49:1.0 68:1.0 164:1.0 176:1.0 177:1.0 
1.4199275808212937 1:0.27 2:0.8 11:1.0 14:1.0 21:1.0 23:1.0 29:1.0 31:1.0 32:1.0 35:1.0 36:0.655251 37:0.890888 38:1.9 40:1.0 43:1.0 49:1.0 50:1.0 61:1.0 
1.7110853672445743 2:0.1 11:1.0 14:1.0 21:1.0 23:1.0 29:1.0 31:1.0 32:1.0 34:1.0 35:1.0 36:0.303876 37:0.845651 38:0.2 42:1.0 46:1.0 
2.0 1:0.031667 3:1.0 4:1.0 5:1.0 6:1.0 11:1.0 14:1.0 17:1.0 19:1.0 20:1.0 21:1.0 23:1.0 29:1.0 31:1.0 32:1.0 35:1.0 36:0.303875 38:1.1 
0.41058202156670537 1:0.235 2:1.0 11:1.0 16:1.0 20:1.0 23:1.0 29:1.0 31:1.0 32:1.0 35:1.0 36:0.30388 37:0.818681 38:1.2 40:1.0 43:1.0 63:1.0 71:1.0 72:1.0 
0.31569046052276123 1:0.038333 13:1.0 16:1.0 21:1.0 23:1.0 29:1.0 31:1.0 32:1.0 35:1.0 36:0.303876 37:1.0 38:1.4 58:1.0 78:1.0 79:1.0 80:1.0 93:1.0 95:1.0 108:1.0 113:1.0 114:1.0 147:1.0 148:1.0 149:1.0 
0.6889240241620254 1:0.066667 2:0.1 5:1.0 11:1.0 14:1.0 20:1.0 21:1.0 23:1.0 29:1.0 31:1.0 32:1.0 35:1.0 36:0.30388 37:0.382784 38:2.2 40:1.0 41:1.0 45:1.0 49:1.0 65:1.0 78:1.0 80:1.0 
1.9794672565045266 1:0.016667 4:1.0 11:1.0 14:1.0 17:1.0 20:1.0 21:1.0 23:1.0 29:1.0 31:1.0 32:1.0 34:1.0 35:1.0 36:0.655246 37:0.509402 38:0.4 
0.2222699749069629 1:0.001667 4:1.0 9:1.0 11:1.0 14:1.0 21:1.0 22:1.0 29:1.0 31:1.0 32:1.0 33:1.0 34:1.0 35:1.0 36:0.65525 37:0.415584 38:0.4 43:1.0 52:1.0 
0.3897237331394421 1:0.073333 2:0.2 11:1.0 14:1.0 21:1.0 23:1.0 29:1.0 31:1.0 32:1.0 35:1.0 36:0.30388 37:0.777778 38:2.1 44:1.0 49:1.0 50:1.0 57:1.0 58:1.0 59:1.0 92:1.0 93:1.0 113:1.0 
0.656123748507849 1:0.178333 2:0.4 11:1.0 14:1.0 21:1.0 23:1.0 29:1.0 31:1.0 32:1.0 36:0.655246 37:0.863636 38:1.1 43:1.0 52:1.0 82:1.0 91:1.0 
2.0 1:0.143333 2:0.5 3:1.0 4:1.0 5:1.0 6:1.0 11:1.0 14:1.0 17:1.0 19:1.0 20:1.0 21:1.0 23:1.0 29:1.0 31:1.0 32:1.0 35:1.0 36:0.303876 38:2.6 49:1.0 50:1.0 52:1.0 58:1.0 59:1.0 93:1.0 95:1.0 113:1.0 
2.0 1:0.023333 6:1.0 9:1.0 11:1.0 14:1.0 17:1.0 19:1.0 20:1.0 21:1.0 24:1.0 29:1.0 31:1.0 32:1.0 34:1.0 36:0.65525 38:0.2 
2.0 1:0.178333 2:0.3 11:1.0 14:1.0 20:1.0 21:1.0 23:1.0 29:1.0 31:1.0 32:1.0 35:1.0 36:0.655251 37:0.494732 38:0.7 43:1.0 44:1.0 98:1.0 142:1.0 153:1.0 
1.7183538141635795 1:0.066667 2:0.2 3:1.0 4:1.0 5:1.0 6:1.0 13:1.0 14:1.0 17:1.0 19:1.0 20:1.0 21:1.0 23:1.0 29:1.0 31:1.0 32:1.0 36:0.303878 38:0.6 41:1.0 56:1.0 111:1.0 
0.47576741331235833 1:0.21 3:1.0 4:1.0 5:1.0 6:1.0 11:1.0 14:1.0 17:1.0 19:1.0 20:1.0 21:1.0 23:1.0 29:1.0 31:1.0 32:1.0 35:1.0 36:0.655246 38:2.8 44:1.0 121:1.0 
2.0 1:0.15 2:0.4 11:1.0 14:1.0 17:1.0 19:1.0 20:1.0 21:1.0 23:1.0 29:1.0 31:1.0 32:1.0 35:1.0 36:0.303876 37:0.387097 38:1.8 43:1.0 49:1.0 78:1.0 79:1.0 
1.6619872484640883 1:0.048333 2:0.1 9:1.0 11:1.0 14:1.0 21:1.0 24:1.0 29:1.0 31:1.0 32:1.0 34:1.0 35:1.0 36:0.65525 37:0.929825 38:0.9 86:1.0 91:1.0 95:1.0 
0.22476730534726477 1:0.258333 2:0.7 11:1.0 16:1.0 21:1.0 23:1.0 29:1.0 31:1.0 32:1.0 35:1.0 36:0.303876 37:0.895238 38:1.6 41:1.0 45:1.0 58:1.0 60:1.0 63:1.0 64:1.0 78:1.0 79:1.0 80:1.0 93:1.0 95:1.0 108:1.0 113:1.0 114:1.0 147:1.0 148:1.0 149:1.0 
0.9288568533471756 1:0.116667 2:0.2 13:1.0 14:1.0 21:1.0 23:1.0 29:1.0 31:1.0 32:1.0 34:1.0 35:1.0 36:0.30388 37:0.791667 38:1.1 41:1.0 44:1.0 63:1.0 64:1.0 
1.5071412612170616 1:0.021667 2:0.1 4:1.0 10:1.0 11:1.0 16:1.0 23:1.0 29:1.0 31:1.0 32:1.0 35:1.0 36:0.655246 37:0.946429 38:1.2 43:1.0 44:1.0 58:1.0 63:1.0 64:1.0 92:1.0 93:1.0 
1.6098000049309258 1:0.03 2:0.2 9:1.0 11:1.0 14:1.0 19:1.0 20:1.0 21:1.0 24:1.0 29:1.0 31:1.0 32:1.0 36:0.655251 37:0.25 38:1.1 49:1.0 50:1.0 59:1.0 60:1.0 
0.7402172651415396 1:0.015 12:1.0 14:1.0 21:1.0 23:1.0 29:1.0 32:1.0 34:1.0 35:1.0 36:0.65525 37:0.856429 38:0.9 39:1.0 65:1.0 
2.0 1:0.035 2:0.3 3:1.0 4:1.0 5:1.0 6:1.0 11:1.0 14:1.0 17:1.0 19:1.0 20:1.0 21:1.0 23:1.0 29:1.0 31:1.0 32:1.0 34:1.0 36:0.303878 38:0.7 85:1.0 88:1.0 89:1.0 90:1.0 122:1.0 123:1.0 137:1.0 138:1.0 139:1.0 
0.39445788232254037 1:0.208333 2:1.0 11:1.0 14:1.0 20:1.0 21:1.0 23:1.0 29:1.0 32:1.0 36:0.303882 37:0.555285 38:0.5 44:1.0 56:1.0 
0.7069057502828159 1:0.223333 2:0.6 4:1.0 10:1.0 13:1.0 16:1.0 23:1.0 29:1.0 31:1.0 32:1.0 35:1.0 36:0.655244 37:1.0 38:0.5 41:1.0 44:1.0 45:1.0 
0.013698494658449887 1:0.116667 2:0.5 13:1.0 16:1.0 23:1.0 29:1.0 31:1.0 32:1.0 35:1.0 36:0.30388 38:0.9 49:1.0 50:1.0 59:1.0 
2.0 1:0.065 2:0.4 5:1.0 13:1.0 14:1.0 17:1.0 21:1.0 23:1.0 29:1.0 31:1.0 32:1.0 35:1.0 36:0.303876 37:0.519231 38:0.4 
1.0115701984626955 1:0.008333 2:0.1 13:1.0 14:1.0 23:1.0 29:1.0 31:1.0 32:1.0 34:1.0 35:1.0 36:0.303876 37:0.682963 38:0.7 39:1.0 40:1.0 71:1.0 
0.3377563990147931 1:0.236667 2:0.4 13:1.0 14:1.0 21:1.0 23:1.0 29:1.0 31:1.0 32:1.0 34:1.0 35:1.0 36:0.655246 37:1.0 38:1.3 40:1.0 53:1.0 55:1.0 56:1.0 
1.3134255221566242 1:0.551667 2:0.6 5:1.0 9:1.0 11:1.0 14:1.0 20:1.0 21:1.0 24:1.0 29:1.0 31:1.0 32:1.0 35:1.0 36:0.65525 37:0.366667 38:0.5 40:1.0 
0.40704705781613293 1:0.111667 2:0.7 11:1.0 14:1.0 21:1.0 23:1.0 29:1.0 31:1.0 32:1.0 35:1.0 36:0.303876 37:0.583333 38:1.0 50:1.0 62:1.0 63:1.0 64:1.0 94:1.0 95:1.0 
0.5132598899247988 1:0.126667 2:0.5 11:1.0 14:1.0 21:1.0 23:1.0 29:1.0 32:1.0 36:0.65525 37:0.961538 38:0.9 44:1.0 58:1.0 91:1.0 93:1.0 95:1.0 
1.904951212993965 1:0.473333 2:0.7 5:1.0 9:1.0 11:1.0 14:1.0 17:1.0 20:1.0 21:1.0 24:1.0 29:1.0 31:1.0 32:1.0 35:1.0 36:0.303879 37:0.321429 38:0.3 89:1.0 
2.0 1:0.008333 13:1.0 16:1.0 23:1.0 29:1.0 31:1.0 32:1.0 35:1.0 36:0.655243 37:1.0 38:0.5 40:1.0 41:1.0 45:1.0 
0.24026881273249853 1:0.111667 2:0.5 11:1.0 14:1.0 21:1.0 23:1.0 29:1.0 31:1.0 32:1.0 35:1.0 36:0.655247 37:0.940476 38:1.6 43:1.0 44:1.0 49:1.0 62:1.0 94:1.0 95:1.0 
2.0 1:0.216667 2:0.5 11:1.0 14:1.0 17:1.0 20:1.0 21:1.0 23:1.0 29:1.0 31:1.0 32:1.0 35:1.0 36:0.655246 37:0.229529 38:2.1 43:1.0 63:1.0 
2.0 1:0.191667 2:0.9 9:1.0 11:1.0 14:1.0 21:1.0 24:1.0 29:1.0 31:1.0 32:1.0 35:1.0 36:0.65525 37:0.571429 38:0.3 42:1.0 46:1.0 56:1.0 
2.0 1:0.03 2:0.2 11:1.0 14:1.0 19:1.0 20:1.0 21:1.0 23:1.0 29:1.0 31:1.0 32:1.0 35:1.0 36:0.303878 37:0.1875 38:0.8 
0.019189367712876545 1:0.155 2:0.3 13:1.0 14:1.0 21:1.0 23:1.0 29:1.0 31:1.0 32:1.0 35:1.0 36:0.303876 37:1.0 38:2.2 42:1.0 63:1.0 176:1.0 177:1.0 
2.0 1:0.035 2:0.2 11:1.0 14:1.0 17:1.0 19:1.0 20:1.0 21:1.0 23:1.0 29:1.0 31:1.0 32:1.0 34:1.0 36:0.30388 38:0.2 
2.0 1:0.378333 2:0.6 4:1.0 11:1.0 14:1.0 17:1.0 19:1.0 21:1.0 23:1.0 29:1.0 31:1.0 32:1.0 36:0.655246 37:0.285714 38:1.6 40:1.0 86:1.0 87:1.0 90:1.0 98:1.0 99:1.0 
0.03847745948709865 1:0.005 2:0.1 12:1.0 14:1.0 21:1.0 24:1.0 29:1.0 31:1.0 32:1.0 33:1.0 34:1.0 35:1.0 36:0.655246 37:0.799465 38:0.4 41:1.0 45:1.0 67:1.0 
0.6984435294006422 1:0.14 2:0.6 11:1.0 14:1.0 20:1.0 21:1.0 23:1.0 29:1.0 31:1.0 32:1.0 36:0.303876 37:0.347902 38:1.0 43:1.0 63:1.0 
0.4770460117874203 2:0.1 11:1.0 14:1.0 20:1.0 21:1.0 23:1.0 29:1.0 31:1.0 32:1.0 34:1.0 35:1.0 36:0.655243 37:0.804594 38:0.1 
1.5668606400065364 1:0.345 2:0.9 11:1.0 14:1.0 19:1.0 20:1.0 21:1.0 23:1.0 29:1.0 31:1.0 32:1.0 36:0.303875 37:0.75 38:1.2 44:1.0 51:1.0 67:1.0 104:1.0 
0.7850380796906206 1:0.15 2:0.1 3:1.0 4:1.0 5:1.0 6:1.0 11:1.0 14:1.0 17:1.0 19:1.0 20:1.0 21:1.0 23:1.0 29:1.0 31:1.0 32:1.0 36:0.303878 38:1.4 57:1.0 58:1.0 75:1.0 101:1.0 108:1.0 148:1.0 
2.0 1:0.183333 2:0.7 11:1.0 14:1.0 19:1.0 20:1.0 21:1.0 24:1.0 29:1.0 31:1.0 32:1.0 33:1.0 36:0.303875 37:0.366667 38:1.1 43:1.0 49:1.0 50:1.0 52:1.0 
0.02836905398768862 1:0.061667 2:0.1 7:1.0 11:1.0 16:1.0 23:1.0 30:1.0 31:1.0 35:1.0 36:0.30388 37:1.0 38:1.9 41:1.0 44:1.0 45:1.0 57:1.0 58:1.0 92:1.0 93:1.0 113:1.0 
1.4448598136688477 1:0.075 2:0.3 11:1.0 14:1.0 19:1.0 20:1.0 21:1.0 23:1.0 29:1.0 31:1.0 32:1.0 35:1.0 36:0.30388 37:0.862069 38:1.4 40:1.0 50:1.0 63:1.0 64:1.0 
2.0 1:0.001667 2:0.1 11:1.0 14:1.0 20:1.0 21:1.0 23:1.0 29:1.0 31:1.0 32:1.0 34:1.0 35:1.0 36:0.655243 37:0.282609 38:0.3 39:1.0 49:1.0 
0.40354738600564427 1:0.08 2:0.2 7:1.0 11:1.0 16:1.0 23:1.0 30:1.0 31:1.0 35:1.0 36:0.303878 37:1.0 38:1.3 41:1.0 45:1.0 63:1.0 100:1.0 
2.0 1:0.171667 2:0.5 5:1.0 11:1.0 14:1.0 17:1.0 20:1.0 21:1.0 23:1.0 29:1.0 31:1.0 32:1.0 36:0.303878 37:0.285338 38:1.5 96:1.0 125:1.0 
0.4149219120408599 1:0.205 2:0.8 11:1.0 14:1.0 21:1.0 23:1.0 29:1.0 31:1.0 32:1.0 35:1.0 36:0.655247 37:0.80814 38:0.8 100:1.0 
2.0 1:0.12 2:0.8 3:1.0 4:1.0 5:1.0 6:1.0 11:1.0 14:1.0 17:1.0 19:1.0 20:1.0 21:1.0 23:1.0 29:1.0 31:1.0 32:1.0 35:1.0 36:0.303878 38:1.2 43:1.0 50:1.0 51:1.0 52:1.0 
1.1992840238605416 1:0.001667 11:1.0 14:1.0 21:1.0 24:1.0 29:1.0 31:1.0 32:1.0 33:1.0 34:1.0 35:1.0 36:0.655247 37:0.970588 38:0.3 40:1.0 41:1.0 45:1.0 
2.0 1:0.023333 2:0.1 11:1.0 14:1.0 19:1.0 20:1.0 21:1.0 23:1.0 29:1.0 31:1.0 32:1.0 34:1.0 35:1.0 36:0.30388 37:0.25 38:0.7 
2.0 1:0.12 2:0.4 3:1.0 4:1.0 5:1.0 6:1.0 11:1.0 14:1.0 17:1.0 19:1.0 20:1.0 21:1.0 23:1.0 29:1.0 32:1.0 35:1.0 36:0.655251 38:3.3 43:1.0 44:1.0 50:1.0 102:1.0 104:1.0 115:1.0 116:1.0 118:1.0 152:1.0 170:1.0 171:1.0 178:1.0 198:1.0 
2.0 1:0.085 3:1.0 4:1.0 5:1.0 6:1.0 11:1.0 14:1.0 17:1.0 19:1.0 20:1.0 21:1.0 23:1.0 29:1.0 31:1.0 32:1.0 34:1.0 35:1.0 36:0.655249 38:0.6 
0.4706337612136544 1:0.115 2:1.0 3:1.0 4:1.0 5:1.0 6:1.0 11:1.0 14:1.0 17:1.0 19:1.0 20:1.0 21:1.0 23:1.0 29:1.0 31:1.0 32:1.0 36:0.303875 38:0.6 49:1.0 50:1.0 51:1.0 
2.0 1:0.115 2:0.9 3:1.0 4:1.0 5:1.0 6:1.0 11:1.0 14:1.0 17:1.0 19:1.0 20:1.0 21:1.0 23:1.0 29:1.0 31:1.0 32:1.0 34:1.0 35:1.0 36:0.303877 38:1.0 44:1.0 49:1.0 60:1.0 68:1.0 128:1.0 129:1.0 130:1.0 164:1.0 
0.10603198646705404 1:0.013333 7:1.0 11:1.0 16:1.0 23:1.0 30:1.0 35:1.0 36:0.354114 37:1.0 38:1.0 41:1.0 45:1.0 62:1.0 
0.5330473894894913 1:0.226667 2:0.9 11:1.0 14:1.0 21:1.0 23:1.0 29:1.0 31:1.0 32:1.0 35:1.0 36:0.303878 37:0.795455 38:1.3 104:1.0 170:1.0 171:1.0 
2.0 1:0.035 2:0.2 3:1.0 4:1.0 5:1.0 6:1.0 11:1.0 14:1.0 17:1.0 19:1.0 20:1.0 21:1.0 23:1.0 29:1.0 31:1.0 32:1.0 34:1.0 36:0.303879 38:0.3 
0.9643081523275391 1:0.031667 2:0.1 9:1.0 12:1.0 14:1.0 17:1.0 21:1.0 24:1.0 29:1.0 31:1.0 32:1.0 35:1.0 36:0.655249 37:0.316923 38:2.6 44:1.0 49:1.0 50:1.0 51:1.0 52:1.0 57:1.0 58:1.0 162:1.0 
2.0 1:0.153333 2:0.9 11:1.0 14:1.0 19:1.0 20:1.0 21:1.0 23:1.0 29:1.0 31:1.0 32:1.0 35:1.0 36:0.655243 37:0.333333 38:0.5 54:1.0 56:1.0 
0.1130252795778574 1:0.015 12:1.0 14:1.0 20:1.0 21:1.0 23:1.0 29:1.0 31:1.0 32:1.0 34:1.0 36:0.655246 37:0.933333 38:0.3 
2.0 1:0.08 11:1.0 14:1.0 19:1.0 20:1.0 21:1.0 23:1.0 29:1.0 31:1.0 32:1.0 34:1.0 36:0.655247 37:0.897059 38:0.8 
2.0 1:0.343333 2:1.0 3:1.0 4:1.0 5:1.0 6:1.0 11:1.0 14:1.0 17:1.0 19:1.0 20:1.0 21:1.0 23:1.0 29:1.0 31:1.0 32:1.0 36:0.303878 38:1.9 49:1.0 57:1.0 58:1.0 61:1.0 
0.6030718452868556 1:0.035 2:0.2 5:1.0 11:1.0 14:1.0 21:1.0 23:1.0 29:1.0 31:1.0 32:1.0 34:1.0 35:1.0 36:0.303877 37:0.5 38:0.8 43:1.0 44:1.0 49:1.0 128:1.0 129:1.0 130:1.0 
0.5149032574130346 1:0.251667 2:0.9 11:1.0 14:1.0 21:1.0 23:1.0 29:1.0 31:1.0 32:1.0 35:1.0 36:0.655247 37:0.823529 38:2.0 40:1.0 43:1.0 49:1.0 65:1.0 
1.2119081331579875 1:0.091667 2:0.2 11:1.0 14:1.0 21:1.0 23:1.0 29:1.0 31:1.0 32:1.0 36:0.303877 37:0.641807 38:2.4 39:1.0 44:1.0 49:1.0 65:1.0 
0.37395220698799303 1:0.013333 2:0.1 11:1.0 14:1.0 21:1.0 23:1.0 29:1.0 31:1.0 32:1.0 34:1.0 35:1.0 36:0.655243 37:0.902174 38:1.0 43:1.0 44:1.0 57:1.0 58:1.0 98:1.0 99:1.0 142:1.0 153:1.0 
0.43579126178052485 1:0.003333 2:0.1 11:1.0 14:1.0 21:1.0 23:1.0 29:1.0 32:1.0 34:1.0 35:1.0 36:0.655249 37:0.792627 38:1.2 40:1.0 43:1.0 49:1.0 52:1.0 
0.20132677259511317 1:0.006667 11:1.0 14:1.0 21:1.0 23:1.0 29:1.0 31:1.0 32:1.0 34:1.0 35:1.0 36:0.655247 37:0.444444 38:0.7 43:1.0 44:1.0 
2.0 1:0.09 2:0.2 3:1.0 4:1.0 5:1.0 6:1.0 11:1.0 14:1.0 17:1.0 19:1.0 20:1.0 21:1.0 23:1.0 29:1.0 31:1.0 32:1.0 36:0.655252 38:1.3 43:1.0 60:1.0 63:1.0 64:1.0 
2.0 1:0.228333 2:0.9 3:1.0 4:1.0 5:1.0 6:1.0 11:1.0 14:1.0 17:1.0 19:1.0 20:1.0 21:1.0 23:1.0 29:1.0 31:1.0 32:1.0 36:0.303875 38:1.1 54:1.0 56:1.0 
2.0 1:0.068333 2:0.3 11:1.0 14:1.0 17:1.0 21:1.0 24:1.0 29:1.0 31:1.0 32:1.0 33:1.0 36:0.655246 37:0.647143 38:0.9 43:1.0 49:1.0 50:1.0 52:1.0 
0.6694548550396865 1:0.185 2:0.8 11:1.0 14:1.0 19:1.0 20:1.0 21:1.0 23:1.0 29:1.0 31:1.0 32:1.0 36:0.655252 37:0.735294 38:1.1 40:1.0 49:1.0 
0.42080299051325193 1:0.031667 11:1.0 14:1.0 21:1.0 23:1.0 29:1.0 32:1.0 34:1.0 35:1.0 36:0.303876 37:0.847042 38:1.5 43:1.0 44:1.0 58:1.0 93:1.0 95:1.0 
0.8183835563344686 1:0.396667 2:0.6 11:1.0 14:1.0 21:1.0 23:1.0 29:1.0 31:1.0 32:1.0 36:0.303875 37:0.873869 38:1.6 44:1.0 50:1.0 58:1.0 63:1.0 92:1.0 93:1.0 
2.0 1:0.093333 2:0.4 3:1.0 4:1.0 5:1.0 6:1.0 11:1.0 14:1.0 17:1.0 19:1.0 20:1.0 21:1.0 23:1.0 29:1.0 31:1.0 32:1.0 34:1.0 36:0.303875 38:1.4 56:1.0 
2.0 1:0.113333 2:0.4 5:1.0 11:1.0 14:1.0 20:1.0 21:1.0 23:1.0 29:1.0 31:1.0 32:1.0 35:1.0 36:0.655246 37:0.803711 38:1.9 43:1.0 44:1.0 49:1.0 52:1.0 60:1.0 97:1.0 102:1.0 
0.9824465295086964 1:0.06 2:0.4 13:1.0 16:1.0 23:1.0 29:1.0 31:1.0 32:1.0 35:1.0 36:0.655246 37:1.0 38:0.6 43:1.0 49:1.0 50:1.0 
2.0 1:0.061667 2:0.2 6:1.0 11:1.0 14:1.0 17:1.0 19:1.0 20:1.0 21:1.0 24:1.0 29:1.0 31:1.0 32:1.0 33:1.0 35:1.0 36:0.30388 38:0.6 41:1.0 44:1.0 45:1.0 
1.6696456069007835 1:0.04 2:0.1 11:1.0 14:1.0 17:1.0 19:1.0 20:1.0 21:1.0 23:1.0 29:1.0 31:1.0 32:1.0 35:1.0 36:0.30388 37:0.75 38:0.7 63:1.0 67:1.0 134:1.0 
0.2785124119438673 1:0.023333 2:0.2 11:1.0 16:1.0 23:1.0 29:1.0 31:1.0 32:1.0 35:1.0 36:0.655247 37:0.785714 38:0.6 43:1.0 49:1.0 
2.0 1:0.036667 2:0.1 11:1.0 14:1.0 17:1.0 20:1.0 21:1.0 23:1.0 29:1.0 32:1.0 35:1.0 36:0.303879 37:0.67619 38:1.0 44:1.0 53:1.0 54:1.0 55:1.0 56:1.0 
0.6684400667479967 1:0.03 11:1.0 14:1.0 21:1.0 23:1.0 29:1.0 32:1.0 34:1.0 36:0.303876 37:0.97619 38:0.9 40:1.0 52:1.0 82:1.0 87:1.0 90:1.0 157:1.0 173:1.0 183:1.0 
2.0 1:0.19 2:0.6 11:1.0 14:1.0 17:1.0 19:1.0 20:1.0 21:1.0 23:1.0 29:1.0 32:1.0 34:1.0 35:1.0 36:0.655252 37:0.033333 38:0.7 40:1.0 63:1.0 64:1.0 
0.20177908121761096 1:0.415 2:0.9 11:1.0 14:1.0 21:1.0 23:1.0 29:1.0 31:1.0 32:1.0 35:1.0 36:0.655247 37:0.850108 38:1.0 39:1.0 49:1.0 84:1.0 123:1.0 139:1.0 159:1.0 
2.0 1:0.041667 2:0.2 11:1.0 14:1.0 17:1.0 19:1.0 20:1.0 21:1.0 23:1.0 29:1.0 31:1.0 32:1.0 35:1.0 36:0.30388 38:1.2 40:1.0 49:1.0 71:1.0 72:1.0 
2.0 1:0.036667 2:0.1 6:1.0 11:1.0 14:1.0 17:1.0 19:1.0 20:1.0 21:1.0 24:1.0 29:1.0 31:1.0 32:1.0 33:1.0 34:1.0 35:1.0 36:0.655243 38:0.6 41:1.0 44:1.0 45:1.0 124:1.0 125:1.0 126:1.0 127:1.0 
1.335939906454971 1:0.471667 2:0.8 4:1.0 5:1.0 9:1.0 11:1.0 14:1.0 17:1.0 20:1.0 21:1.0 22:1.0 29:1.0 31:1.0 32:1.0 33:1.0 35:1.0 36:0.303879 37:0.321429 38:1.8 50:1.0 63:1.0 107:1.0 134:1.0 
0.20130478663971213 1:0.001667 9:1.0 11:1.0 14:1.0 21:1.0 24:1.0 29:1.0 31:1.0 32:1.0 34:1.0 35:1.0 36:0.655246 37:0.856144 38:0.3 43:1.0 44:1.0 
0.47637199799414326 1:0.39 2:0.6 11:1.0 14:1.0 21:1.0 23:1.0 29:1.0 31:1.0 32:1.0 36:0.655246 37:1.0 38:1.5 40:1.0 87:1.0 90:1.0 98:1.0 99:1.0 
1.2665685849711752 1:0.126667 2:0.4 4:1.0 5:1.0 9:1.0 11:1.0 14:1.0 19:1.0 20:1.0 21:1.0 22:1.0 29:1.0 31:1.0 32:1.0 33:1.0 35:1.0 36:0.65525 37:0.928571 38:0.9 41:1.0 45:1.0 49:1.0 95:1.0 
0.16528687959133814 1:0.028333 2:0.1 12:1.0 14:1.0 21:1.0 23:1.0 29:1.0 31:1.0 32:1.0 35:1.0 36:0.655246 37:0.857143 38:0.5 42:1.0 46:1.0 122:1.0 123:1.0 
0.06215453990918949 1:0.268333 2:0.8 13:1.0 14:1.0 21:1.0 23:1.0 29:1.0 32:1.0 35:1.0 36:0.655244 37:0.859708 38:0.7 41:1.0 45:1.0 63:1.0 98:1.0 
0.13662191349485364 1:0.203333 2:0.5 7:1.0 11:1.0 16:1.0 23:1.0 30:1.0 31:1.0 35:1.0 36:0.655247 37:1.0 38:2.2 39:1.0 49:1.0 50:1.0 59:1.0 69:1.0 76:1.0 100:1.0 105:1.0 107:1.0 109:1.0 
1.0258433955944317 1:0.053333 2:0.1 11:1.0 14:1.0 21:1.0 23:1.0 29:1.0 31:1.0 32:1.0 35:1.0 36:0.30388 37:0.785714 38:1.6 43:1.0 56:1.0 57:1.0 58:1.0 93:1.0 95:1.0 111:1.0 112:1.0 113:1.0 160:1.0 
0.31376229782815385 1:0.138333 2:0.2 9:1.0 13:1.0 14:1.0 21:1.0 24:1.0 29:1.0 31:1.0 32:1.0 35:1.0 36:0.354152 37:0.839286 38:0.8 42:1.0 46:1.0 52:1.0 82:1.0 87:1.0 88:1.0 89:1.0 90:1.0 183:1.0 
1.7877796835533397 1:0.318333 2:1.0 3:1.0 4:1.0 5:1.0 6:1.0 11:1.0 14:1.0 17:1.0 19:1.0 20:1.0 21:1.0 23:1.0 29:1.0 31:1.0 32:1.0 34:1.0 36:0.303878 38:0.9 53:1.0 75:1.0 119:1.0 120:1.0 
1.2802349774025874 1:0.13 2:0.8 11:1.0 14:1.0 19:1.0 20:1.0 21:1.0 23:1.0 29:1.0 31:1.0 32:1.0 36:0.303875 37:0.839286 38:0.9 44:1.0 50:1.0 56:1.0 118:1.0 
2.0 1:0.011667 2:0.1 9:1.0 11:1.0 14:1.0 24:1.0 29:1.0 31:1.0 32:1.0 34:1.0 35:1.0 36:0.65525 37:1.0 38:0.9 46:1.0 50:1.0 
0.33499572325867416 1:0.128333 2:0.7 5:1.0 11:1.0 14:1.0 20:1.0 21:1.0 23:1.0 29:1.0 31:1.0 32:1.0 35:1.0 36:0.655246 37:0.422222 38:0.3 74:1.0 
0.2018328127644994 1:0.141667 2:0.4 11:1.0 14:1.0 21:1.0 23:1.0 29:1.0 32:1.0 35:1.0 36:0.655246 37:0.915375 38:2.9 43:1.0 49:1.0 65:1.0 100:1.0 166:1.0 
2.0 1:0.06 2:0.2 3:1.0 4:1.0 5:1.0 6:1.0 11:1.0 14:1.0 17:1.0 19:1.0 20:1.0 21:1.0 23:1.0 29:1.0 31:1.0 32:1.0 34:1.0 35:1.0 36:0.655251 38:0.8 85:1.0 88:1.0 89:1.0 90:1.0 122:1.0 123:1.0 137:1.0 
0.7869388211411312 1:0.151667 2:0.5 13:1.0 14:1.0 21:1.0 23:1.0 29:1.0 32:1.0 34:1.0 35:1.0 36:0.655246 37:0.817254 38:1.6 44:1.0 86:1.0 91:1.0 108:1.0 
0.2647764387112512 1:0.065 2:0.4 11:1.0 14:1.0 21:1.0 23:1.0 29:1.0 32:1.0 34:1.0 35:1.0 36:0.655246 37:0.823529 38:0.7 40:1.0 43:1.0 49:1.0 
2.0 1:0.035 11:1.0 14:1.0 19:1.0 20:1.0 21:1.0 23:1.0 29:1.0 31:1.0 32:1.0 34:1.0 35:1.0 36:0.655243 37:0.25 38:0.9 41:1.0 45:1.0 76:1.0 
0.3358727697905571 1:0.088333 2:0.1 11:1.0 14:1.0 20:1.0 23:1.0 29:1.0 32:1.0 35:1.0 36:0.65525 37:0.795238 38:3.1 43:1.0 50:1.0 56:1.0 
2.0 1:0.025 9:1.0 11:1.0 14:1.0 21:1.0 24:1.0 29:1.0 31:1.0 32:1.0 34:1.0 35:1.0 36:0.65525 37:0.970588 38:0.6 44:1.0 90:1.0 141:1.0 157:1.0 173:1.0 
0.5836057367480529 1:0.046667 2:0.3 11:1.0 14:1.0 21:1.0 23:1.0 29:1.0 31:1.0 32:1.0 34:1.0 35:1.0 36:0.655247 37:0.671429 38:1.9 43:1.0 49:1.0 57:1.0 58:1.0 61:1.0 65:1.0 92:1.0 93:1.0 113:1.0 
2.0 1:0.008333 2:0.1 3:1.0 4:1.0 5:1.0 6:1.0 11:1.0 14:1.0 17:1.0 19:1.0 20:1.0 21:1.0 23:1.0 29:1.0 31:1.0 32:1.0 34:1.0 35:1.0 36:0.30388 38:0.1 
2.0 1:0.06 2:0.1 3:1.0 4:1.0 5:1.0 6:1.0 11:1.0 14:1.0 17:1.0 19:1.0 20:1.0 21:1.0 23:1.0 29:1.0 31:1.0 32:1.0 34:1.0 35:1.0 36:0.655251 38:0.7 85:1.0 88:1.0 89:1.0 90:1.0 122:1.0 123:1.0 137:1.0 138:1.0 139:1.0 
0.15534478876964786 1:0.065 2:0.3 11:1.0 14:1.0 23:1.0 29:1.0 31:1.0 32:1.0 34:1.0 35:1.0 36:0.303877 37:0.985437 38:2.5 40:1.0 43:1.0 49:1.0 50:1.0 65:1.0 107:1.0 
0.38343689921419405 1:0.128333 2:0.5 11:1.0 14:1.0 21:1.0 23:1.0 29:1.0 31:1.0 32:1.0 34:1.0 35:1.0 36:0.655247 37:0.898046 38:1.2 43:1.0 44:1.0 49:1.0 60:1.0 
2.0 1:0.243333 2:0.9 3:1.0 4:1.0 5:1.0 6:1.0 11:1.0 14:1.0 17:1.0 19:1.0 20:1.0 21:1.0 23:1.0 29:1.0 31:1.0 32:1.0 35:1.0 36:0.655246 38:0.9 49:1.0 
1.69988396935311 1:0.001667 2:0.1 11:1.0 14:1.0 21:1.0 23:1.0 29:1.0 31:1.0 32:1.0 34:1.0 35:1.0 36:0.655246 37:0.868671 38:0.4 39:1.0 42:1.0 46:1.0 49:1.0 
0.16135738834109994 1:0.336667 2:1.0 12:1.0 14:1.0 21:1.0 23:1.0 29:1.0 32:1.0 35:1.0 36:0.655251 37:0.904762 38:3.2 43:1.0 44:1.0 49:1.0 61:1.0 128:1.0 130:1.0 132:1.0 
0.29582681341230843 1:0.065 2:0.1 13:1.0 16:1.0 21:1.0 23:1.0 29:1.0 31:1.0 32:1.0 35:1.0 36:0.30388 37:1.0 38:1.1 41:1.0 44:1.0 45:1.0 57:1.0 58:1.0 93:1.0 95:1.0 113:1.0 
2.0 1:0.146667 2:0.5 5:1.0 11:1.0 14:1.0 17:1.0 20:1.0 21:1.0 23:1.0 29:1.0 31:1.0 32:1.0 35:1.0 36:0.303876 37:0.511957 38:0.5 
1.909651194733544 1:0.021667 2:0.1 11:1.0 14:1.0 21:1.0 23:1.0 29:1.0 31:1.0 32:1.0 34:1.0 35:1.0 36:0.303876 37:0.699909 38:1.7 43:1.0 49:1.0 65:1.0 
0.005094879553124515 1:0.061667 2:0.2 3:1.0 4:1.0 5:1.0 6:1.0 13:1.0 14:1.0 17:1.0 19:1.0 20:1.0 21:1.0 23:1.0 29:1.0 31:1.0 32:1.0 36:0.303881 38:0.9 48:1.0 73:1.0 83:1.0 86:1.0 140:1.0 
2.0 1:0.291667 2:0.5 11:1.0 14:1.0 17:1.0 21:1.0 23:1.0 29:1.0 31:1.0 32:1.0 34:1.0 36:0.655249 37:0.665273 38:1.1 43:1.0 49:1.0 67:1.0 
0.7944858054199113 1:0.013333 12:1.0 14:1.0 17:1.0 19:1.0 21:1.0 24:1.0 29:1.0 31:1.0 32:1.0 33:1.0 34:1.0 35:1.0 36:0.30388 37:0.7 38:1.1 40:1.0 43:1.0 58:1.0 92:1.0 93:1.0 
0.4570914128155599 1:0.131667 2:0.4 11:1.0 14:1.0 21:1.0 23:1.0 29:1.0 31:1.0 32:1.0 35:1.0 36:0.655246 37:1.0 38:1.1 43:1.0 52:1.0 85:1.0 86:1.0 87:1.0 88:1.0 89:1.0 90:1.0 122:1.0 123:1.0 137:1.0 138:1.0 139:1.0 
0.17373805394349026 1:0.116667 2:0.2 4:1.0 11:1.0 14:1.0 20:1.0 21:1.0 23:1.0 29:1.0 31:1.0 32:1.0 34:1.0 36:0.655246 37:0.322222 38:0.7 53:1.0 56:1.0 111:1.0 
0.6381406452214887 1:0.011667 2:0.1 13:1.0 16:1.0 23:1.0 29:1.0 31:1.0 32:1.0 35:1.0 36:0.65525 37:1.0 38:0.4 41:1.0 42:1.0 45:1.0 63:1.0 
2.0 1:0.005 2:0.2 5:1.0 11:1.0 14:1.0 17:1.0 20:1.0 21:1.0 23:1.0 29:1.0 31:1.0 32:1.0 34:1.0 35:1.0 36:0.30388 37:0.189286 38:0.1 
2.0 1:0.095 2:0.4 11:1.0 14:1.0 19:1.0 20:1.0 21:1.0 23:1.0 29:1.0 31:1.0 32:1.0 35:1.0 36:0.303878 37:0.1875 38:1.1 57:1.0 58:1.0 
0.07467814383041946 1:0.018333 4:1.0 12:1.0 14:1.0 17:1.0 19:1.0 21:1.0 23:1.0 29:1.0 31:1.0 32:1.0 34:1.0 36:0.303882 37:0.111111 38:1.3 108:1.0 125:1.0 148:1.0 
0.8608901934530038 1:0.296667 2:0.7 4:1.0 5:1.0 13:1.0 14:1.0 17:1.0 20:1.0 21:1.0 23:1.0 29:1.0 31:1.0 32:1.0 35:1.0 36:0.655251 37:0.464427 38:0.3 41:1.0 42:1.0 45:1.0 46:1.0 47:1.0 
2.0 1:0.166667 2:0.6 3:1.0 4:1.0 5:1.0 6:1.0 11:1.0 14:1.0 17:1.0 19:1.0 20:1.0 21:1.0 23:1.0 29:1.0 31:1.0 32:1.0 35:1.0 36:0.303875 38:0.6 85:1.0 89:1.0 122:1.0 123:1.0 137:1.0 138:1.0 139:1.0 
2.0 1:0.021667 2:0.2 6:1.0 9:1.0 11:1.0 14:1.0 17:1.0 19:1.0 20:1.0 21:1.0 24:1.0 29:1.0 31:1.0 32:1.0 34:1.0 35:1.0 36:0.65525 38:1.2 44:1.0 49:1.0 62:1.0 94:1.0 95:1.0 
2.0 1:0.011667 9:1.0 12:1.0 14:1.0 21:1.0 24:1.0 29:1.0 31:1.0 32:1.0 34:1.0 35:1.0 36:0.65525 37:1.0 38:0.5 42:1.0 46:1.0 50:1.0 
2.0 1:0.168333 2:0.8 5:1.0 11:1.0 14:1.0 21:1.0 23:1.0 29:1.0 31:1.0 32:1.0 34:1.0 35:1.0 36:0.303877 37:0.5 38:1.1 43:1.0 44:1.0 58:1.0 92:1.0 93:1.0 
2.0 1:0.006667 2:0.2 11:1.0 14:1.0 17:1.0 19:1.0 20:1.0 21:1.0 23:1.0 29:1.0 31:1.0 32:1.0 35:1.0 36:0.303879 37:0.25 38:0.2 
2.0 1:0.04 2:0.2 5:1.0 11:1.0 14:1.0 17:1.0 20:1.0 21:1.0 23:1.0 29:1.0 31:1.0 32:1.0 35:1.0 36:0.655251 37:0.524887 38:1.9 40:1.0 49:1.0 50:1.0 51:1.0 
0.613146423753694 1:0.028333 2:0.2 11:1.0 14:1.0 21:1.0 23:1.0 29:1.0 31:1.0 32:1.0 35:1.0 36:0.303878 37:0.833333 38:0.5 85:1.0 89:1.0 122:1.0 123:1.0 137:1.0 
0.11989294764058275 1:0.061667 2:0.3 7:1.0 9:1.0 13:1.0 16:1.0 24:1.0 30:1.0 31:1.0 35:1.0 36:0.65525 37:1.0 38:1.7 43:1.0 44:1.0 49:1.0 50:1.0 51:1.0 52:1.0 59:1.0 
0.41812841161236725 1:0.006667 11:1.0 14:1.0 20:1.0 21:1.0 23:1.0 29:1.0 31:1.0 32:1.0 34:1.0 35:1.0 36:0.655243 37:0.777318 38:0.5 39:1.0 44:1.0 
2.0 1:0.001667 11:1.0 14:1.0 21:1.0 23:1.0 29:1.0 31:1.0 32:1.0 34:1.0 35:1.0 36:0.655246 37:1.0 38:0.6 42:1.0 46:1.0 
2.0 1:0.16 2:0.8 11:1.0 14:1.0 19:1.0 20:1.0 21:1.0 23:1.0 29:1.0 31:1.0 32:1.0 36:0.655252 37:0.05 38:1.0 49:1.0 98:1.0 
0.5637586583753371 1:0.063333 2:0.2 3:1.0 4:1.0 5:1.0 6:1.0 11:1.0 14:1.0 17:1.0 19:1.0 20:1.0 21:1.0 23:1.0 29:1.0 31:1.0 32:1.0 36:0.303878 38:1.6 49:1.0 50:1.0 57:1.0 58:1.0 59:1.0 60:1.0 
1.3183193246589424 1:0.066667 2:0.4 5:1.0 11:1.0 14:1.0 19:1.0 21:1.0 23:1.0 29:1.0 31:1.0 32:1.0 35:1.0 36:0.303875 37:0.363636 38:1.1 85:1.0 86:1.0 87:1.0 88:1.0 89:1.0 90:1.0 101:1.0 
0.1348607276699336 1:0.008333 2:0.1 11:1.0 14:1.0 23:1.0 29:1.0 31:1.0 32:1.0 35:1.0 36:0.303877 37:0.737923 38:0.9 39:1.0 63:1.0 95:1.0 
0.28171544007543126 1:0.205 2:0.8 11:1.0 14:1.0 21:1.0 23:1.0 29:1.0 31:1.0 32:1.0 35:1.0 36:0.655247 37:0.648438 38:1.0 43:1.0 56:1.0 100:1.0 
0.4314124957009474 1:0.043333 2:0.2 7:1.0 11:1.0 16:1.0 23:1.0 30:1.0 31:1.0 35:1.0 36:0.303876 37:1.0 38:1.0 41:1.0 45:1.0 58:1.0 63:1.0 93:1.0 95:1.0 113:1.0 
2.0 3:1.0 4:1.0 5:1.0 6:1.0 11:1.0 14:1.0 17:1.0 19:1.0 20:1.0 21:1.0 23:1.0 29:1.0 31:1.0 32:1.0 34:1.0 36:0.303875 38:0.1 
2.0 1:0.143333 2:0.6 3:1.0 4:1.0 5:1.0 6:1.0 11:1.0 14:1.0 17:1.0 19:1.0 20:1.0 21:1.0 23:1.0 29:1.0 31:1.0 32:1.0 34:1.0 36:0.303878 38:0.7 56:1.0 95:1.0 
0.9887364634096097 1:0.021667 2:0.1 11:1.0 14:1.0 23:1.0 29:1.0 31:1.0 32:1.0 34:1.0 35:1.0 36:0.655246 37:0.833242 38:1.6 43:1.0 44:1.0 49:1.0 52:1.0 97:1.0 
2.0 1:0.226667 2:0.8 9:1.0 11:1.0 14:1.0 17:1.0 20:1.0 21:1.0 24:1.0 29:1.0 31:1.0 32:1.0 35:1.0 36:0.65525 37:0.788462 38:0.7 42:1.0 46:1.0 49:1.0 50:1.0 59:1.0 
2.0 1:0.345 2:0.7 9:1.0 11:1.0 14:1.0 21:1.0 24:1.0 29:1.0 31:1.0 32:1.0 35:1.0 36:0.65525 37:0.856224 38:0.9 42:1.0 46:1.0 
1.4552518907477765 1:0.03 2:0.2 3:1.0 4:1.0 5:1.0 6:1.0 11:1.0 14:1.0 17:1.0 19:1.0 20:1.0 21:1.0 23:1.0 29:1.0 31:1.0 32:1.0 36:0.303878 38:1.2 49:1.0 50:1.0 69:1.0 102:1.0 
1.3758280719734965 1:0.051667 2:0.4 11:1.0 14:1.0 21:1.0 23:1.0 29:1.0 31:1.0 32:1.0 34:1.0 35:1.0 36:0.655246 37:1.0 38:0.7 54:1.0 56:1.0 102:1.0 
0.7345206494446164 1:0.031667 2:0.1 9:1.0 11:1.0 14:1.0 21:1.0 24:1.0 29:1.0 31:1.0 32:1.0 35:1.0 36:0.65525 37:0.79021 38:0.3 41:1.0 42:1.0 45:1.0 46:1.0 47:1.0 
2.0 1:0.05 2:0.1 3:1.0 4:1.0 5:1.0 6:1.0 11:1.0 14:1.0 17:1.0 19:1.0 20:1.0 21:1.0 23:1.0 29:1.0 31:1.0 32:1.0 35:1.0 36:0.655251 38:1.2 53:1.0 98:1.0 
0.829718761676727 1:0.143333 2:0.7 11:1.0 16:1.0 23:1.0 29:1.0 31:1.0 32:1.0 35:1.0 36:0.655247 37:0.900794 38:1.0 43:1.0 44:1.0 49:1.0 61:1.0 65:1.0 
1.1522266139632626 1:0.083333 2:0.2 5:1.0 11:1.0 14:1.0 19:1.0 20:1.0 21:1.0 24:1.0 29:1.0 32:1.0 33:1.0 35:1.0 36:0.65525 37:0.8 38:2.3 43:1.0 49:1.0 50:1.0 132:1.0 
0.3365592154014654 1:0.223333 2:0.8 12:1.0 14:1.0 20:1.0 21:1.0 23:1.0 29:1.0 31:1.0 32:1.0 35:1.0 36:0.30388 37:0.947917 38:1.4 41:1.0 44:1.0 45:1.0 58:1.0 63:1.0 64:1.0 92:1.0 93:1.0 
2.0 1:0.075 2:0.7 5:1.0 9:1.0 11:1.0 14:1.0 19:1.0 20:1.0 21:1.0 24:1.0 29:1.0 31:1.0 32:1.0 34:1.0 35:1.0 36:0.303879 37:0.269231 38:0.5 44:1.0 
2.0 1:0.043333 2:0.1 6:1.0 11:1.0 14:1.0 17:1.0 19:1.0 20:1.0 21:1.0 24:1.0 29:1.0 31:1.0 32:1.0 33:1.0 35:1.0 36:0.30388 38:0.7 41:1.0 44:1.0 45:1.0 63:1.0 
0.042021521839720195 1:0.118333 2:0.3 13:1.0 16:1.0 23:1.0 29:1.0 31:1.0 32:1.0 35:1.0 36:0.655249 37:1.0 38:0.7 39:1.0 49:1.0 60:1.0 
2.0 1:0.055 2:0.3 3:1.0 4:1.0 5:1.0 6:1.0 11:1.0 14:1.0 17:1.0 19:1.0 20:1.0 21:1.0 23:1.0 29:1.0 31:1.0 32:1.0 35:1.0 36:0.655252 38:1.3 52:1.0 88:1.0 89:1.0 90:1.0 98:1.0 99:1.0 
0.07622746559314456 1:0.215 2:0.5 11:1.0 14:1.0 17:1.0 19:1.0 21:1.0 23:1.0 29:1.0 31:1.0 32:1.0 36:0.655246 37:0.542857 38:1.5 50:1.0 51:1.0 63:1.0 
0.85081373384622 1:0.19 2:0.7 10:1.0 11:1.0 14:1.0 20:1.0 23:1.0 29:1.0 31:1.0 32:1.0 35:1.0 36:0.655251 37:0.464286 38:1.4 44:1.0 57:1.0 58:1.0 75:1.0 101:1.0 108:1.0 
2.0 1:0.011667 2:0.2 11:1.0 14:1.0 21:1.0 23:1.0 29:1.0 31:1.0 32:1.0 35:1.0 36:0.655247 37:0.752725 38:0.2 42:1.0 46:1.0 
0.30043805693523284 1:0.193333 2:0.4 11:1.0 14:1.0 20:1.0 21:1.0 23:1.0 29:1.0 31:1.0 32:1.0 34:1.0 35:1.0 36:0.30388 37:0.844424 38:1.8 40:1.0 43:1.0 49:1.0 50:1.0 51:1.0 58:1.0 59:1.0 93:1.0 95:1.0 113:1.0 133:1.0 
2.0 2:0.1 13:1.0 14:1.0 21:1.0 23:1.0 29:1.0 31:1.0 32:1.0 34:1.0 35:1.0 36:0.303881 37:0.993296 38:0.3 42:1.0 46:1.0 56:1.0 
0.8213554549894867 1:0.023333 2:0.1 9:1.0 11:1.0 14:1.0 21:1.0 24:1.0 29:1.0 31:1.0 32:1.0 34:1.0 35:1.0 36:0.65525 37:0.882251 38:1.1 39:1.0 44:1.0 49:1.0 57:1.0 58:1.0 60:1.0 
0.22632091778947322 1:0.001667 13:1.0 16:1.0 21:1.0 23:1.0 29:1.0 31:1.0 32:1.0 35:1.0 36:0.655247 37:1.0 38:0.4 
2.0 1:0.118333 2:0.7 11:1.0 14:1.0 21:1.0 23:1.0 29:1.0 32:1.0 35:1.0 36:0.655251 37:0.857143 38:0.8 49:1.0 61:1.0 
0.4295479748488453 1:0.001667 9:1.0 12:1.0 16:1.0 21:1.0 24:1.0 29:1.0 31:1.0 32:1.0 35:1.0 36:0.303879 37:0.888889 38:0.2 40:1.0 41:1.0 45:1.0 
0.5407082542598604 1:0.04 2:0.1 3:1.0 4:1.0 5:1.0 6:1.0 11:1.0 14:1.0 17:1.0 19:1.0 20:1.0 21:1.0 23:1.0 29:1.0 31:1.0 32:1.0 36:0.303878 38:1.7 50:1.0 107:1.0 
0.1514149538012353 1:0.118333 2:0.4 5:1.0 11:1.0 14:1.0 20:1.0 21:1.0 23:1.0 29:1.0 31:1.0 32:1.0 35:1.0 36:0.655247 37:0.552874 38:1.0 44:1.0 53:1.0 71:1.0 75:1.0 120:1.0 125:1.0 
1.6544062080597504 1:0.041667 2:0.2 7:1.0 9:1.0 11:1.0 16:1.0 24:1.0 30:1.0 31:1.0 35:1.0 36:0.65525 37:1.0 38:0.6 41:1.0 42:1.0 45:1.0 46:1.0 47:1.0 49:1.0 
0.457212914062344 1:0.083333 2:0.2 12:1.0 14:1.0 17:1.0 20:1.0 21:1.0 23:1.0 29:1.0 31:1.0 32:1.0 36:0.303882 37:0.59375 38:0.8 42:1.0 46:1.0 50:1.0 51:1.0 63:1.0 
0.0758391604459502 1:0.036667 2:0.1 11:1.0 14:1.0 21:1.0 23:1.0 29:1.0 32:1.0 34:1.0 35:1.0 36:0.303879 37:0.970238 38:1.2 43:1.0 44:1.0 54:1.0 56:1.0 58:1.0 78:1.0 79:1.0 80:1.0 93:1.0 95:1.0 
2.0 1:0.078333 2:0.2 3:1.0 4:1.0 5:1.0 6:1.0 11:1.0 14:1.0 17:1.0 19:1.0 20:1.0 21:1.0 23:1.0 29:1.0 31:1.0 32:1.0 36:0.655252 38:1.5 63:1.0 
0.09033442723186319 1:0.008333 2:0.1 9:1.0 11:1.0 14:1.0 21:1.0 24:1.0 29:1.0 31:1.0 32:1.0 34:1.0 36:0.303883 37:0.484532 38:0.3 41:1.0 42:1.0 45:1.0 46:1.0 47:1.0 
1.2242250367428855 1:0.046667 2:0.2 13:1.0 16:1.0 23:1.0 29:1.0 31:1.0 32:1.0 35:1.0 36:0.655247 37:1.0 38:0.7 39:1.0 44:1.0 63:1.0 
2.0 1:0.141667 2:0.2 3:1.0 4:1.0 5:1.0 6:1.0 11:1.0 14:1.0 17:1.0 19:1.0 20:1.0 21:1.0 23:1.0 29:1.0 31:1.0 32:1.0 36:0.303878 38:0.9 63:1.0 
0.09277714097221956 1:0.318333 2:0.7 5:1.0 6:1.0 9:1.0 11:1.0 14:1.0 17:1.0 19:1.0 20:1.0 21:1.0 24:1.0 29:1.0 31:1.0 32:1.0 35:1.0 36:0.303879 38:1.6 78:1.0 79:1.0 80:1.0 89:1.0 95:1.0 132:1.0 
0.5401130220359955 1:0.008333 2:0.1 9:1.0 12:1.0 14:1.0 21:1.0 24:1.0 29:1.0 31:1.0 32:1.0 34:1.0 35:1.0 36:0.65525 37:0.9125 38:0.3 41:1.0 42:1.0 45:1.0 46:1.0 47:1.0 
1.0649952243671004 1:0.016667 2:0.2 11:1.0 14:1.0 21:1.0 23:1.0 29:1.0 31:1.0 32:1.0 34:1.0 35:1.0 36:0.655246 37:0.90625 38:1.0 53:1.0 75:1.0 104:1.0 120:1.0 123:1.0 139:1.0 150:1.0 151:1.0 152:1.0 170:1.0 171:1.0 
0.06327314205851081 1:0.045 2:0.2 12:1.0 14:1.0 21:1.0 23:1.0 29:1.0 31:1.0 32:1.0 34:1.0 35:1.0 36:0.30388 37:0.874746 38:1.6 43:1.0 44:1.0 49:1.0 61:1.0 
0.0455799522605901 1:0.02 2:0.1 7:1.0 13:1.0 16:1.0 23:1.0 30:1.0 31:1.0 35:1.0 36:0.655243 37:1.0 38:1.8 43:1.0 49:1.0 50:1.0 51:1.0 52:1.0 71:1.0 72:1.0 
0.2633165984645743 1:0.176667 2:0.3 13:1.0 16:1.0 23:1.0 29:1.0 32:1.0 35:1.0 36:0.655249 37:1.0 38:0.9 40:1.0 41:1.0 
0.021687286096910525 1:0.061667 2:0.2 11:1.0 14:1.0 21:1.0 23:1.0 29:1.0 31:1.0 32:1.0 34:1.0 35:1.0 36:0.655247 37:0.820577 38:1.5 40:1.0 43:1.0 49:1.0 
2.0 1:0.016667 2:0.1 3:1.0 4:1.0 5:1.0 6:1.0 11:1.0 14:1.0 17:1.0 19:1.0 20:1.0 21:1.0 23:1.0 29:1.0 31:1.0 32:1.0 34:1.0 35:1.0 36:0.655251 38:0.5 85:1.0 89:1.0 122:1.0 123:1.0 137:1.0 
0.16050387134366023 1:0.088333 2:0.2 13:1.0 16:1.0 23:1.0 29:1.0 31:1.0 32:1.0 35:1.0 36:0.655247 37:1.0 38:0.7 41:1.0 45:1.0 63:1.0 67:1.0 
0.16053595947634672 1:0.075 2:0.2 11:1.0 14:1.0 21:1.0 24:1.0 29:1.0 31:1.0 32:1.0 33:1.0 35:1.0 36:0.655247 37:0.801489 38:1.1 43:1.0 44:1.0 60:1.0 61:1.0 63:1.0 64:1.0 
0.01224207448651931 1:0.095 2:0.4 11:1.0 14:1.0 23:1.0 29:1.0 32:1.0 36:0.655246 37:0.9 38:1.3 39:1.0 44:1.0 63:1.0 
0.7910485815418301 1:0.213333 2:0.7 3:1.0 4:1.0 5:1.0 6:1.0 11:1.0 14:1.0 17:1.0 19:1.0 20:1.0 21:1.0 23:1.0 29:1.0 31:1.0 32:1.0 36:0.655243 38:1.8 44:1.0 49:1.0 52:1.0 69:1.0 71:1.0 72:1.0 
0.08766350564911207 1:0.21 2:0.4 10:1.0 12:1.0 14:1.0 23:1.0 29:1.0 31:1.0 32:1.0 36:0.30388 37:0.818182 38:2.3 44:1.0 50:1.0 52:1.0 57:1.0 58:1.0 63:1.0 
2.0 1:0.045 3:1.0 4:1.0 5:1.0 6:1.0 11:1.0 14:1.0 17:1.0 19:1.0 20:1.0 21:1.0 23:1.0 29:1.0 31:1.0 32:1.0 34:1.0 35:1.0 36:0.655246 38:0.9 52:1.0 121:1.0 
2.0 1:0.186667 2:0.3 3:1.0 4:1.0 5:1.0 6:1.0 11:1.0 14:1.0 17:1.0 19:1.0 20:1.0 21:1.0 23:1.0 29:1.0 31:1.0 32:1.0 35:1.0 36:0.655251 38:1.2 53:1.0 56:1.0 111:1.0 
2.0 1:0.018333 2:0.2 9:1.0 11:1.0 14:1.0 21:1.0 24:1.0 29:1.0 31:1.0 32:1.0 34:1.0 36:0.65525 37:0.8 38:0.6 42:1.0 46:1.0 
2.0 1:0.125 2:0.4 5:1.0 11:1.0 14:1.0 17:1.0 20:1.0 21:1.0 23:1.0 29:1.0 31:1.0 32:1.0 34:1.0 35:1.0 36:0.303876 37:0.378571 38:0.3 123:1.0 
0.6141807216413155 1:0.198333 2:0.9 11:1.0 14:1.0 17:1.0 19:1.0 20:1.0 21:1.0 24:1.0 29:1.0 31:1.0 32:1.0 33:1.0 35:1.0 36:0.30388 37:0.441176 38:1.4 40:1.0 49:1.0 68:1.0 164:1.0 176:1.0 177:1.0 
0.44713208656065995 1:0.013333 11:1.0 14:1.0 21:1.0 24:1.0 29:1.0 31:1.0 32:1.0 33:1.0 34:1.0 35:1.0 36:0.655246 37:0.853011 38:0.8 44:1.0 
2.0 1:0.028333 2:0.2 3:1.0 4:1.0 5:1.0 6:1.0 11:1.0 14:1.0 17:1.0 19:1.0 20:1.0 21:1.0 23:1.0 29:1.0 31:1.0 32:1.0 36:0.303878 38:1.2 49:1.0 50:1.0 51:1.0 98:1.0 
2.0 1:0.016667 2:0.4 3:1.0 4:1.0 5:1.0 6:1.0 11:1.0 14:1.0 17:1.0 19:1.0 20:1.0 21:1.0 23:1.0 29:1.0 31:1.0 32:1.0 34:1.0 35:1.0 36:0.303877 38:0.4 43:1.0 52:1.0 53:1.0 
2.0 1:0.025 2:0.1 4:1.0 11:1.0 14:1.0 17:1.0 20:1.0 21:1.0 23:1.0 29:1.0 31:1.0 32:1.0 35:1.0 36:0.655246 37:0.403582 38:0.8 73:1.0 
1.2874579221616027 1:0.02 2:0.1 3:1.0 4:1.0 5:1.0 6:1.0 11:1.0 14:1.0 17:1.0 19:1.0 20:1.0 21:1.0 23:1.0 29:1.0 31:1.0 32:1.0 36:0.303879 38:1.0 58:1.0 91:1.0 93:1.0 95:1.0 
0.7022555568814046 1:0.335 3:1.0 4:1.0 5:1.0 6:1.0 11:1.0 14:1.0 17:1.0 19:1.0 20:1.0 21:1.0 23:1.0 29:1.0 31:1.0 32:1.0 35:1.0 36:0.655246 38:4.6 121:1.0 
2.0 1:0.081667 2:0.2 3:1.0 4:1.0 5:1.0 6:1.0 11:1.0 14:1.0 17:1.0 19:1.0 20:1.0 21:1.0 23:1.0 29:1.0 31:1.0 32:1.0 34:1.0 35:1.0 36:0.30388 38:2.5 43:1.0 44:1.0 49:1.0 
0.8870169018763057 1:0.03 2:0.1 11:1.0 14:1.0 21:1.0 23:1.0 29:1.0 31:1.0 32:1.0 34:1.0 35:1.0 36:0.303876 37:0.909722 38:2.0 44:1.0 49:1.0 61:1.0 69:1.0 100:1.0 109:1.0 
2.0 1:0.236667 2:0.7 5:1.0 11:1.0 14:1.0 17:1.0 20:1.0 21:1.0 23:1.0 29:1.0 31:1.0 32:1.0 35:1.0 36:0.30388 37:0.444444 38:0.3 40:1.0 
1.3423193027295826 1:0.026667 2:0.1 10:1.0 11:1.0 14:1.0 23:1.0 29:1.0 31:1.0 32:1.0 34:1.0 35:1.0 36:0.655249 37:0.9125 38:0.9 44:1.0 62:1.0 
2.0 1:0.048333 2:0.3 11:1.0 14:1.0 17:1.0 19:1.0 20:1.0 21:1.0 23:1.0 29:1.0 31:1.0 32:1.0 34:1.0 36:0.30388 37:0.833333 38:0.8 61:1.0 65:1.0 
2.0 1:0.251667 2:1.0 4:1.0 11:1.0 14:1.0 19:1.0 20:1.0 21:1.0 23:1.0 29:1.0 31:1.0 32:1.0 35:1.0 36:0.655246 37:0.214286 38:0.6 95:1.0 
0.41740863305379805 1:0.06 2:0.3 11:1.0 14:1.0 21:1.0 23:1.0 29:1.0 31:1.0 32:1.0 35:1.0 36:0.303876 37:0.866667 38:2.2 43:1.0 50:1.0 96:1.0 100:1.0 
