svm_type c_svc
kernel_type rbf
gamma 0.5
nr_class 2
total_sv 29
rho 0.3179238590759901
label 0 1
probA -0.3321174748517606
probB 0.14258097255956922
nr_sv 13 16
SV
10.133824528549484 1:0.053333 2:0.2 8:1.0 11:1.0 16:1.0 23:1.0 30:1.0 31:1.0 32:1.0 35:1.0 36:1.0 37:1.0 38:0.5 42:1.0 46:1.0 
32.0 1:0.03 2:0.2 8:1.0 11:1.0 16:1.0 23:1.0 30:1.0 31:1.0 32:1.0 35:1.0 36:1.0 37:1.0 38:1.1 42:1.0 46:1.0 
0.8827338970018016 1:0.046667 2:0.2 8:1.0 11:1.0 16:1.0 23:1.0 30:1.0 31:1.0 32:1.0 36:1.0 37:1.0 38:1.0 42:1.0 46:1.0 
32.0 1:0.023333 3:1.0 4:1.0 5:1.0 6:1.0 7:1.0 8:1.0 11:1.0 16:1.0 18:1.0 23:1.0 28:1.0 31:1.0 32:1.0 35:1.0 36:1.0 38:0.5 41:1.0 42:1.0 45:1.0 46:1.0 47:1.0 
0.07708385646300392 1:0.085 2:0.1 8:1.0 12:1.0 16:1.0 23:1.0 30:1.0 31:1.0 32:1.0 36:1.0 37:1.0 38:0.9 42:1.0 46:1.0 
32.0 2:0.1 8:1.0 11:1.0 16:1.0 23:1.0 30:1.0 31:1.0 32:1.0 35:1.0 36:1.0 37:1.0 38:0.4 39:1.0 42:1.0 46:1.0 
0.8849579177391915 1:0.095 2:0.1 8:1.0 12:1.0 16:1.0 23:1.0 30:1.0 31:1.0 32:1.0 35:1.0 36:1.0 37:1.0 38:1.2 42:1.0 43:1.0 46:1.0 48:1.0 
1.5676762700929583 1:0.006667 8:1.0 11:1.0 16:1.0 24:1.0 30:1.0 31:1.0 32:1.0 33:1.0 35:1.0 36:1.0 37:1.0 38:0.5 41:1.0 42:1.0 45:1.0 46:1.0 47:1.0 
2.1572135529951972 1:0.048333 2:0.3 8:1.0 11:1.0 16:1.0 23:1.0 30:1.0 31:1.0 32:1.0 35:1.0 36:1.0 37:1.0 38:0.5 
0.9887568742319406 1:0.023333 2:0.1 8:1.0 12:1.0 16:1.0 23:1.0 30:1.0 31:1.0 32:1.0 36:1.0 37:1.0 38:0.7 39:1.0 42:1.0 46:1.0 
1.3554160968761737 1:0.185 2:0.3 8:1.0 13:1.0 16:1.0 23:1.0 30:1.0 31:1.0 32:1.0 35:1.0 36:1.0 38:1.9 39:1.0 42:1.0 46:1.0 48:1.0 
0.5531336252259703 1:0.061667 2:0.2 8:1.0 12:1.0 16:1.0 23:1.0 30:1.0 31:1.0 32:1.0 35:1.0 36:1.0 37:1.0 38:0.8 42:1.0 43:1.0 46:1.0 
1.5483117071512995 1:0.028333 2:0.2 8:1.0 11:1.0 16:1.0 23:1.0 30:1.0 31:1.0 32:1.0 35:1.0 36:1.0 37:1.0 38:1.3 40:1.0 43:1.0 49:1.0 
-0.6276302518792245 1:0.011667 3:1.0 4:1.0 5:1.0 6:1.0 7:1.0 8:1.0 11:1.0 16:1.0 18:1.0 23:1.0 28:1.0 31:1.0 32:1.0 35:1.0 36:1.0 38:0.6 43:1.0 44:1.0 55:1.0 56:1.0 
-10.179303474764982 1:0.021667 8:1.0 11:1.0 16:1.0 23:1.0 30:1.0 31:1.0 32:1.0 35:1.0 36:1.0 37:1.0 38:1.6 42:1.0 46:1.0 
-32.0 2:0.1 8:1.0 11:1.0 16:1.0 23:1.0 30:1.0 31:1.0 32:1.0 35:1.0 36:1.0 37:1.0 38:0.8 42:1.0 46:1.0 
-1.0304599798303407 1:0.01 8:1.0 11:1.0 16:1.0 23:1.0 30:1.0 31:1.0 32:1.0 35:1.0 36:1.0 37:1.0 38:0.5 42:1.0 43:1.0 46:1.0 57:1.0 
-0.6762038498175982 1:0.035 2:0.1 8:1.0 12:1.0 16:1.0 23:1.0 30:1.0 31:1.0 32:1.0 35:1.0 36:1.0 37:1.0 38:0.7 40:1.0 41:1.0 45:1.0 54:1.0 
-32.0 2:0.1 8:1.0 11:1.0 16:1.0 23:1.0 30:1.0 31:1.0 32:1.0 35:1.0 36:1.0 37:1.0 38:0.5 39:1.0 42:1.0 46:1.0 
-0.6916785529748564 1:0.008333 8:1.0 11:1.0 16:1.0 23:1.0 30:1.0 31:1.0 32:1.0 35:1.0 36:1.0 37:1.0 38:0.9 44:1.0 50:1.0 51:1.0 52:1.0 
-31.009492090128397 1:0.011667 3:1.0 4:1.0 5:1.0 6:1.0 7:1.0 8:1.0 11:1.0 16:1.0 18:1.0 23:1.0 28:1.0 31:1.0 32:1.0 35:1.0 36:1.0 38:0.4 41:1.0 42:1.0 45:1.0 46:1.0 47:1.0 
-1.0124575704283683 1:0.005 3:1.0 4:1.0 5:1.0 6:1.0 7:1.0 8:1.0 11:1.0 16:1.0 18:1.0 23:1.0 28:1.0 31:1.0 32:1.0 35:1.0 36:1.0 38:0.6 41:1.0 42:1.0 45:1.0 46:1.0 47:1.0 53:1.0 
-1.252910738223181 1:0.01 2:0.1 8:1.0 11:1.0 16:1.0 23:1.0 30:1.0 31:1.0 32:1.0 35:1.0 36:1.0 37:1.0 38:0.3 41:1.0 42:1.0 45:1.0 46:1.0 47:1.0 
-0.7646240756552153 1:0.001667 8:1.0 11:1.0 16:1.0 23:1.0 30:1.0 31:1.0 32:1.0 35:1.0 36:1.0 37:1.0 38:0.5 42:1.0 43:1.0 46:1.0 61:1.0 62:1.0 
-0.8098207126314522 1:0.021667 2:0.1 3:1.0 4:1.0 5:1.0 6:1.0 7:1.0 8:1.0 11:1.0 16:1.0 18:1.0 23:1.0 28:1.0 31:1.0 32:1.0 35:1.0 36:1.0 38:0.4 41:1.0 42:1.0 45:1.0 46:1.0 47:1.0 
-0.5316546561627417 1:0.013333 8:1.0 11:1.0 16:1.0 23:1.0 30:1.0 31:1.0 32:1.0 35:1.0 36:1.0 37:1.0 38:0.9 39:1.0 44:1.0 58:1.0 59:1.0 60:1.0 
-0.6757941624696642 1:0.006667 3:1.0 4:1.0 5:1.0 6:1.0 7:1.0 8:1.0 11:1.0 16:1.0 18:1.0 23:1.0 28:1.0 31:1.0 32:1.0 35:1.0 36:1.0 38:0.7 42:1.0 43:1.0 46:1.0 
-2.034538746934975 1:0.005 8:1.0 11:1.0 16:1.0 23:1.0 30:1.0 31:1.0 32:1.0 35:1.0 36:1.0 37:1.0 38:0.4 40:1.0 
-0.8525394644260221 1:0.01 8:1.0 11:1.0 16:1.0 23:1.0 30:1.0 31:1.0 32:1.0 35:1.0 36:1.0 37:1.0 38:0.6 39:1.0 44:1.0 
