svm_type c_svc
kernel_type rbf
gamma 0.125
nr_class 2
total_sv 1252
rho 0.27647948512369414
label 1 0
probA -2.854495625427258
probB 0.10688047389438414
nr_sv 470 782
SV
0.8048661034550902 1:0.08333333333333333 2:0.05 11:1.0 14:1.0 17:1.0 19:1.0 20:1.0 21:1.0 24:1.0 26:1.0 28:1.0 29:1.0 30:1.0 35:1.0 37:1.0 38:0.7 41:1.0 45:1.0 48:0.7636344871655399 52:1.0 54:1.0 55:1.0 56:1.0 65:1.0 81:1.0 87:1.0 119:1.0 120:1.0 145:1.0 
2.0 1:0.028333333333333332 11:1.0 14:1.0 17:1.0 21:1.0 23:1.0 26:1.0 28:1.0 29:1.0 35:1.0 37:1.0 38:0.9 40:1.0 43:1.0 48:0.12544104863386324 52:1.0 63:1.0 65:1.0 70:1.0 81:1.0 118:1.0 119:1.0 120:1.0 121:1.0 
2.0 1:0.028333333333333332 2:0.05 11:1.0 14:1.0 17:1.0 21:1.0 23:1.0 26:1.0 28:1.0 29:1.0 31:1.0 35:1.0 38:1.05 39:1.0 48:0.12544104863386324 52:1.0 63:1.0 65:1.0 70:1.0 81:1.0 87:1.0 122:1.0 128:1.0 156:1.0 
1.0190314363778643 1:0.06 2:0.05 3:1.0 4:1.0 5:1.0 6:1.0 11:1.0 14:1.0 17:1.0 19:1.0 20:1.0 21:1.0 23:1.0 26:1.0 28:1.0 29:1.0 35:1.0 37:1.0 38:1.1 43:1.0 48:0.9999999999999998 52:1.0 54:1.0 55:1.0 56:1.0 63:1.0 65:1.0 81:1.0 87:1.0 118:1.0 119:1.0 120:1.0 128:1.0 139:1.0 145:1.0 156:1.0 
1.5066122701046216 1:0.09333333333333334 2:0.2 13:1.0 14:1.0 17:1.0 19:1.0 20:1.0 21:1.0 23:1.0 26:1.0 28:1.0 29:1.0 34:1.0 38:0.65 48:0.24559444439672778 51:1.0 54:1.0 55:1.0 56:1.0 57:1.0 63:1.0 65:1.0 70:1.0 79:1.0 97:1.0 116:1.0 117:1.0 133:1.0 184:1.0 
0.290383120709107 1:0.39166666666666666 2:0.6 5:1.0 6:1.0 11:1.0 14:1.0 17:1.0 19:1.0 20:1.0 21:1.0 24:1.0 26:1.0 28:1.0 29:1.0 30:1.0 36:1.0 37:1.0 38:0.75 44:1.0 48:1.0000000000000002 53:1.0 54:1.0 55:1.0 56:1.0 57:1.0 63:1.0 65:1.0 70:1.0 81:1.0 83:1.0 87:1.0 119:1.0 120:1.0 143:1.0 184:1.0 
1.6501274735474831 1:0.24333333333333335 2:0.5 5:1.0 13:1.0 14:1.0 17:1.0 20:1.0 21:1.0 23:1.0 26:1.0 28:1.0 29:1.0 34:1.0 37:1.0 38:0.3 40:1.0 48:0.29030109803494786 51:1.0 54:1.0 55:1.0 56:1.0 63:1.0 70:1.0 116:1.0 117:1.0 121:1.0 
0.6784949557091364 1:0.345 2:0.7 11:1.0 14:1.0 17:1.0 19:1.0 20:1.0 21:1.0 23:1.0 26:1.0 28:1.0 29:1.0 34:1.0 38:0.9 40:1.0 48:0.6936039677175403 51:1.0 54:1.0 55:1.0 56:1.0 57:1.0 63:1.0 65:1.0 70:1.0 79:1.0 82:1.0 87:1.0 97:1.0 112:1.0 116:1.0 117:1.0 121:1.0 133:1.0 184:1.0 
1.705785627839599 1:0.19333333333333333 2:0.35 6:1.0 9:1.0 11:1.0 14:1.0 17:1.0 19:1.0 20:1.0 21:1.0 24:1.0 26:1.0 28:1.0 29:1.0 36:1.0 37:1.0 38:0.6 44:1.0 48:0.9999999999999999 53:1.0 54:1.0 55:1.0 56:1.0 57:1.0 63:1.0 65:1.0 78:1.0 79:1.0 81:1.0 99:1.0 111:1.0 116:1.0 117:1.0 133:1.0 179:1.0 184:1.0 
2.0 1:0.04833333333333333 2:0.1 11:1.0 14:1.0 21:1.0 23:1.0 26:1.0 28:1.0 29:1.0 34:1.0 37:1.0 38:0.7 39:1.0 48:0.23853464566198787 57:1.0 63:1.0 65:1.0 70:1.0 75:1.0 79:1.0 82:1.0 87:1.0 116:1.0 117:1.0 122:1.0 151:1.0 184:1.0 
2.0 1:0.295 2:0.6 13:1.0 14:1.0 21:1.0 23:1.0 26:1.0 28:1.0 29:1.0 34:1.0 37:1.0 38:0.45 48:0.2163167243320094 57:1.0 63:1.0 65:1.0 75:1.0 79:1.0 151:1.0 184:1.0 
2.0 1:0.39666666666666667 2:0.8 11:1.0 14:1.0 21:1.0 23:1.0 26:1.0 28:1.0 29:1.0 34:1.0 38:1.05 48:0.19834135185311477 57:1.0 63:1.0 65:1.0 70:1.0 75:1.0 79:1.0 82:1.0 87:1.0 97:1.0 116:1.0 117:1.0 133:1.0 151:1.0 184:1.0 
0.645766405156957 1:0.3416666666666667 2:0.9 3:1.0 4:1.0 5:1.0 6:1.0 9:1.0 11:1.0 14:1.0 17:1.0 19:1.0 20:1.0 21:1.0 22:1.0 26:1.0 28:1.0 29:1.0 30:1.0 36:1.0 37:1.0 38:0.4 42:1.0 43:1.0 46:1.0 48:0.9999999999999999 53:1.0 54:1.0 55:1.0 56:1.0 57:1.0 63:1.0 65:1.0 87:1.0 110:1.0 116:1.0 117:1.0 118:1.0 148:1.0 184:1.0 
0.46922195888645485 2:0.05 3:1.0 4:1.0 5:1.0 6:1.0 9:1.0 11:1.0 14:1.0 17:1.0 19:1.0 20:1.0 21:1.0 22:1.0 26:1.0 28:1.0 29:1.0 30:1.0 31:1.0 34:1.0 37:1.0 38:0.25 42:1.0 46:1.0 48:1.0000000000000002 51:1.0 54:1.0 55:1.0 56:1.0 63:1.0 70:1.0 87:1.0 148:1.0 
2.0 1:0.24666666666666667 2:0.6 11:1.0 14:1.0 21:1.0 23:1.0 26:1.0 28:1.0 29:1.0 35:1.0 37:1.0 38:0.7 43:1.0 48:0.10607569873632634 57:1.0 63:1.0 65:1.0 81:1.0 82:1.0 87:1.0 110:1.0 116:1.0 117:1.0 118:1.0 119:1.0 120:1.0 132:1.0 161:1.0 184:1.0 
2.0 1:0.32 2:0.75 11:1.0 14:1.0 20:1.0 21:1.0 23:1.0 26:1.0 29:1.0 33:1.0 37:1.0 38:0.4 44:1.0 48:0.6867288776703242 57:1.0 63:1.0 65:1.0 119:1.0 120:1.0 132:1.0 184:1.0 
0.6498350061503543 1:0.09 2:0.25 3:1.0 4:1.0 5:1.0 6:1.0 11:1.0 14:1.0 17:1.0 19:1.0 20:1.0 21:1.0 23:1.0 26:1.0 28:1.0 29:1.0 31:1.0 33:1.0 37:1.0 38:0.25 43:1.0 44:1.0 48:1.0000000000000002 50:1.0 54:1.0 55:1.0 56:1.0 65:1.0 105:1.0 118:1.0 
0.9771484908756174 1:0.058333333333333334 2:0.15 5:1.0 11:1.0 14:1.0 17:1.0 20:1.0 21:1.0 23:1.0 26:1.0 28:1.0 29:1.0 31:1.0 33:1.0 37:1.0 38:0.55 43:1.0 44:1.0 48:0.7133517499120132 50:1.0 54:1.0 55:1.0 56:1.0 57:1.0 63:1.0 65:1.0 78:1.0 93:1.0 116:1.0 117:1.0 118:1.0 119:1.0 120:1.0 132:1.0 179:1.0 184:1.0 
0.5764546733800394 1:0.15333333333333332 2:0.4 5:1.0 11:1.0 14:1.0 17:1.0 20:1.0 21:1.0 23:1.0 26:1.0 28:1.0 29:1.0 33:1.0 37:1.0 38:0.55 43:1.0 44:1.0 48:0.7133517499120132 50:1.0 54:1.0 55:1.0 56:1.0 57:1.0 63:1.0 65:1.0 78:1.0 93:1.0 116:1.0 117:1.0 118:1.0 119:1.0 120:1.0 132:1.0 179:1.0 184:1.0 
0.1837366332585705 1:0.058333333333333334 2:0.15 5:1.0 11:1.0 14:1.0 17:1.0 20:1.0 21:1.0 23:1.0 26:1.0 28:1.0 29:1.0 31:1.0 33:1.0 37:1.0 38:0.95 43:1.0 44:1.0 48:0.5159055020401593 50:1.0 54:1.0 55:1.0 56:1.0 57:1.0 63:1.0 65:1.0 70:1.0 82:1.0 83:1.0 87:1.0 88:1.0 111:1.0 116:1.0 117:1.0 118:1.0 119:1.0 120:1.0 132:1.0 143:1.0 184:1.0 
0.8245181336448871 1:0.125 2:0.3 5:1.0 11:1.0 14:1.0 17:1.0 20:1.0 21:1.0 23:1.0 26:1.0 28:1.0 29:1.0 33:1.0 37:1.0 38:0.65 43:1.0 44:1.0 48:0.7145362232026006 50:1.0 54:1.0 55:1.0 56:1.0 57:1.0 63:1.0 65:1.0 70:1.0 78:1.0 83:1.0 93:1.0 111:1.0 118:1.0 143:1.0 179:1.0 184:1.0 
2.0 1:0.03 2:0.1 11:1.0 14:1.0 21:1.0 23:1.0 26:1.0 28:1.0 29:1.0 33:1.0 37:1.0 38:0.8 43:1.0 44:1.0 48:0.2657854543058159 57:1.0 63:1.0 65:1.0 70:1.0 83:1.0 87:1.0 110:1.0 118:1.0 143:1.0 184:1.0 
2.0 1:0.09833333333333333 2:0.25 11:1.0 14:1.0 21:1.0 23:1.0 26:1.0 28:1.0 29:1.0 33:1.0 37:1.0 38:0.7 43:1.0 44:1.0 48:0.2667901387251462 57:1.0 63:1.0 65:1.0 70:1.0 83:1.0 87:1.0 116:1.0 117:1.0 118:1.0 119:1.0 120:1.0 132:1.0 143:1.0 184:1.0 
2.0 1:0.165 2:0.4 11:1.0 14:1.0 21:1.0 23:1.0 26:1.0 28:1.0 29:1.0 33:1.0 37:1.0 38:0.4 43:1.0 44:1.0 48:0.2586452981892121 63:1.0 65:1.0 70:1.0 83:1.0 93:1.0 118:1.0 143:1.0 179:1.0 
2.0 1:0.26 2:0.65 11:1.0 14:1.0 21:1.0 23:1.0 26:1.0 28:1.0 29:1.0 33:1.0 37:1.0 38:0.4 43:1.0 44:1.0 48:0.2586452981892121 63:1.0 65:1.0 70:1.0 83:1.0 93:1.0 118:1.0 143:1.0 179:1.0 
1.4346080057961699 1:0.013333333333333334 2:0.05 9:1.0 11:1.0 14:1.0 17:1.0 19:1.0 20:1.0 21:1.0 24:1.0 26:1.0 28:1.0 29:1.0 31:1.0 35:1.0 37:1.0 38:0.7 43:1.0 48:0.9233242918251504 52:1.0 54:1.0 55:1.0 56:1.0 57:1.0 63:1.0 65:1.0 70:1.0 82:1.0 87:1.0 88:1.0 98:1.0 110:1.0 116:1.0 117:1.0 118:1.0 153:1.0 184:1.0 
2.0 1:0.19166666666666668 2:0.4 11:1.0 14:1.0 17:1.0 19:1.0 20:1.0 21:1.0 23:1.0 26:1.0 28:1.0 29:1.0 33:1.0 37:1.0 38:0.25 43:1.0 48:0.8152644276526113 50:1.0 54:1.0 55:1.0 56:1.0 57:1.0 63:1.0 65:1.0 110:1.0 118:1.0 184:1.0 
1.29772884073563 1:0.085 2:0.2 3:1.0 4:1.0 5:1.0 6:1.0 11:1.0 14:1.0 17:1.0 19:1.0 20:1.0 21:1.0 23:1.0 26:1.0 28:1.0 29:1.0 35:1.0 37:1.0 38:1.05 40:1.0 48:1.0 52:1.0 54:1.0 55:1.0 56:1.0 57:1.0 63:1.0 65:1.0 70:1.0 79:1.0 82:1.0 87:1.0 119:1.0 120:1.0 121:1.0 132:1.0 133:1.0 184:1.0 
1.9613619821365544 1:0.17833333333333334 2:0.35 11:1.0 14:1.0 17:1.0 19:1.0 20:1.0 21:1.0 23:1.0 26:1.0 28:1.0 29:1.0 35:1.0 37:1.0 38:0.8 40:1.0 43:1.0 48:1.0 52:1.0 54:1.0 55:1.0 56:1.0 57:1.0 63:1.0 65:1.0 70:1.0 82:1.0 87:1.0 94:1.0 118:1.0 119:1.0 120:1.0 121:1.0 132:1.0 184:1.0 
2.0 1:0.15333333333333332 2:0.35 11:1.0 14:1.0 19:1.0 20:1.0 21:1.0 24:1.0 26:1.0 28:1.0 29:1.0 30:1.0 33:1.0 37:1.0 38:0.45 43:1.0 48:0.685876229327458 63:1.0 65:1.0 87:1.0 118:1.0 185:1.0 
1.4417514550158768 1:0.165 2:0.35 3:1.0 4:1.0 5:1.0 6:1.0 11:1.0 14:1.0 17:1.0 19:1.0 20:1.0 21:1.0 23:1.0 26:1.0 29:1.0 35:1.0 37:1.0 38:0.85 39:1.0 40:1.0 48:0.9999999999999998 52:1.0 54:1.0 55:1.0 56:1.0 63:1.0 70:1.0 82:1.0 87:1.0 121:1.0 122:1.0 
1.4857669412638492 1:0.115 2:0.2 3:1.0 4:1.0 5:1.0 6:1.0 11:1.0 14:1.0 17:1.0 19:1.0 20:1.0 21:1.0 23:1.0 26:1.0 28:1.0 29:1.0 35:1.0 37:1.0 38:0.95 39:1.0 48:1.0 52:1.0 54:1.0 55:1.0 56:1.0 57:1.0 63:1.0 65:1.0 70:1.0 75:1.0 79:1.0 82:1.0 87:1.0 119:1.0 120:1.0 122:1.0 132:1.0 151:1.0 184:1.0 
0.7594936980659664 1:0.20333333333333334 2:0.4 3:1.0 4:1.0 5:1.0 6:1.0 11:1.0 14:1.0 17:1.0 19:1.0 20:1.0 21:1.0 23:1.0 26:1.0 28:1.0 29:1.0 35:1.0 37:1.0 38:1.35 48:1.0 52:1.0 54:1.0 55:1.0 56:1.0 57:1.0 63:1.0 65:1.0 75:1.0 79:1.0 82:1.0 87:1.0 119:1.0 120:1.0 132:1.0 133:1.0 151:1.0 184:1.0 
0.4121937564791498 1:0.2966666666666667 2:0.55 11:1.0 14:1.0 17:1.0 19:1.0 20:1.0 21:1.0 23:1.0 26:1.0 28:1.0 29:1.0 35:1.0 37:1.0 38:1.1 43:1.0 48:1.0 52:1.0 54:1.0 55:1.0 56:1.0 57:1.0 63:1.0 65:1.0 75:1.0 79:1.0 82:1.0 87:1.0 94:1.0 118:1.0 119:1.0 120:1.0 132:1.0 151:1.0 184:1.0 
0.19375998036065528 1:0.3883333333333333 2:0.8 11:1.0 14:1.0 17:1.0 19:1.0 20:1.0 21:1.0 23:1.0 26:1.0 28:1.0 29:1.0 33:1.0 37:1.0 38:0.25 43:1.0 48:0.8152644276526113 50:1.0 54:1.0 55:1.0 56:1.0 57:1.0 63:1.0 65:1.0 110:1.0 118:1.0 184:1.0 
0.9493889980088699 1:0.041666666666666664 2:0.15 11:1.0 14:1.0 17:1.0 19:1.0 20:1.0 21:1.0 23:1.0 26:1.0 28:1.0 29:1.0 31:1.0 34:1.0 37:1.0 38:0.35 43:1.0 48:0.2355285007503252 51:1.0 54:1.0 55:1.0 56:1.0 65:1.0 75:1.0 79:1.0 118:1.0 151:1.0 179:1.0 
0.8375763361267219 1:0.06166666666666667 2:0.05 3:1.0 4:1.0 5:1.0 6:1.0 11:1.0 14:1.0 17:1.0 19:1.0 20:1.0 21:1.0 23:1.0 26:1.0 28:1.0 29:1.0 31:1.0 34:1.0 38:0.45 48:1.0 51:1.0 54:1.0 55:1.0 56:1.0 63:1.0 70:1.0 75:1.0 79:1.0 82:1.0 87:1.0 114:1.0 133:1.0 151:1.0 
1.1641928943742097 1:0.105 2:0.2 11:1.0 14:1.0 17:1.0 19:1.0 20:1.0 21:1.0 23:1.0 26:1.0 28:1.0 29:1.0 34:1.0 37:1.0 38:0.45 43:1.0 48:0.2355285007503252 51:1.0 54:1.0 55:1.0 56:1.0 63:1.0 65:1.0 70:1.0 75:1.0 78:1.0 79:1.0 114:1.0 118:1.0 151:1.0 172:1.0 179:1.0 
2.0 1:0.023333333333333334 2:0.05 10:1.0 12:1.0 16:1.0 23:1.0 26:1.0 28:1.0 29:1.0 37:1.0 38:1.0 40:1.0 43:1.0 48:0.05926311813804174 63:1.0 65:1.0 70:1.0 82:1.0 83:1.0 87:1.0 112:1.0 116:1.0 117:1.0 118:1.0 119:1.0 120:1.0 121:1.0 143:1.0 
2.0 1:0.051666666666666666 2:0.05 10:1.0 11:1.0 14:1.0 17:1.0 20:1.0 23:1.0 26:1.0 28:1.0 29:1.0 31:1.0 34:1.0 37:1.0 38:0.6 39:1.0 40:1.0 48:0.25227634662896287 51:1.0 54:1.0 55:1.0 56:1.0 63:1.0 70:1.0 82:1.0 87:1.0 112:1.0 116:1.0 117:1.0 121:1.0 122:1.0 
0.5905099302331719 1:0.008333333333333333 2:0.05 6:1.0 11:1.0 14:1.0 17:1.0 19:1.0 20:1.0 21:1.0 24:1.0 26:1.0 28:1.0 29:1.0 30:1.0 31:1.0 36:1.0 37:1.0 38:0.3 39:1.0 44:1.0 48:1.0 53:1.0 54:1.0 55:1.0 56:1.0 63:1.0 65:1.0 70:1.0 80:1.0 122:1.0 137:1.0 138:1.0 
0.3024150908577459 1:0.05 2:0.1 11:1.0 14:1.0 17:1.0 19:1.0 20:1.0 21:1.0 23:1.0 26:1.0 28:1.0 29:1.0 31:1.0 36:1.0 37:1.0 38:0.4 43:1.0 44:1.0 48:0.36415905968653567 53:1.0 54:1.0 55:1.0 56:1.0 65:1.0 80:1.0 118:1.0 119:1.0 120:1.0 137:1.0 138:1.0 159:1.0 
0.5297750962842875 1:0.06 2:0.15 5:1.0 11:1.0 14:1.0 17:1.0 19:1.0 20:1.0 21:1.0 24:1.0 26:1.0 28:1.0 29:1.0 30:1.0 36:1.0 37:1.0 38:0.35 39:1.0 44:1.0 48:0.36415905968653567 53:1.0 54:1.0 55:1.0 56:1.0 63:1.0 65:1.0 70:1.0 76:1.0 100:1.0 101:1.0 119:1.0 120:1.0 122:1.0 174:1.0 
0.7790182785880787 1:0.15333333333333332 2:0.4 5:1.0 11:1.0 14:1.0 17:1.0 20:1.0 21:1.0 23:1.0 26:1.0 28:1.0 29:1.0 36:1.0 37:1.0 38:0.35 43:1.0 48:0.2334268502768761 53:1.0 54:1.0 55:1.0 56:1.0 65:1.0 91:1.0 93:1.0 118:1.0 119:1.0 120:1.0 179:1.0 
0.7588748790241224 1:0.20833333333333334 2:0.5 11:1.0 14:1.0 17:1.0 19:1.0 20:1.0 21:1.0 23:1.0 26:1.0 28:1.0 29:1.0 36:1.0 37:1.0 38:0.3 43:1.0 48:0.4206038747203005 53:1.0 54:1.0 55:1.0 56:1.0 65:1.0 80:1.0 118:1.0 137:1.0 138:1.0 
0.7376739683309486 1:0.21833333333333332 2:0.55 5:1.0 11:1.0 14:1.0 17:1.0 19:1.0 20:1.0 21:1.0 24:1.0 26:1.0 28:1.0 29:1.0 30:1.0 36:1.0 37:1.0 38:0.25 39:1.0 48:0.4206038747203005 53:1.0 54:1.0 55:1.0 56:1.0 63:1.0 70:1.0 87:1.0 122:1.0 148:1.0 
2.0 1:0.20833333333333334 2:0.6 5:1.0 11:1.0 14:1.0 17:1.0 20:1.0 21:1.0 23:1.0 26:1.0 28:1.0 29:1.0 34:1.0 37:1.0 38:0.2 40:1.0 48:0.29541105815206364 51:1.0 54:1.0 55:1.0 56:1.0 63:1.0 70:1.0 121:1.0 
2.0 1:0.33166666666666667 2:0.95 5:1.0 11:1.0 14:1.0 17:1.0 20:1.0 21:1.0 23:1.0 26:1.0 28:1.0 29:1.0 34:1.0 37:1.0 38:0.2 40:1.0 48:0.29541105815206364 51:1.0 54:1.0 55:1.0 56:1.0 63:1.0 70:1.0 121:1.0 
2.0 1:0.2966666666666667 2:0.85 11:1.0 14:1.0 17:1.0 19:1.0 20:1.0 21:1.0 23:1.0 26:1.0 28:1.0 29:1.0 34:1.0 38:0.7 48:0.44382905755043883 51:1.0 54:1.0 55:1.0 56:1.0 57:1.0 63:1.0 65:1.0 70:1.0 79:1.0 82:1.0 87:1.0 88:1.0 133:1.0 184:1.0 
0.9029788003470611 1:0.0033333333333333335 2:0.05 3:1.0 4:1.0 5:1.0 6:1.0 11:1.0 14:1.0 17:1.0 19:1.0 20:1.0 21:1.0 23:1.0 26:1.0 28:1.0 29:1.0 31:1.0 34:1.0 37:1.0 38:0.15 41:1.0 42:1.0 45:1.0 46:1.0 47:1.0 48:1.0000000000000002 51:1.0 54:1.0 55:1.0 56:1.0 68:1.0 87:1.0 148:1.0 177:1.0 
2.0 1:0.03 5:1.0 10:1.0 11:1.0 14:1.0 17:1.0 20:1.0 23:1.0 26:1.0 28:1.0 29:1.0 31:1.0 33:1.0 37:1.0 38:0.95 48:0.09481334586697601 50:1.0 54:1.0 55:1.0 56:1.0 63:1.0 70:1.0 
2.0 1:0.35 2:0.4 11:1.0 14:1.0 21:1.0 23:1.0 26:1.0 28:1.0 29:1.0 34:1.0 37:1.0 38:0.65 44:1.0 48:0.38266819711903494 57:1.0 63:1.0 65:1.0 80:1.0 119:1.0 120:1.0 132:1.0 184:1.0 
0.20392240982552853 1:0.08333333333333333 2:0.1 5:1.0 11:1.0 14:1.0 17:1.0 20:1.0 23:1.0 26:1.0 29:1.0 31:1.0 33:1.0 37:1.0 38:0.9 40:1.0 48:0.09481334586697601 50:1.0 54:1.0 55:1.0 56:1.0 63:1.0 70:1.0 87:1.0 121:1.0 
0.49312989570300736 1:0.11833333333333333 2:0.1 3:1.0 4:1.0 5:1.0 6:1.0 11:1.0 14:1.0 17:1.0 19:1.0 20:1.0 21:1.0 23:1.0 26:1.0 29:1.0 33:1.0 37:1.0 38:1.0 40:1.0 48:1.0 50:1.0 54:1.0 55:1.0 56:1.0 63:1.0 70:1.0 87:1.0 121:1.0 
2.0 1:0.08333333333333333 2:0.15 3:1.0 4:1.0 5:1.0 6:1.0 11:1.0 14:1.0 17:1.0 19:1.0 20:1.0 21:1.0 23:1.0 26:1.0 28:1.0 29:1.0 35:1.0 37:1.0 38:0.55 48:0.9999999999999998 52:1.0 54:1.0 55:1.0 56:1.0 63:1.0 70:1.0 80:1.0 115:1.0 
0.08951358427607965 1:0.09166666666666666 2:0.15 3:1.0 4:1.0 5:1.0 6:1.0 9:1.0 11:1.0 14:1.0 17:1.0 19:1.0 20:1.0 21:1.0 22:1.0 26:1.0 28:1.0 29:1.0 30:1.0 31:1.0 36:1.0 37:1.0 38:0.75 43:1.0 44:1.0 48:0.9999999999999999 53:1.0 54:1.0 55:1.0 56:1.0 63:1.0 65:1.0 70:1.0 80:1.0 118:1.0 137:1.0 138:1.0 
0.4816596729450444 1:0.25666666666666665 2:0.3 5:1.0 6:1.0 11:1.0 14:1.0 17:1.0 19:1.0 20:1.0 21:1.0 24:1.0 26:1.0 28:1.0 29:1.0 30:1.0 33:1.0 37:1.0 38:0.55 48:1.0 50:1.0 54:1.0 55:1.0 56:1.0 65:1.0 70:1.0 81:1.0 119:1.0 120:1.0 126:1.0 145:1.0 
2.0 1:0.16333333333333333 2:0.25 4:1.0 11:1.0 14:1.0 17:1.0 19:1.0 20:1.0 21:1.0 23:1.0 26:1.0 28:1.0 29:1.0 34:1.0 37:1.0 38:0.9 43:1.0 44:1.0 48:0.3232986047034241 51:1.0 54:1.0 55:1.0 56:1.0 57:1.0 63:1.0 65:1.0 87:1.0 118:1.0 119:1.0 120:1.0 132:1.0 145:1.0 184:1.0 
2.0 1:0.5183333333333333 2:0.65 11:1.0 14:1.0 21:1.0 23:1.0 26:1.0 28:1.0 29:1.0 34:1.0 37:1.0 38:0.4 44:1.0 48:0.2953411739462861 65:1.0 80:1.0 119:1.0 120:1.0 145:1.0 
0.39697308516570223 1:0.08 2:0.1 3:1.0 4:1.0 5:1.0 6:1.0 9:1.0 11:1.0 14:1.0 17:1.0 19:1.0 20:1.0 21:1.0 22:1.0 26:1.0 28:1.0 29:1.0 30:1.0 31:1.0 36:1.0 37:1.0 38:0.6 43:1.0 44:1.0 48:0.9999999999999999 53:1.0 54:1.0 55:1.0 56:1.0 65:1.0 80:1.0 118:1.0 119:1.0 120:1.0 137:1.0 138:1.0 145:1.0 
2.0 1:0.14666666666666667 2:0.15 12:1.0 14:1.0 20:1.0 21:1.0 23:1.0 26:1.0 28:1.0 29:1.0 35:1.0 37:1.0 38:0.45 44:1.0 48:0.19416087819289363 65:1.0 80:1.0 81:1.0 119:1.0 120:1.0 145:1.0 
2.0 1:0.24666666666666667 2:0.3 12:1.0 14:1.0 20:1.0 21:1.0 23:1.0 26:1.0 28:1.0 29:1.0 35:1.0 37:1.0 38:0.85 44:1.0 48:0.19416087819289363 63:1.0 65:1.0 70:1.0 81:1.0 87:1.0 119:1.0 120:1.0 145:1.0 
2.0 1:0.028333333333333332 2:0.1 9:1.0 12:1.0 14:1.0 21:1.0 24:1.0 26:1.0 28:1.0 29:1.0 31:1.0 35:1.0 37:1.0 38:0.55 43:1.0 48:0.18648102475338943 65:1.0 81:1.0 100:1.0 101:1.0 118:1.0 119:1.0 120:1.0 145:1.0 174:1.0 
2.0 1:0.18333333333333332 2:0.25 9:1.0 11:1.0 14:1.0 21:1.0 24:1.0 26:1.0 28:1.0 29:1.0 35:1.0 37:1.0 38:0.25 48:0.2288420000521522 65:1.0 80:1.0 81:1.0 159:1.0 
2.0 1:0.2833333333333333 2:0.4 9:1.0 11:1.0 14:1.0 21:1.0 24:1.0 26:1.0 28:1.0 29:1.0 35:1.0 37:1.0 38:0.65 48:0.2288420000521522 63:1.0 65:1.0 70:1.0 81:1.0 100:1.0 101:1.0 174:1.0 
0.06417356275551359 1:0.11166666666666666 2:0.15 11:1.0 14:1.0 17:1.0 19:1.0 20:1.0 21:1.0 23:1.0 26:1.0 28:1.0 29:1.0 34:1.0 37:1.0 38:0.9 43:1.0 48:0.5167834559809643 51:1.0 54:1.0 55:1.0 56:1.0 63:1.0 65:1.0 70:1.0 75:1.0 79:1.0 81:1.0 83:1.0 99:1.0 100:1.0 101:1.0 118:1.0 119:1.0 120:1.0 143:1.0 145:1.0 151:1.0 174:1.0 
1.0545262043510053 1:0.28833333333333333 2:0.4 11:1.0 14:1.0 17:1.0 19:1.0 20:1.0 21:1.0 23:1.0 26:1.0 28:1.0 29:1.0 34:1.0 37:1.0 38:1.15 43:1.0 48:0.5194104186764964 51:1.0 54:1.0 55:1.0 56:1.0 57:1.0 63:1.0 65:1.0 70:1.0 75:1.0 79:1.0 81:1.0 83:1.0 99:1.0 100:1.0 101:1.0 118:1.0 119:1.0 120:1.0 132:1.0 143:1.0 151:1.0 174:1.0 184:1.0 
2.0 1:0.6433333333333333 2:0.8 11:1.0 14:1.0 21:1.0 23:1.0 26:1.0 28:1.0 29:1.0 34:1.0 37:1.0 38:0.65 48:0.3729858929399036 63:1.0 65:1.0 70:1.0 75:1.0 79:1.0 80:1.0 81:1.0 83:1.0 99:1.0 143:1.0 151:1.0 159:1.0 
2.0 1:0.065 2:0.15 11:1.0 14:1.0 21:1.0 23:1.0 26:1.0 28:1.0 29:1.0 31:1.0 34:1.0 37:1.0 38:0.65 48:0.3729858929399036 63:1.0 65:1.0 70:1.0 79:1.0 80:1.0 81:1.0 83:1.0 89:1.0 90:1.0 99:1.0 103:1.0 115:1.0 133:1.0 143:1.0 
2.0 1:0.17833333333333334 2:0.3 11:1.0 14:1.0 21:1.0 23:1.0 26:1.0 28:1.0 29:1.0 34:1.0 37:1.0 38:0.4 43:1.0 48:0.2953411739462861 65:1.0 80:1.0 115:1.0 118:1.0 119:1.0 120:1.0 145:1.0 
2.0 1:0.355 2:0.55 11:1.0 14:1.0 21:1.0 23:1.0 26:1.0 28:1.0 29:1.0 34:1.0 37:1.0 38:0.65 43:1.0 48:0.38266819711903494 57:1.0 63:1.0 65:1.0 80:1.0 115:1.0 118:1.0 119:1.0 120:1.0 132:1.0 184:1.0 
0.05436638507458054 1:0.7116666666666667 2:0.95 3:1.0 4:1.0 5:1.0 6:1.0 11:1.0 14:1.0 17:1.0 19:1.0 20:1.0 21:1.0 23:1.0 26:1.0 28:1.0 29:1.0 34:1.0 37:1.0 38:0.25 43:1.0 44:1.0 48:0.9999999999999998 51:1.0 54:1.0 55:1.0 56:1.0 65:1.0 105:1.0 118:1.0 
0.33538649017118793 1:0.7133333333333334 2:0.95 3:1.0 4:1.0 5:1.0 6:1.0 11:1.0 14:1.0 17:1.0 19:1.0 20:1.0 21:1.0 23:1.0 26:1.0 28:1.0 29:1.0 33:1.0 37:1.0 38:0.35 48:0.9999999999999999 50:1.0 54:1.0 55:1.0 56:1.0 65:1.0 81:1.0 105:1.0 157:1.0 
1.9355900439890834 1:0.2733333333333333 2:0.6 5:1.0 11:1.0 14:1.0 20:1.0 21:1.0 23:1.0 26:1.0 28:1.0 29:1.0 34:1.0 37:1.0 38:0.55 40:1.0 43:1.0 48:0.5321906081517007 63:1.0 65:1.0 70:1.0 78:1.0 93:1.0 118:1.0 121:1.0 142:1.0 179:1.0 
2.0 1:0.49 2:0.8 11:1.0 14:1.0 21:1.0 23:1.0 26:1.0 29:1.0 34:1.0 37:1.0 38:0.45 48:0.20962548113188612 57:1.0 63:1.0 65:1.0 80:1.0 81:1.0 184:1.0 
2.0 1:0.5616666666666666 2:0.95 11:1.0 14:1.0 21:1.0 23:1.0 26:1.0 29:1.0 34:1.0 37:1.0 38:0.95 48:0.2700607431015915 57:1.0 63:1.0 65:1.0 70:1.0 79:1.0 81:1.0 83:1.0 93:1.0 99:1.0 133:1.0 143:1.0 179:1.0 184:1.0 
2.0 1:0.385 2:0.95 11:1.0 14:1.0 21:1.0 23:1.0 26:1.0 28:1.0 29:1.0 34:1.0 37:1.0 38:0.6 48:0.31278902192507785 57:1.0 63:1.0 65:1.0 70:1.0 81:1.0 82:1.0 87:1.0 88:1.0 184:1.0 
2.0 1:0.028333333333333332 2:0.05 11:1.0 14:1.0 17:1.0 19:1.0 20:1.0 21:1.0 23:1.0 26:1.0 28:1.0 29:1.0 31:1.0 34:1.0 37:1.0 38:0.35 40:1.0 48:0.6182529925549455 51:1.0 54:1.0 55:1.0 56:1.0 63:1.0 70:1.0 82:1.0 87:1.0 88:1.0 121:1.0 
2.0 1:0.42 2:1.0 11:1.0 14:1.0 21:1.0 23:1.0 26:1.0 28:1.0 29:1.0 34:1.0 37:1.0 38:0.5 40:1.0 48:0.2700607431015915 57:1.0 63:1.0 65:1.0 70:1.0 81:1.0 82:1.0 87:1.0 88:1.0 121:1.0 184:1.0 
1.8710519493563587 1:0.08 2:0.25 4:1.0 11:1.0 14:1.0 17:1.0 20:1.0 23:1.0 26:1.0 28:1.0 29:1.0 31:1.0 33:1.0 37:1.0 38:0.9 43:1.0 44:1.0 48:0.18906421294686326 50:1.0 54:1.0 57:1.0 63:1.0 65:1.0 70:1.0 82:1.0 83:1.0 87:1.0 111:1.0 118:1.0 143:1.0 184:1.0 
1.091826280342995 1:0.035 2:0.05 3:1.0 4:1.0 5:1.0 6:1.0 11:1.0 14:1.0 17:1.0 19:1.0 20:1.0 21:1.0 23:1.0 26:1.0 28:1.0 29:1.0 31:1.0 34:1.0 38:0.35 48:1.0 51:1.0 54:1.0 55:1.0 56:1.0 57:1.0 63:1.0 65:1.0 74:1.0 75:1.0 76:1.0 79:1.0 131:1.0 150:1.0 151:1.0 162:1.0 174:1.0 178:1.0 184:1.0 
2.0 1:0.01 2:0.05 5:1.0 13:1.0 16:1.0 20:1.0 23:1.0 26:1.0 28:1.0 29:1.0 37:1.0 38:0.25 39:1.0 42:1.0 46:1.0 48:1.0 63:1.0 87:1.0 148:1.0 
2.0 1:0.20666666666666667 2:0.35 7:1.0 13:1.0 16:1.0 23:1.0 27:1.0 28:1.0 37:1.0 38:0.95 43:1.0 63:1.0 65:1.0 70:1.0 83:1.0 116:1.0 117:1.0 118:1.0 143:1.0 
2.0 1:0.22166666666666668 2:0.35 7:1.0 13:1.0 16:1.0 23:1.0 27:1.0 28:1.0 37:1.0 38:0.85 43:1.0 63:1.0 65:1.0 70:1.0 83:1.0 116:1.0 117:1.0 118:1.0 143:1.0 
1.7815017044827988 1:0.23333333333333334 2:0.35 5:1.0 13:1.0 14:1.0 20:1.0 23:1.0 26:1.0 28:1.0 29:1.0 34:1.0 37:1.0 38:0.6 39:1.0 48:0.2453306592730037 63:1.0 70:1.0 116:1.0 117:1.0 122:1.0 
1.0549549658952422 1:0.06 2:0.15 5:1.0 13:1.0 14:1.0 17:1.0 19:1.0 20:1.0 21:1.0 23:1.0 26:1.0 28:1.0 29:1.0 34:1.0 37:1.0 38:0.3 44:1.0 48:0.5894283134599434 51:1.0 54:1.0 55:1.0 56:1.0 57:1.0 63:1.0 65:1.0 70:1.0 97:1.0 111:1.0 184:1.0 
2.0 1:0.2733333333333333 2:0.5 7:1.0 11:1.0 16:1.0 23:1.0 27:1.0 28:1.0 37:1.0 38:1.2 43:1.0 44:1.0 57:1.0 63:1.0 65:1.0 70:1.0 82:1.0 83:1.0 87:1.0 88:1.0 97:1.0 111:1.0 116:1.0 117:1.0 118:1.0 143:1.0 184:1.0 
2.0 1:0.28833333333333333 2:0.5 7:1.0 11:1.0 16:1.0 23:1.0 27:1.0 28:1.0 37:1.0 38:1.1 43:1.0 44:1.0 57:1.0 63:1.0 65:1.0 70:1.0 82:1.0 83:1.0 87:1.0 88:1.0 97:1.0 111:1.0 116:1.0 117:1.0 118:1.0 143:1.0 184:1.0 
2.0 1:0.3 2:0.5 5:1.0 11:1.0 14:1.0 20:1.0 23:1.0 26:1.0 28:1.0 29:1.0 34:1.0 37:1.0 38:0.85 39:1.0 44:1.0 48:0.4055306406324733 57:1.0 63:1.0 65:1.0 70:1.0 82:1.0 87:1.0 88:1.0 97:1.0 111:1.0 116:1.0 117:1.0 122:1.0 184:1.0 
0.526880809805584 1:0.03833333333333333 2:0.05 3:1.0 4:1.0 5:1.0 6:1.0 9:1.0 11:1.0 14:1.0 17:1.0 19:1.0 20:1.0 21:1.0 22:1.0 26:1.0 28:1.0 29:1.0 30:1.0 31:1.0 34:1.0 37:1.0 38:1.0 42:1.0 43:1.0 46:1.0 48:1.0 51:1.0 54:1.0 55:1.0 56:1.0 63:1.0 65:1.0 70:1.0 82:1.0 83:1.0 87:1.0 118:1.0 142:1.0 143:1.0 
0.8182093617057474 1:0.19 2:0.2 5:1.0 11:1.0 14:1.0 17:1.0 19:1.0 20:1.0 21:1.0 23:1.0 26:1.0 29:1.0 34:1.0 37:1.0 38:0.75 43:1.0 48:0.5894283134599434 51:1.0 54:1.0 55:1.0 56:1.0 57:1.0 63:1.0 65:1.0 70:1.0 81:1.0 82:1.0 83:1.0 87:1.0 97:1.0 110:1.0 118:1.0 143:1.0 184:1.0 
2.0 1:0.47 2:0.7 7:1.0 11:1.0 16:1.0 23:1.0 27:1.0 37:1.0 38:1.4 43:1.0 63:1.0 65:1.0 70:1.0 81:1.0 82:1.0 83:1.0 87:1.0 116:1.0 117:1.0 118:1.0 143:1.0 
2.0 1:0.485 2:0.7 7:1.0 11:1.0 16:1.0 23:1.0 27:1.0 37:1.0 38:1.3 43:1.0 63:1.0 65:1.0 70:1.0 81:1.0 82:1.0 83:1.0 87:1.0 116:1.0 117:1.0 118:1.0 143:1.0 
1.5257425358264807 1:0.49666666666666665 2:0.7 5:1.0 11:1.0 14:1.0 20:1.0 23:1.0 26:1.0 29:1.0 34:1.0 37:1.0 38:1.05 39:1.0 48:0.2453306592730037 63:1.0 65:1.0 70:1.0 81:1.0 82:1.0 83:1.0 87:1.0 116:1.0 117:1.0 122:1.0 143:1.0 
0.27792526260198774 1:0.05333333333333334 2:0.05 5:1.0 6:1.0 11:1.0 14:1.0 17:1.0 19:1.0 20:1.0 21:1.0 23:1.0 26:1.0 28:1.0 29:1.0 31:1.0 34:1.0 37:1.0 38:0.8 44:1.0 48:1.0 51:1.0 54:1.0 55:1.0 56:1.0 63:1.0 65:1.0 70:1.0 81:1.0 83:1.0 87:1.0 143:1.0 157:1.0 
0.33362754768882913 1:0.24833333333333332 2:0.25 5:1.0 11:1.0 14:1.0 17:1.0 19:1.0 20:1.0 21:1.0 23:1.0 26:1.0 28:1.0 29:1.0 34:1.0 37:1.0 38:0.6 43:1.0 44:1.0 48:0.5894283134599434 51:1.0 54:1.0 55:1.0 56:1.0 57:1.0 63:1.0 65:1.0 70:1.0 87:1.0 97:1.0 110:1.0 118:1.0 184:1.0 
0.5870325301651261 1:0.315 2:0.4 3:1.0 4:1.0 5:1.0 6:1.0 13:1.0 14:1.0 17:1.0 19:1.0 20:1.0 21:1.0 23:1.0 26:1.0 28:1.0 29:1.0 34:1.0 37:1.0 38:0.35 44:1.0 48:1.0 51:1.0 54:1.0 55:1.0 56:1.0 65:1.0 
2.0 1:0.5283333333333333 2:0.75 7:1.0 11:1.0 16:1.0 23:1.0 27:1.0 28:1.0 37:1.0 38:1.25 43:1.0 44:1.0 63:1.0 65:1.0 70:1.0 83:1.0 87:1.0 116:1.0 117:1.0 118:1.0 143:1.0 
2.0 1:0.5433333333333333 2:0.75 7:1.0 11:1.0 16:1.0 23:1.0 27:1.0 28:1.0 37:1.0 38:1.15 43:1.0 44:1.0 63:1.0 65:1.0 70:1.0 83:1.0 87:1.0 116:1.0 117:1.0 118:1.0 143:1.0 
1.4270636137148014 1:0.555 2:0.75 5:1.0 11:1.0 14:1.0 20:1.0 23:1.0 26:1.0 28:1.0 29:1.0 34:1.0 37:1.0 38:0.9 39:1.0 44:1.0 48:0.2453306592730037 63:1.0 65:1.0 70:1.0 87:1.0 116:1.0 117:1.0 122:1.0 
2.0 1:0.115 2:0.1 11:1.0 14:1.0 21:1.0 23:1.0 26:1.0 28:1.0 29:1.0 31:1.0 35:1.0 37:1.0 38:0.75 48:0.10489205904892723 57:1.0 63:1.0 65:1.0 70:1.0 75:1.0 79:1.0 87:1.0 151:1.0 184:1.0 
2.0 1:0.035 2:0.15 9:1.0 11:1.0 14:1.0 21:1.0 24:1.0 26:1.0 28:1.0 29:1.0 33:1.0 37:1.0 38:0.2 42:1.0 46:1.0 48:0.3835341384975958 179:1.0 
1.3806770962826915 1:0.03333333333333333 2:0.05 7:1.0 9:1.0 11:1.0 16:1.0 24:1.0 27:1.0 28:1.0 38:0.45 44:1.0 63:1.0 65:1.0 81:1.0 82:1.0 86:1.0 87:1.0 94:1.0 139:1.0 145:1.0 170:1.0 
1.5550400414761436 1:0.10333333333333333 2:0.25 9:1.0 11:1.0 14:1.0 21:1.0 24:1.0 26:1.0 28:1.0 29:1.0 33:1.0 37:1.0 38:0.3 44:1.0 48:0.3835341384975958 63:1.0 65:1.0 78:1.0 94:1.0 170:1.0 179:1.0 
0.004407504391757992 1:0.02666666666666667 2:0.05 3:1.0 4:1.0 5:1.0 6:1.0 9:1.0 11:1.0 14:1.0 17:1.0 19:1.0 20:1.0 21:1.0 22:1.0 26:1.0 28:1.0 29:1.0 30:1.0 31:1.0 33:1.0 37:1.0 38:0.75 43:1.0 44:1.0 48:1.0000000000000002 50:1.0 54:1.0 55:1.0 56:1.0 63:1.0 65:1.0 82:1.0 87:1.0 94:1.0 112:1.0 116:1.0 117:1.0 118:1.0 170:1.0 
1.1963392460991928 1:0.065 2:0.1 7:1.0 9:1.0 11:1.0 16:1.0 24:1.0 27:1.0 28:1.0 38:0.75 44:1.0 63:1.0 65:1.0 81:1.0 82:1.0 87:1.0 94:1.0 112:1.0 116:1.0 117:1.0 139:1.0 145:1.0 170:1.0 
0.332701294832526 1:0.09166666666666666 2:0.15 4:1.0 5:1.0 9:1.0 11:1.0 14:1.0 17:1.0 19:1.0 20:1.0 21:1.0 22:1.0 26:1.0 28:1.0 29:1.0 30:1.0 33:1.0 37:1.0 38:0.65 41:1.0 44:1.0 45:1.0 48:1.0000000000000002 50:1.0 54:1.0 55:1.0 56:1.0 63:1.0 65:1.0 82:1.0 87:1.0 94:1.0 112:1.0 116:1.0 117:1.0 170:1.0 
0.24669750733976067 1:0.135 2:0.3 9:1.0 11:1.0 14:1.0 21:1.0 24:1.0 26:1.0 28:1.0 29:1.0 33:1.0 37:1.0 38:0.6 44:1.0 48:0.3835341384975958 63:1.0 65:1.0 78:1.0 94:1.0 116:1.0 117:1.0 170:1.0 179:1.0 
2.0 1:0.05333333333333334 2:0.1 11:1.0 14:1.0 21:1.0 23:1.0 26:1.0 28:1.0 29:1.0 35:1.0 37:1.0 38:0.55 43:1.0 44:1.0 48:0.11314796002646785 57:1.0 63:1.0 65:1.0 70:1.0 82:1.0 83:1.0 87:1.0 110:1.0 118:1.0 143:1.0 184:1.0 
2.0 1:0.025 2:0.1 11:1.0 14:1.0 21:1.0 23:1.0 26:1.0 29:1.0 31:1.0 35:1.0 37:1.0 38:0.7 43:1.0 44:1.0 48:0.12042005751925793 57:1.0 63:1.0 65:1.0 70:1.0 83:1.0 87:1.0 111:1.0 118:1.0 143:1.0 184:1.0 
1.892879808381871 1:0.08166666666666667 2:0.2 11:1.0 14:1.0 17:1.0 19:1.0 20:1.0 21:1.0 23:1.0 26:1.0 29:1.0 35:1.0 37:1.0 38:0.7 43:1.0 44:1.0 48:0.42510673662239684 52:1.0 54:1.0 55:1.0 56:1.0 57:1.0 63:1.0 65:1.0 87:1.0 110:1.0 111:1.0 118:1.0 184:1.0 
2.0 1:0.08166666666666667 2:0.15 9:1.0 13:1.0 16:1.0 24:1.0 26:1.0 28:1.0 29:1.0 37:1.0 38:0.95 40:1.0 43:1.0 57:1.0 63:1.0 65:1.0 70:1.0 87:1.0 110:1.0 116:1.0 117:1.0 118:1.0 121:1.0 184:1.0 
1.7872009085716745 1:0.35 2:0.65 11:1.0 14:1.0 21:1.0 24:1.0 26:1.0 28:1.0 29:1.0 30:1.0 31:1.0 33:1.0 37:1.0 38:0.6 43:1.0 48:0.3835341384975958 63:1.0 65:1.0 76:1.0 94:1.0 116:1.0 117:1.0 118:1.0 170:1.0 174:1.0 
2.0 1:0.38166666666666665 2:0.7 11:1.0 14:1.0 21:1.0 24:1.0 26:1.0 28:1.0 29:1.0 30:1.0 33:1.0 37:1.0 38:0.3 43:1.0 48:0.3835341384975958 63:1.0 65:1.0 76:1.0 94:1.0 118:1.0 170:1.0 174:1.0 
2.0 1:0.42 2:0.75 7:1.0 11:1.0 16:1.0 23:1.0 27:1.0 28:1.0 38:0.3 65:1.0 81:1.0 145:1.0 174:1.0 
2.0 1:0.44666666666666666 2:0.8 11:1.0 14:1.0 21:1.0 24:1.0 26:1.0 28:1.0 29:1.0 30:1.0 33:1.0 37:1.0 38:0.2 41:1.0 45:1.0 48:0.3835341384975958 174:1.0 
0.7954255667288825 1:0.49666666666666665 2:0.95 3:1.0 4:1.0 5:1.0 6:1.0 11:1.0 14:1.0 17:1.0 19:1.0 20:1.0 21:1.0 23:1.0 26:1.0 28:1.0 29:1.0 33:1.0 37:1.0 38:0.15 50:1.0 54:1.0 55:1.0 56:1.0 105:1.0 134:1.0 163:1.0 
1.755404809442581 1:0.015 2:0.05 12:1.0 14:1.0 17:1.0 20:1.0 21:1.0 23:1.0 26:1.0 29:1.0 31:1.0 33:1.0 37:1.0 38:0.55 39:1.0 40:1.0 48:0.7238153829713981 50:1.0 54:1.0 63:1.0 70:1.0 82:1.0 87:1.0 88:1.0 97:1.0 121:1.0 122:1.0 144:1.0 
1.3947892373638804 1:0.06666666666666667 2:0.2 12:1.0 14:1.0 17:1.0 20:1.0 21:1.0 23:1.0 26:1.0 29:1.0 33:1.0 37:1.0 38:0.6 40:1.0 48:0.7238153829713981 50:1.0 54:1.0 63:1.0 70:1.0 82:1.0 87:1.0 88:1.0 97:1.0 121:1.0 142:1.0 144:1.0 
1.7555049904311537 1:0.28833333333333333 2:0.65 5:1.0 11:1.0 14:1.0 17:1.0 19:1.0 20:1.0 21:1.0 23:1.0 26:1.0 28:1.0 29:1.0 34:1.0 37:1.0 38:0.3 48:0.41585857598591003 51:1.0 54:1.0 55:1.0 56:1.0 63:1.0 70:1.0 78:1.0 179:1.0 
2.0 1:0.325 2:0.75 11:1.0 14:1.0 17:1.0 21:1.0 23:1.0 26:1.0 28:1.0 29:1.0 33:1.0 37:1.0 38:0.4 44:1.0 50:1.0 57:1.0 63:1.0 65:1.0 78:1.0 81:1.0 149:1.0 179:1.0 184:1.0 
2.0 1:0.125 2:0.25 11:1.0 14:1.0 20:1.0 21:1.0 23:1.0 26:1.0 29:1.0 33:1.0 37:1.0 38:0.6 39:1.0 48:0.6404566936123347 63:1.0 70:1.0 87:1.0 122:1.0 142:1.0 
2.0 1:0.12 2:0.15 11:1.0 14:1.0 21:1.0 23:1.0 26:1.0 28:1.0 29:1.0 34:1.0 37:1.0 38:0.65 48:0.20994086559676076 63:1.0 70:1.0 75:1.0 79:1.0 87:1.0 114:1.0 116:1.0 117:1.0 151:1.0 
2.0 1:0.41333333333333333 2:0.8 11:1.0 14:1.0 21:1.0 23:1.0 26:1.0 28:1.0 29:1.0 34:1.0 37:1.0 38:0.5 48:0.2330839967996719 63:1.0 70:1.0 75:1.0 79:1.0 114:1.0 116:1.0 117:1.0 151:1.0 179:1.0 
0.13451610171026546 1:0.18666666666666668 2:0.4 5:1.0 11:1.0 14:1.0 17:1.0 19:1.0 20:1.0 21:1.0 23:1.0 26:1.0 28:1.0 29:1.0 31:1.0 33:1.0 37:1.0 38:0.2 43:1.0 48:0.6075973418628428 50:1.0 54:1.0 55:1.0 56:1.0 65:1.0 84:1.0 85:1.0 118:1.0 176:1.0 
1.7195959322869645 1:0.21 2:0.45 3:1.0 4:1.0 5:1.0 6:1.0 11:1.0 14:1.0 17:1.0 19:1.0 20:1.0 21:1.0 23:1.0 26:1.0 28:1.0 29:1.0 33:1.0 37:1.0 38:0.35 43:1.0 44:1.0 48:1.0 50:1.0 54:1.0 55:1.0 56:1.0 65:1.0 84:1.0 85:1.0 105:1.0 118:1.0 176:1.0 
1.705431227273659 1:0.21 2:0.45 3:1.0 4:1.0 5:1.0 6:1.0 11:1.0 14:1.0 17:1.0 19:1.0 20:1.0 21:1.0 23:1.0 26:1.0 28:1.0 29:1.0 34:1.0 37:1.0 38:0.85 48:1.0 51:1.0 54:1.0 55:1.0 56:1.0 65:1.0 81:1.0 84:1.0 85:1.0 105:1.0 119:1.0 120:1.0 157:1.0 165:1.0 166:1.0 176:1.0 
0.8220274147485718 1:0.20666666666666667 2:0.45 3:1.0 4:1.0 5:1.0 6:1.0 11:1.0 14:1.0 17:1.0 19:1.0 20:1.0 21:1.0 23:1.0 26:1.0 28:1.0 29:1.0 34:1.0 37:1.0 38:0.15 48:1.0000000000000002 51:1.0 54:1.0 55:1.0 56:1.0 105:1.0 134:1.0 163:1.0 
2.0 1:0.155 2:0.4 5:1.0 11:1.0 14:1.0 17:1.0 20:1.0 21:1.0 23:1.0 26:1.0 28:1.0 29:1.0 34:1.0 37:1.0 38:0.45 48:0.5214144495631853 51:1.0 54:1.0 55:1.0 56:1.0 65:1.0 81:1.0 84:1.0 85:1.0 119:1.0 120:1.0 157:1.0 165:1.0 166:1.0 176:1.0 
2.0 1:0.37166666666666665 2:0.85 5:1.0 11:1.0 14:1.0 17:1.0 20:1.0 21:1.0 23:1.0 26:1.0 28:1.0 29:1.0 34:1.0 37:1.0 38:0.45 48:0.5214144495631853 51:1.0 54:1.0 55:1.0 56:1.0 65:1.0 81:1.0 84:1.0 85:1.0 119:1.0 120:1.0 157:1.0 165:1.0 166:1.0 176:1.0 
0.9679534509846573 1:0.2833333333333333 2:0.65 5:1.0 11:1.0 14:1.0 17:1.0 19:1.0 20:1.0 21:1.0 23:1.0 26:1.0 28:1.0 29:1.0 34:1.0 37:1.0 38:0.45 48:0.6966122312644736 51:1.0 54:1.0 55:1.0 56:1.0 65:1.0 81:1.0 84:1.0 85:1.0 119:1.0 120:1.0 157:1.0 165:1.0 166:1.0 176:1.0 
0.716265711152418 1:0.075 2:0.1 5:1.0 6:1.0 10:1.0 11:1.0 14:1.0 17:1.0 20:1.0 24:1.0 26:1.0 28:1.0 29:1.0 30:1.0 36:1.0 37:1.0 38:0.65 43:1.0 44:1.0 48:0.9999999999999998 53:1.0 54:1.0 55:1.0 56:1.0 57:1.0 63:1.0 65:1.0 70:1.0 82:1.0 83:1.0 87:1.0 118:1.0 119:1.0 120:1.0 132:1.0 143:1.0 184:1.0 
1.9814124169615963 1:0.08833333333333333 2:0.35 5:1.0 11:1.0 14:1.0 19:1.0 20:1.0 21:1.0 23:1.0 26:1.0 28:1.0 29:1.0 33:1.0 38:0.35 48:0.9254373472305601 63:1.0 65:1.0 70:1.0 76:1.0 81:1.0 100:1.0 101:1.0 174:1.0 
0.5246466144915034 1:0.056666666666666664 2:0.15 5:1.0 11:1.0 14:1.0 17:1.0 19:1.0 20:1.0 21:1.0 23:1.0 26:1.0 28:1.0 29:1.0 31:1.0 33:1.0 37:1.0 38:0.4 44:1.0 48:0.7470696791367607 50:1.0 54:1.0 55:1.0 56:1.0 65:1.0 81:1.0 105:1.0 119:1.0 120:1.0 157:1.0 
2.0 1:0.04 2:0.1 4:1.0 11:1.0 14:1.0 17:1.0 19:1.0 20:1.0 21:1.0 23:1.0 26:1.0 28:1.0 29:1.0 34:1.0 37:1.0 38:0.3 39:1.0 42:1.0 48:0.6094435779382684 51:1.0 54:1.0 55:1.0 56:1.0 63:1.0 70:1.0 122:1.0 
2.0 1:0.17833333333333334 2:0.35 4:1.0 5:1.0 13:1.0 14:1.0 17:1.0 20:1.0 21:1.0 23:1.0 26:1.0 28:1.0 29:1.0 31:1.0 33:1.0 37:1.0 38:0.1 42:1.0 46:1.0 48:0.903165416685343 50:1.0 54:1.0 55:1.0 56:1.0 
2.0 1:0.12 2:0.4 5:1.0 13:1.0 14:1.0 17:1.0 20:1.0 21:1.0 23:1.0 26:1.0 28:1.0 29:1.0 33:1.0 37:1.0 38:0.35 48:0.4905637930174924 50:1.0 54:1.0 55:1.0 56:1.0 57:1.0 63:1.0 65:1.0 81:1.0 157:1.0 184:1.0 
2.0 1:0.01 2:0.05 7:1.0 11:1.0 16:1.0 23:1.0 27:1.0 37:1.0 38:0.2 41:1.0 44:1.0 45:1.0 65:1.0 100:1.0 101:1.0 102:1.0 174:1.0 
1.1713036798972531 1:0.021666666666666667 2:0.1 11:1.0 14:1.0 19:1.0 20:1.0 21:1.0 23:1.0 26:1.0 29:1.0 31:1.0 34:1.0 37:1.0 38:0.2 41:1.0 44:1.0 45:1.0 48:0.5830747760142609 65:1.0 100:1.0 101:1.0 102:1.0 174:1.0 
2.0 1:0.095 2:0.3 5:1.0 11:1.0 14:1.0 20:1.0 21:1.0 23:1.0 26:1.0 29:1.0 34:1.0 37:1.0 38:0.15 44:1.0 48:0.5875940222938997 56:1.0 65:1.0 
1.184360717940597 1:0.016666666666666666 2:0.1 11:1.0 14:1.0 19:1.0 20:1.0 21:1.0 23:1.0 26:1.0 28:1.0 29:1.0 31:1.0 34:1.0 37:1.0 38:0.2 42:1.0 43:1.0 46:1.0 48:0.5830747760142609 65:1.0 91:1.0 93:1.0 118:1.0 179:1.0 
2.0 1:0.03333333333333333 2:0.15 7:1.0 11:1.0 16:1.0 23:1.0 27:1.0 28:1.0 37:1.0 38:0.15 41:1.0 42:1.0 45:1.0 46:1.0 47:1.0 68:1.0 87:1.0 148:1.0 177:1.0 
0.7248849686787131 1:0.045 2:0.2 3:1.0 4:1.0 5:1.0 6:1.0 11:1.0 14:1.0 17:1.0 19:1.0 20:1.0 21:1.0 23:1.0 26:1.0 28:1.0 29:1.0 34:1.0 37:1.0 38:0.15 41:1.0 42:1.0 45:1.0 46:1.0 47:1.0 48:1.0 51:1.0 54:1.0 55:1.0 56:1.0 68:1.0 87:1.0 148:1.0 177:1.0 
0.4336794802182623 1:0.03166666666666667 2:0.05 3:1.0 4:1.0 5:1.0 6:1.0 11:1.0 14:1.0 17:1.0 19:1.0 20:1.0 21:1.0 23:1.0 26:1.0 28:1.0 29:1.0 34:1.0 37:1.0 38:0.2 41:1.0 42:1.0 45:1.0 46:1.0 47:1.0 48:1.0 51:1.0 54:1.0 55:1.0 56:1.0 68:1.0 87:1.0 177:1.0 
0.31006543538978804 1:0.05 2:0.15 11:1.0 14:1.0 19:1.0 20:1.0 21:1.0 23:1.0 26:1.0 28:1.0 29:1.0 34:1.0 37:1.0 38:0.25 42:1.0 43:1.0 46:1.0 48:0.5830747760142609 65:1.0 93:1.0 118:1.0 179:1.0 
2.0 1:0.06666666666666667 2:0.2 7:1.0 11:1.0 16:1.0 23:1.0 27:1.0 28:1.0 37:1.0 38:0.2 41:1.0 42:1.0 45:1.0 46:1.0 47:1.0 68:1.0 87:1.0 177:1.0 
1.3943586488762472 1:0.15166666666666667 2:0.45 11:1.0 14:1.0 19:1.0 20:1.0 21:1.0 23:1.0 26:1.0 28:1.0 29:1.0 34:1.0 37:1.0 38:0.15 42:1.0 46:1.0 48:0.6401603984492155 
0.573556335315407 1:0.056666666666666664 2:0.2 11:1.0 14:1.0 17:1.0 19:1.0 20:1.0 21:1.0 23:1.0 26:1.0 28:1.0 29:1.0 34:1.0 37:1.0 38:0.4 43:1.0 48:0.7092675921960803 51:1.0 54:1.0 55:1.0 56:1.0 63:1.0 65:1.0 70:1.0 78:1.0 81:1.0 83:1.0 93:1.0 118:1.0 143:1.0 179:1.0 
0.588421134059963 1:0.02666666666666667 2:0.05 5:1.0 9:1.0 11:1.0 14:1.0 17:1.0 19:1.0 20:1.0 21:1.0 24:1.0 26:1.0 28:1.0 29:1.0 35:1.0 37:1.0 38:0.35 40:1.0 43:1.0 48:0.2368443546430633 52:1.0 54:1.0 55:1.0 56:1.0 63:1.0 65:1.0 70:1.0 82:1.0 87:1.0 118:1.0 121:1.0 139:1.0 145:1.0 
1.5658673683626596 1:0.345 2:0.75 3:1.0 4:1.0 5:1.0 6:1.0 11:1.0 14:1.0 17:1.0 19:1.0 20:1.0 21:1.0 23:1.0 26:1.0 28:1.0 29:1.0 36:1.0 38:0.15 48:1.0000000000000002 53:1.0 54:1.0 55:1.0 56:1.0 105:1.0 134:1.0 163:1.0 
0.8215452944606845 1:0.2833333333333333 2:0.55 11:1.0 14:1.0 17:1.0 19:1.0 20:1.0 21:1.0 23:1.0 26:1.0 28:1.0 29:1.0 34:1.0 38:0.4 44:1.0 48:0.7092675921960803 51:1.0 54:1.0 55:1.0 56:1.0 63:1.0 65:1.0 70:1.0 76:1.0 81:1.0 83:1.0 100:1.0 101:1.0 143:1.0 157:1.0 174:1.0 
1.2611646691020324 1:0.11666666666666667 2:0.4 5:1.0 11:1.0 14:1.0 17:1.0 19:1.0 20:1.0 21:1.0 23:1.0 26:1.0 28:1.0 29:1.0 34:1.0 37:1.0 38:0.2 43:1.0 48:1.0 51:1.0 54:1.0 55:1.0 56:1.0 65:1.0 105:1.0 118:1.0 163:1.0 
0.7376334173423914 1:0.41 2:0.95 11:1.0 14:1.0 17:1.0 19:1.0 20:1.0 21:1.0 23:1.0 26:1.0 28:1.0 29:1.0 34:1.0 38:0.35 48:0.7092675921960803 51:1.0 54:1.0 55:1.0 56:1.0 63:1.0 65:1.0 70:1.0 76:1.0 81:1.0 83:1.0 143:1.0 157:1.0 174:1.0 
2.0 1:0.16 2:0.3 11:1.0 14:1.0 20:1.0 21:1.0 23:1.0 26:1.0 28:1.0 29:1.0 34:1.0 37:1.0 38:0.25 48:0.35919107120753035 63:1.0 70:1.0 78:1.0 179:1.0 
2.0 1:0.2866666666666667 2:0.7 11:1.0 14:1.0 20:1.0 21:1.0 23:1.0 26:1.0 28:1.0 29:1.0 34:1.0 37:1.0 38:0.3 43:1.0 48:0.35919107120753035 63:1.0 65:1.0 70:1.0 78:1.0 93:1.0 118:1.0 179:1.0 
0.009878798372766473 1:0.16833333333333333 2:0.35 5:1.0 11:1.0 14:1.0 17:1.0 19:1.0 20:1.0 21:1.0 23:1.0 26:1.0 28:1.0 29:1.0 31:1.0 33:1.0 37:1.0 38:0.5 39:1.0 48:0.5193164997010202 50:1.0 54:1.0 55:1.0 56:1.0 63:1.0 65:1.0 70:1.0 81:1.0 82:1.0 83:1.0 87:1.0 88:1.0 119:1.0 120:1.0 122:1.0 143:1.0 
0.4762412813392975 1:0.15333333333333332 2:0.3 3:1.0 4:1.0 5:1.0 6:1.0 11:1.0 14:1.0 17:1.0 19:1.0 20:1.0 21:1.0 23:1.0 26:1.0 28:1.0 29:1.0 31:1.0 34:1.0 37:1.0 38:0.9 44:1.0 48:1.0 51:1.0 54:1.0 55:1.0 56:1.0 57:1.0 63:1.0 65:1.0 70:1.0 79:1.0 82:1.0 83:1.0 87:1.0 88:1.0 119:1.0 120:1.0 133:1.0 143:1.0 184:1.0 
0.10470981541222628 1:0.0016666666666666668 2:0.05 3:1.0 4:1.0 5:1.0 6:1.0 11:1.0 14:1.0 17:1.0 19:1.0 20:1.0 21:1.0 23:1.0 26:1.0 28:1.0 29:1.0 31:1.0 34:1.0 37:1.0 38:0.55 43:1.0 48:1.0 51:1.0 54:1.0 55:1.0 56:1.0 63:1.0 65:1.0 70:1.0 75:1.0 79:1.0 83:1.0 87:1.0 118:1.0 119:1.0 120:1.0 143:1.0 148:1.0 151:1.0 160:1.0 
0.5520154272015101 1:0.15833333333333333 2:0.35 3:1.0 4:1.0 5:1.0 6:1.0 11:1.0 14:1.0 17:1.0 19:1.0 20:1.0 21:1.0 23:1.0 26:1.0 28:1.0 29:1.0 34:1.0 37:1.0 38:0.6 48:1.0 51:1.0 54:1.0 55:1.0 56:1.0 57:1.0 63:1.0 65:1.0 75:1.0 79:1.0 87:1.0 133:1.0 148:1.0 151:1.0 160:1.0 184:1.0 
0.005612668600959117 1:0.045 2:0.1 3:1.0 4:1.0 5:1.0 6:1.0 11:1.0 14:1.0 17:1.0 19:1.0 20:1.0 21:1.0 23:1.0 26:1.0 28:1.0 29:1.0 31:1.0 34:1.0 37:1.0 38:0.25 40:1.0 48:1.0 51:1.0 54:1.0 55:1.0 56:1.0 63:1.0 67:1.0 70:1.0 79:1.0 82:1.0 87:1.0 88:1.0 121:1.0 133:1.0 177:1.0 
0.9201296771191622 1:0.04833333333333333 2:0.15 3:1.0 4:1.0 5:1.0 6:1.0 11:1.0 14:1.0 17:1.0 19:1.0 20:1.0 21:1.0 23:1.0 26:1.0 28:1.0 29:1.0 34:1.0 37:1.0 38:0.55 40:1.0 43:1.0 48:1.0 51:1.0 54:1.0 55:1.0 56:1.0 63:1.0 65:1.0 70:1.0 82:1.0 83:1.0 87:1.0 88:1.0 118:1.0 119:1.0 120:1.0 121:1.0 143:1.0 
0.6873935743308442 1:0.205 2:0.45 3:1.0 4:1.0 5:1.0 6:1.0 11:1.0 14:1.0 17:1.0 19:1.0 20:1.0 21:1.0 23:1.0 26:1.0 28:1.0 29:1.0 34:1.0 37:1.0 38:0.6 40:1.0 48:1.0 51:1.0 54:1.0 55:1.0 56:1.0 57:1.0 63:1.0 65:1.0 70:1.0 79:1.0 82:1.0 87:1.0 88:1.0 121:1.0 133:1.0 184:1.0 
2.0 1:0.09166666666666666 2:0.2 9:1.0 11:1.0 14:1.0 21:1.0 24:1.0 26:1.0 28:1.0 29:1.0 31:1.0 35:1.0 37:1.0 38:0.6 44:1.0 48:0.1771071049072065 57:1.0 63:1.0 65:1.0 70:1.0 79:1.0 81:1.0 83:1.0 87:1.0 99:1.0 111:1.0 133:1.0 143:1.0 184:1.0 
2.0 1:0.09333333333333334 2:0.25 11:1.0 14:1.0 19:1.0 20:1.0 21:1.0 23:1.0 26:1.0 28:1.0 29:1.0 31:1.0 33:1.0 37:1.0 38:0.1 48:0.16274158443928063 
2.0 11:1.0 14:1.0 21:1.0 23:1.0 26:1.0 28:1.0 29:1.0 31:1.0 33:1.0 37:1.0 38:0.05 48:0.1483528654110319 173:1.0 
2.0 1:0.09833333333333333 2:0.25 11:1.0 14:1.0 17:1.0 19:1.0 20:1.0 21:1.0 23:1.0 26:1.0 28:1.0 29:1.0 33:1.0 37:1.0 38:0.1 48:0.7172370449765049 50:1.0 54:1.0 55:1.0 56:1.0 
2.0 1:0.135 2:0.45 5:1.0 11:1.0 14:1.0 17:1.0 20:1.0 23:1.0 26:1.0 28:1.0 29:1.0 34:1.0 37:1.0 38:0.05 48:0.8938573207550997 51:1.0 54:1.0 55:1.0 56:1.0 
0.5922285775923188 1:0.195 2:0.65 11:1.0 14:1.0 17:1.0 19:1.0 20:1.0 21:1.0 23:1.0 26:1.0 28:1.0 29:1.0 31:1.0 33:1.0 37:1.0 38:0.45 40:1.0 48:0.9649013879829609 50:1.0 54:1.0 55:1.0 56:1.0 63:1.0 70:1.0 78:1.0 121:1.0 142:1.0 179:1.0 
2.0 1:0.19833333333333333 2:0.65 11:1.0 14:1.0 21:1.0 23:1.0 26:1.0 28:1.0 29:1.0 33:1.0 37:1.0 38:0.45 40:1.0 48:0.14448806986145665 63:1.0 70:1.0 78:1.0 121:1.0 142:1.0 179:1.0 
0.558058204378585 1:0.29833333333333334 2:0.9 5:1.0 11:1.0 14:1.0 17:1.0 20:1.0 21:1.0 23:1.0 26:1.0 28:1.0 29:1.0 33:1.0 37:1.0 38:0.4 40:1.0 48:0.7228985375884392 50:1.0 54:1.0 55:1.0 56:1.0 63:1.0 70:1.0 121:1.0 142:1.0 
2.0 1:0.22 2:0.35 13:1.0 14:1.0 17:1.0 21:1.0 23:1.0 26:1.0 29:1.0 34:1.0 37:1.0 38:0.4 40:1.0 48:0.7962062327662114 51:1.0 54:1.0 63:1.0 70:1.0 121:1.0 
2.0 1:0.3466666666666667 2:0.8 11:1.0 14:1.0 17:1.0 21:1.0 23:1.0 26:1.0 29:1.0 34:1.0 37:1.0 38:0.4 40:1.0 48:0.6833626091675205 51:1.0 54:1.0 63:1.0 70:1.0 121:1.0 
2.0 1:0.02 2:0.05 11:1.0 14:1.0 17:1.0 21:1.0 23:1.0 26:1.0 28:1.0 29:1.0 31:1.0 34:1.0 38:0.5 39:1.0 48:0.17489647783159765 51:1.0 54:1.0 63:1.0 70:1.0 75:1.0 79:1.0 87:1.0 122:1.0 148:1.0 151:1.0 160:1.0 
1.687142708065083 1:0.24666666666666667 2:0.4 13:1.0 14:1.0 17:1.0 19:1.0 20:1.0 21:1.0 23:1.0 26:1.0 28:1.0 29:1.0 34:1.0 37:1.0 38:0.15 48:0.3770842980589579 51:1.0 54:1.0 55:1.0 56:1.0 75:1.0 79:1.0 151:1.0 
0.0656648188800881 1:0.37333333333333335 2:0.85 11:1.0 14:1.0 17:1.0 19:1.0 20:1.0 21:1.0 23:1.0 26:1.0 28:1.0 29:1.0 34:1.0 37:1.0 38:0.15 48:0.436188156110879 51:1.0 54:1.0 55:1.0 56:1.0 75:1.0 79:1.0 151:1.0 
0.37372809071057206 1:0.115 2:0.25 6:1.0 9:1.0 11:1.0 14:1.0 17:1.0 19:1.0 20:1.0 21:1.0 24:1.0 26:1.0 28:1.0 29:1.0 36:1.0 37:1.0 38:0.25 40:1.0 41:1.0 45:1.0 48:0.9999999999999999 53:1.0 54:1.0 55:1.0 56:1.0 63:1.0 68:1.0 70:1.0 87:1.0 121:1.0 177:1.0 
1.1405251446932365 1:0.13833333333333334 2:0.25 11:1.0 14:1.0 19:1.0 20:1.0 21:1.0 23:1.0 26:1.0 28:1.0 29:1.0 33:1.0 37:1.0 38:0.7 48:0.8523619968612736 63:1.0 65:1.0 70:1.0 75:1.0 79:1.0 87:1.0 119:1.0 120:1.0 145:1.0 151:1.0 
1.3653944312843784 1:0.028333333333333332 2:0.05 11:1.0 14:1.0 17:1.0 19:1.0 20:1.0 21:1.0 23:1.0 26:1.0 28:1.0 29:1.0 31:1.0 33:1.0 37:1.0 38:0.65 40:1.0 48:1.0000000000000002 50:1.0 54:1.0 55:1.0 56:1.0 63:1.0 65:1.0 70:1.0 79:1.0 82:1.0 87:1.0 119:1.0 120:1.0 121:1.0 133:1.0 139:1.0 145:1.0 
2.0 1:0.17 2:0.3 5:1.0 11:1.0 14:1.0 20:1.0 21:1.0 23:1.0 26:1.0 28:1.0 29:1.0 33:1.0 37:1.0 38:0.6 40:1.0 48:0.8523619968612736 63:1.0 70:1.0 82:1.0 87:1.0 121:1.0 
2.0 1:0.28 2:0.5 5:1.0 11:1.0 14:1.0 17:1.0 20:1.0 21:1.0 23:1.0 26:1.0 28:1.0 29:1.0 33:1.0 37:1.0 38:0.65 39:1.0 44:1.0 48:0.9215080278458571 50:1.0 54:1.0 55:1.0 56:1.0 57:1.0 63:1.0 65:1.0 70:1.0 82:1.0 87:1.0 88:1.0 97:1.0 119:1.0 120:1.0 122:1.0 132:1.0 184:1.0 
1.1805487886348653 1:0.31166666666666665 2:0.55 11:1.0 14:1.0 17:1.0 19:1.0 20:1.0 21:1.0 23:1.0 26:1.0 28:1.0 29:1.0 33:1.0 37:1.0 38:0.75 44:1.0 48:0.9215080278458571 50:1.0 54:1.0 55:1.0 56:1.0 57:1.0 63:1.0 65:1.0 70:1.0 79:1.0 82:1.0 87:1.0 88:1.0 97:1.0 119:1.0 120:1.0 132:1.0 133:1.0 139:1.0 145:1.0 184:1.0 
1.6068395258025283 1:0.4533333333333333 2:0.8 5:1.0 11:1.0 14:1.0 20:1.0 21:1.0 23:1.0 26:1.0 28:1.0 29:1.0 33:1.0 37:1.0 38:0.7 44:1.0 48:0.8449351265043524 57:1.0 63:1.0 65:1.0 70:1.0 82:1.0 87:1.0 88:1.0 97:1.0 119:1.0 120:1.0 132:1.0 184:1.0 
1.7440313391500737 1:0.13 2:0.3 11:1.0 14:1.0 17:1.0 19:1.0 20:1.0 21:1.0 23:1.0 26:1.0 28:1.0 29:1.0 31:1.0 33:1.0 37:1.0 38:0.65 43:1.0 48:0.9215080278458571 50:1.0 54:1.0 55:1.0 56:1.0 57:1.0 63:1.0 65:1.0 70:1.0 81:1.0 82:1.0 83:1.0 87:1.0 88:1.0 97:1.0 118:1.0 119:1.0 120:1.0 132:1.0 143:1.0 184:1.0 
1.342541175084662 1:0.4216666666666667 2:0.8 11:1.0 14:1.0 17:1.0 19:1.0 20:1.0 21:1.0 23:1.0 26:1.0 28:1.0 29:1.0 33:1.0 37:1.0 38:0.55 39:1.0 48:1.0000000000000002 50:1.0 54:1.0 55:1.0 56:1.0 63:1.0 65:1.0 70:1.0 81:1.0 82:1.0 83:1.0 87:1.0 88:1.0 122:1.0 143:1.0 
1.2188882493926738 1:0.4533333333333333 2:0.85 3:1.0 4:1.0 5:1.0 6:1.0 11:1.0 14:1.0 17:1.0 19:1.0 20:1.0 21:1.0 23:1.0 26:1.0 28:1.0 29:1.0 33:1.0 37:1.0 38:0.65 48:1.0000000000000002 50:1.0 54:1.0 55:1.0 56:1.0 63:1.0 65:1.0 70:1.0 79:1.0 81:1.0 82:1.0 83:1.0 87:1.0 88:1.0 119:1.0 120:1.0 133:1.0 139:1.0 143:1.0 145:1.0 
2.0 1:0.40166666666666667 2:0.85 5:1.0 11:1.0 14:1.0 17:1.0 20:1.0 21:1.0 23:1.0 26:1.0 28:1.0 29:1.0 31:1.0 33:1.0 37:1.0 38:0.25 40:1.0 48:0.5159907188032338 50:1.0 54:1.0 55:1.0 56:1.0 63:1.0 70:1.0 78:1.0 121:1.0 172:1.0 179:1.0 
0.8177858081755842 1:0.013333333333333334 6:1.0 9:1.0 11:1.0 14:1.0 17:1.0 19:1.0 20:1.0 21:1.0 24:1.0 26:1.0 28:1.0 29:1.0 31:1.0 36:1.0 38:0.65 44:1.0 48:0.9999999999999999 53:1.0 54:1.0 55:1.0 56:1.0 57:1.0 63:1.0 65:1.0 70:1.0 97:1.0 111:1.0 184:1.0 
0.8087310732057532 1:0.011666666666666667 2:0.05 6:1.0 11:1.0 14:1.0 17:1.0 19:1.0 20:1.0 21:1.0 24:1.0 26:1.0 28:1.0 29:1.0 30:1.0 31:1.0 36:1.0 37:1.0 38:1.05 43:1.0 48:0.9999999999999999 53:1.0 54:1.0 55:1.0 56:1.0 57:1.0 63:1.0 65:1.0 70:1.0 72:1.0 74:1.0 97:1.0 110:1.0 118:1.0 142:1.0 151:1.0 162:1.0 178:1.0 184:1.0 
1.3191462382083072 1:0.03 2:0.05 3:1.0 4:1.0 5:1.0 6:1.0 11:1.0 14:1.0 17:1.0 19:1.0 20:1.0 21:1.0 23:1.0 26:1.0 28:1.0 29:1.0 36:1.0 38:0.85 48:0.9999999999999999 53:1.0 54:1.0 55:1.0 56:1.0 57:1.0 63:1.0 65:1.0 70:1.0 72:1.0 74:1.0 80:1.0 113:1.0 142:1.0 151:1.0 162:1.0 178:1.0 184:1.0 
2.0 1:0.15833333333333333 2:0.25 4:1.0 13:1.0 14:1.0 17:1.0 20:1.0 21:1.0 23:1.0 26:1.0 28:1.0 29:1.0 36:1.0 38:0.8 48:0.7044226062648267 53:1.0 54:1.0 55:1.0 56:1.0 57:1.0 63:1.0 65:1.0 70:1.0 82:1.0 87:1.0 88:1.0 142:1.0 164:1.0 166:1.0 176:1.0 184:1.0 
2.0 1:0.0050 9:1.0 13:1.0 16:1.0 21:1.0 24:1.0 26:1.0 28:1.0 29:1.0 37:1.0 38:0.2 41:1.0 45:1.0 70:1.0 154:1.0 155:1.0 
2.0 1:0.07666666666666666 2:0.2 13:1.0 16:1.0 23:1.0 26:1.0 28:1.0 29:1.0 37:1.0 38:0.75 58:1.0 63:1.0 70:1.0 97:1.0 142:1.0 
1.4108614435137712 1:0.08166666666666667 2:0.15 5:1.0 6:1.0 11:1.0 14:1.0 17:1.0 19:1.0 20:1.0 21:1.0 23:1.0 26:1.0 29:1.0 31:1.0 33:1.0 37:1.0 38:0.6 44:1.0 48:0.9999999999999998 50:1.0 54:1.0 55:1.0 56:1.0 57:1.0 63:1.0 65:1.0 70:1.0 81:1.0 142:1.0 184:1.0 
2.0 1:0.165 2:0.35 13:1.0 16:1.0 23:1.0 26:1.0 29:1.0 37:1.0 38:1.3 44:1.0 57:1.0 58:1.0 63:1.0 65:1.0 70:1.0 81:1.0 82:1.0 87:1.0 88:1.0 97:1.0 142:1.0 184:1.0 
0.48751357734133804 1:0.22833333333333333 2:0.45 5:1.0 6:1.0 11:1.0 14:1.0 17:1.0 19:1.0 20:1.0 21:1.0 24:1.0 26:1.0 29:1.0 30:1.0 33:1.0 37:1.0 38:0.95 43:1.0 44:1.0 48:0.9999999999999998 50:1.0 54:1.0 55:1.0 56:1.0 57:1.0 63:1.0 65:1.0 70:1.0 81:1.0 83:1.0 118:1.0 126:1.0 142:1.0 143:1.0 184:1.0 
2.0 1:0.025 2:0.05 9:1.0 13:1.0 16:1.0 24:1.0 26:1.0 28:1.0 29:1.0 37:1.0 38:0.4 39:1.0 44:1.0 57:1.0 63:1.0 65:1.0 70:1.0 82:1.0 87:1.0 111:1.0 122:1.0 184:1.0 
2.0 1:0.045 2:0.1 9:1.0 11:1.0 14:1.0 20:1.0 21:1.0 24:1.0 26:1.0 28:1.0 29:1.0 31:1.0 33:1.0 37:1.0 38:0.8 43:1.0 44:1.0 48:0.28083920828816855 57:1.0 63:1.0 65:1.0 70:1.0 81:1.0 82:1.0 87:1.0 111:1.0 118:1.0 142:1.0 184:1.0 
2.0 1:0.13166666666666665 2:0.25 9:1.0 11:1.0 14:1.0 20:1.0 21:1.0 24:1.0 26:1.0 28:1.0 29:1.0 33:1.0 37:1.0 38:0.25 44:1.0 48:0.28083920828816855 57:1.0 63:1.0 65:1.0 111:1.0 184:1.0 
2.0 1:0.215 2:0.45 9:1.0 13:1.0 16:1.0 24:1.0 26:1.0 28:1.0 29:1.0 37:1.0 38:0.95 44:1.0 57:1.0 58:1.0 63:1.0 65:1.0 70:1.0 82:1.0 87:1.0 97:1.0 111:1.0 142:1.0 184:1.0 
2.0 1:0.2783333333333333 2:0.55 4:1.0 9:1.0 11:1.0 14:1.0 20:1.0 21:1.0 22:1.0 26:1.0 28:1.0 29:1.0 30:1.0 33:1.0 37:1.0 38:0.6 43:1.0 44:1.0 48:0.28083920828816855 57:1.0 63:1.0 65:1.0 70:1.0 83:1.0 111:1.0 118:1.0 126:1.0 143:1.0 184:1.0 
2.0 1:0.3016666666666667 2:0.5 13:1.0 16:1.0 23:1.0 26:1.0 29:1.0 37:1.0 38:0.45 44:1.0 57:1.0 63:1.0 65:1.0 70:1.0 82:1.0 87:1.0 111:1.0 142:1.0 161:1.0 184:1.0 
1.712436975969841 1:0.30333333333333334 2:0.5 5:1.0 11:1.0 14:1.0 17:1.0 20:1.0 21:1.0 24:1.0 26:1.0 29:1.0 30:1.0 35:1.0 37:1.0 38:0.4 44:1.0 48:0.10093409755664419 52:1.0 54:1.0 55:1.0 56:1.0 57:1.0 63:1.0 65:1.0 70:1.0 82:1.0 87:1.0 111:1.0 161:1.0 184:1.0 
2.0 1:0.31333333333333335 2:0.5 13:1.0 16:1.0 21:1.0 23:1.0 26:1.0 29:1.0 37:1.0 38:0.25 41:1.0 44:1.0 45:1.0 57:1.0 63:1.0 65:1.0 68:1.0 82:1.0 87:1.0 111:1.0 161:1.0 177:1.0 184:1.0 
1.345886513120823 1:0.03833333333333333 2:0.05 9:1.0 11:1.0 14:1.0 17:1.0 19:1.0 20:1.0 21:1.0 24:1.0 26:1.0 28:1.0 29:1.0 31:1.0 36:1.0 37:1.0 38:0.2 42:1.0 46:1.0 48:0.2407852961935638 53:1.0 54:1.0 55:1.0 56:1.0 80:1.0 
2.0 1:0.05 2:0.2 5:1.0 11:1.0 14:1.0 17:1.0 19:1.0 20:1.0 21:1.0 23:1.0 26:1.0 28:1.0 29:1.0 31:1.0 35:1.0 37:1.0 38:0.15 44:1.0 48:1.0000000000000002 52:1.0 54:1.0 55:1.0 56:1.0 65:1.0 
0.6624596187397297 1:0.23833333333333334 2:0.5 11:1.0 14:1.0 17:1.0 19:1.0 20:1.0 21:1.0 23:1.0 26:1.0 28:1.0 29:1.0 33:1.0 37:1.0 38:0.4 40:1.0 48:0.8662386318170965 50:1.0 54:1.0 55:1.0 56:1.0 63:1.0 70:1.0 121:1.0 
1.2389503376113025 1:0.06166666666666667 2:0.2 11:1.0 14:1.0 19:1.0 20:1.0 21:1.0 23:1.0 26:1.0 28:1.0 29:1.0 31:1.0 35:1.0 37:1.0 38:0.25 48:0.7377900001244332 63:1.0 70:1.0 80:1.0 115:1.0 
2.0 1:0.02 13:1.0 14:1.0 21:1.0 23:1.0 26:1.0 28:1.0 29:1.0 31:1.0 33:1.0 37:1.0 38:0.1 40:1.0 41:1.0 45:1.0 48:0.08079600794306245 70:1.0 121:1.0 154:1.0 155:1.0 
0.901395928076342 1:0.18166666666666667 2:0.5 3:1.0 4:1.0 5:1.0 6:1.0 11:1.0 14:1.0 17:1.0 19:1.0 20:1.0 21:1.0 23:1.0 26:1.0 29:1.0 35:1.0 37:1.0 38:0.4 43:1.0 44:1.0 48:1.0000000000000002 52:1.0 54:1.0 55:1.0 56:1.0 57:1.0 63:1.0 65:1.0 100:1.0 101:1.0 110:1.0 118:1.0 174:1.0 184:1.0 
2.0 1:0.0016666666666666668 13:1.0 16:1.0 23:1.0 26:1.0 29:1.0 37:1.0 38:0.1 40:1.0 41:1.0 45:1.0 70:1.0 121:1.0 154:1.0 155:1.0 
2.0 2:0.05 12:1.0 14:1.0 21:1.0 23:1.0 26:1.0 28:1.0 29:1.0 31:1.0 35:1.0 37:1.0 38:0.1 42:1.0 46:1.0 48:0.585333841629446 124:1.0 130:1.0 
1.9387351714029861 1:0.29833333333333334 2:0.55 3:1.0 4:1.0 5:1.0 6:1.0 11:1.0 14:1.0 17:1.0 19:1.0 20:1.0 21:1.0 23:1.0 26:1.0 28:1.0 29:1.0 36:1.0 38:0.45 48:0.9999999999999999 53:1.0 54:1.0 55:1.0 56:1.0 57:1.0 65:1.0 81:1.0 105:1.0 157:1.0 184:1.0 
2.0 1:0.41 2:0.9 5:1.0 11:1.0 14:1.0 17:1.0 20:1.0 21:1.0 23:1.0 26:1.0 28:1.0 29:1.0 33:1.0 37:1.0 38:0.2 39:1.0 48:0.24841223678645447 50:1.0 54:1.0 55:1.0 56:1.0 63:1.0 70:1.0 76:1.0 122:1.0 174:1.0 
2.0 1:0.055 2:0.15 11:1.0 14:1.0 21:1.0 23:1.0 26:1.0 28:1.0 29:1.0 31:1.0 33:1.0 37:1.0 38:0.35 48:0.17325384492500284 63:1.0 65:1.0 70:1.0 75:1.0 78:1.0 79:1.0 83:1.0 143:1.0 151:1.0 179:1.0 
1.1289861739913682 1:0.055 2:0.1 3:1.0 4:1.0 5:1.0 6:1.0 11:1.0 14:1.0 17:1.0 19:1.0 20:1.0 21:1.0 23:1.0 26:1.0 28:1.0 29:1.0 31:1.0 33:1.0 37:1.0 38:0.65 48:0.9999999999999999 50:1.0 54:1.0 55:1.0 56:1.0 63:1.0 65:1.0 70:1.0 75:1.0 79:1.0 82:1.0 83:1.0 87:1.0 133:1.0 143:1.0 151:1.0 
2.0 1:0.11333333333333333 2:0.25 11:1.0 14:1.0 21:1.0 23:1.0 26:1.0 28:1.0 29:1.0 33:1.0 37:1.0 38:0.45 48:0.17325384492500284 63:1.0 70:1.0 75:1.0 78:1.0 79:1.0 151:1.0 172:1.0 179:1.0 
0.40173266025884163 1:0.11833333333333333 2:0.35 5:1.0 6:1.0 9:1.0 11:1.0 14:1.0 17:1.0 19:1.0 20:1.0 21:1.0 24:1.0 26:1.0 28:1.0 29:1.0 33:1.0 37:1.0 38:0.15 41:1.0 42:1.0 45:1.0 46:1.0 47:1.0 48:0.9999999999999998 50:1.0 54:1.0 55:1.0 56:1.0 68:1.0 87:1.0 148:1.0 177:1.0 
1.1954180629573872 1:0.09333333333333334 2:0.2 11:1.0 14:1.0 17:1.0 19:1.0 20:1.0 21:1.0 23:1.0 26:1.0 28:1.0 29:1.0 35:1.0 37:1.0 38:0.3 43:1.0 48:0.622820940675433 52:1.0 54:1.0 55:1.0 56:1.0 65:1.0 75:1.0 79:1.0 91:1.0 118:1.0 151:1.0 179:1.0 
2.0 1:0.075 2:0.15 11:1.0 14:1.0 21:1.0 23:1.0 26:1.0 28:1.0 29:1.0 35:1.0 37:1.0 38:0.55 39:1.0 44:1.0 48:0.2922491530368523 57:1.0 63:1.0 65:1.0 70:1.0 82:1.0 87:1.0 111:1.0 122:1.0 184:1.0 
1.8999102296956074 1:0.01 5:1.0 13:1.0 14:1.0 20:1.0 21:1.0 23:1.0 26:1.0 28:1.0 29:1.0 31:1.0 35:1.0 37:1.0 38:0.3 41:1.0 45:1.0 48:0.4208599461849145 63:1.0 70:1.0 154:1.0 155:1.0 
1.5798099209028005 1:0.105 2:0.2 9:1.0 11:1.0 14:1.0 17:1.0 19:1.0 20:1.0 21:1.0 24:1.0 26:1.0 28:1.0 29:1.0 35:1.0 38:0.2 42:1.0 46:1.0 48:0.7529400493000257 52:1.0 54:1.0 55:1.0 56:1.0 67:1.0 79:1.0 87:1.0 133:1.0 148:1.0 177:1.0 
2.0 1:0.02666666666666667 2:0.05 4:1.0 9:1.0 11:1.0 14:1.0 21:1.0 22:1.0 26:1.0 28:1.0 29:1.0 30:1.0 31:1.0 35:1.0 37:1.0 38:0.2 40:1.0 41:1.0 45:1.0 48:0.19739878787874363 63:1.0 68:1.0 70:1.0 82:1.0 87:1.0 88:1.0 121:1.0 177:1.0 
2.0 1:0.13666666666666666 2:0.25 9:1.0 11:1.0 14:1.0 24:1.0 26:1.0 28:1.0 29:1.0 35:1.0 38:0.25 40:1.0 48:0.2194262311381855 63:1.0 67:1.0 70:1.0 79:1.0 82:1.0 87:1.0 88:1.0 121:1.0 133:1.0 177:1.0 
2.0 1:0.23166666666666666 2:0.45 9:1.0 11:1.0 14:1.0 21:1.0 24:1.0 26:1.0 28:1.0 29:1.0 35:1.0 37:1.0 38:0.3 40:1.0 43:1.0 48:0.2200964300216518 63:1.0 65:1.0 70:1.0 78:1.0 118:1.0 121:1.0 179:1.0 
1.2668480523718786 1:0.03 2:0.05 3:1.0 4:1.0 5:1.0 6:1.0 11:1.0 14:1.0 17:1.0 19:1.0 20:1.0 21:1.0 23:1.0 26:1.0 28:1.0 29:1.0 34:1.0 38:0.85 48:1.0 51:1.0 54:1.0 55:1.0 56:1.0 63:1.0 65:1.0 70:1.0 75:1.0 79:1.0 81:1.0 83:1.0 87:1.0 119:1.0 120:1.0 128:1.0 133:1.0 143:1.0 151:1.0 156:1.0 
0.30116755291723457 1:0.09166666666666666 2:0.25 3:1.0 4:1.0 5:1.0 6:1.0 11:1.0 14:1.0 17:1.0 19:1.0 20:1.0 21:1.0 23:1.0 26:1.0 28:1.0 29:1.0 31:1.0 34:1.0 37:1.0 38:0.4 48:1.0 51:1.0 54:1.0 55:1.0 56:1.0 63:1.0 70:1.0 75:1.0 79:1.0 82:1.0 87:1.0 88:1.0 114:1.0 125:1.0 129:1.0 133:1.0 151:1.0 
0.7621463776653368 1:0.12333333333333334 2:0.3 3:1.0 4:1.0 5:1.0 6:1.0 11:1.0 14:1.0 17:1.0 19:1.0 20:1.0 21:1.0 23:1.0 26:1.0 28:1.0 29:1.0 34:1.0 38:0.8 48:1.0 51:1.0 54:1.0 55:1.0 56:1.0 63:1.0 65:1.0 70:1.0 75:1.0 79:1.0 81:1.0 82:1.0 83:1.0 87:1.0 88:1.0 114:1.0 119:1.0 120:1.0 133:1.0 143:1.0 151:1.0 
0.7758311581208731 1:0.056666666666666664 2:0.05 3:1.0 4:1.0 5:1.0 6:1.0 11:1.0 14:1.0 17:1.0 19:1.0 20:1.0 21:1.0 23:1.0 26:1.0 28:1.0 29:1.0 34:1.0 38:0.65 48:1.0 51:1.0 54:1.0 55:1.0 56:1.0 57:1.0 63:1.0 65:1.0 70:1.0 75:1.0 79:1.0 82:1.0 87:1.0 98:1.0 112:1.0 114:1.0 116:1.0 117:1.0 133:1.0 141:1.0 151:1.0 153:1.0 184:1.0 
0.4005979886806281 1:0.15 2:0.3 3:1.0 4:1.0 5:1.0 6:1.0 11:1.0 14:1.0 17:1.0 19:1.0 20:1.0 21:1.0 23:1.0 26:1.0 28:1.0 29:1.0 34:1.0 37:1.0 38:0.7 48:1.0 51:1.0 54:1.0 55:1.0 56:1.0 57:1.0 63:1.0 65:1.0 70:1.0 75:1.0 79:1.0 82:1.0 87:1.0 98:1.0 112:1.0 114:1.0 116:1.0 117:1.0 125:1.0 129:1.0 133:1.0 151:1.0 153:1.0 184:1.0 
0.625176085507303 1:0.18166666666666667 2:0.35 3:1.0 4:1.0 5:1.0 6:1.0 11:1.0 14:1.0 17:1.0 19:1.0 20:1.0 21:1.0 23:1.0 26:1.0 28:1.0 29:1.0 34:1.0 38:1.1 48:1.0 51:1.0 54:1.0 55:1.0 56:1.0 57:1.0 63:1.0 65:1.0 70:1.0 75:1.0 79:1.0 81:1.0 82:1.0 83:1.0 87:1.0 98:1.0 112:1.0 114:1.0 116:1.0 117:1.0 119:1.0 120:1.0 133:1.0 143:1.0 151:1.0 153:1.0 184:1.0 
2.0 1:0.018333333333333333 2:0.05 11:1.0 14:1.0 19:1.0 20:1.0 21:1.0 23:1.0 26:1.0 28:1.0 29:1.0 36:1.0 37:1.0 38:0.25 41:1.0 45:1.0 48:0.2280766663925298 68:1.0 75:1.0 79:1.0 87:1.0 151:1.0 177:1.0 
0.3309766467458103 1:0.03666666666666667 2:0.15 11:1.0 14:1.0 17:1.0 19:1.0 20:1.0 21:1.0 23:1.0 26:1.0 28:1.0 29:1.0 34:1.0 37:1.0 38:0.55 43:1.0 44:1.0 48:0.539650595105003 51:1.0 54:1.0 55:1.0 56:1.0 63:1.0 65:1.0 70:1.0 83:1.0 87:1.0 118:1.0 143:1.0 
0.4568401174366407 1:0.07166666666666667 2:0.2 11:1.0 14:1.0 17:1.0 19:1.0 20:1.0 21:1.0 23:1.0 26:1.0 28:1.0 29:1.0 34:1.0 37:1.0 38:0.5 43:1.0 48:0.539650595105003 51:1.0 54:1.0 55:1.0 56:1.0 63:1.0 65:1.0 70:1.0 75:1.0 79:1.0 82:1.0 83:1.0 87:1.0 118:1.0 143:1.0 151:1.0 
0.005337501916070227 1:0.13166666666666665 2:0.25 11:1.0 14:1.0 17:1.0 19:1.0 20:1.0 21:1.0 23:1.0 26:1.0 28:1.0 29:1.0 34:1.0 37:1.0 38:0.95 43:1.0 48:0.539650595105003 51:1.0 54:1.0 55:1.0 56:1.0 63:1.0 65:1.0 70:1.0 75:1.0 79:1.0 82:1.0 83:1.0 87:1.0 118:1.0 119:1.0 120:1.0 143:1.0 151:1.0 184:1.0 
1.6495980329911435 1:0.08333333333333333 2:0.25 11:1.0 14:1.0 19:1.0 20:1.0 21:1.0 23:1.0 26:1.0 28:1.0 29:1.0 31:1.0 34:1.0 37:1.0 38:0.75 48:0.26956721120021304 63:1.0 65:1.0 79:1.0 119:1.0 120:1.0 133:1.0 184:1.0 
1.6312112870117434 1:0.145 2:0.3 11:1.0 14:1.0 19:1.0 20:1.0 21:1.0 23:1.0 26:1.0 28:1.0 29:1.0 34:1.0 37:1.0 38:0.3 48:0.26956721120021304 63:1.0 79:1.0 133:1.0 
0.21175707010803546 1:0.17833333333333334 2:0.35 11:1.0 14:1.0 19:1.0 20:1.0 21:1.0 23:1.0 26:1.0 28:1.0 29:1.0 34:1.0 37:1.0 38:0.35 43:1.0 48:0.26956721120021304 63:1.0 65:1.0 70:1.0 83:1.0 118:1.0 143:1.0 
2.0 1:0.21833333333333332 2:0.5 11:1.0 14:1.0 20:1.0 21:1.0 23:1.0 26:1.0 28:1.0 29:1.0 34:1.0 37:1.0 38:0.25 43:1.0 48:0.5271935092163558 63:1.0 65:1.0 70:1.0 83:1.0 118:1.0 143:1.0 
0.9377703556079116 1:0.07833333333333334 2:0.3 11:1.0 14:1.0 19:1.0 20:1.0 21:1.0 23:1.0 26:1.0 28:1.0 29:1.0 31:1.0 34:1.0 37:1.0 38:0.05 48:0.26956721120021304 151:1.0 
0.09942159902161234 1:0.2633333333333333 2:0.8 3:1.0 4:1.0 5:1.0 6:1.0 11:1.0 14:1.0 17:1.0 19:1.0 20:1.0 21:1.0 23:1.0 26:1.0 28:1.0 29:1.0 34:1.0 37:1.0 38:0.85 48:1.0 51:1.0 54:1.0 55:1.0 56:1.0 63:1.0 65:1.0 75:1.0 79:1.0 87:1.0 119:1.0 120:1.0 133:1.0 148:1.0 151:1.0 160:1.0 184:1.0 
0.11217262697122954 1:0.35833333333333334 2:0.9 3:1.0 4:1.0 5:1.0 6:1.0 11:1.0 14:1.0 17:1.0 19:1.0 20:1.0 21:1.0 23:1.0 26:1.0 28:1.0 29:1.0 34:1.0 37:1.0 38:0.45 43:1.0 48:1.0 51:1.0 54:1.0 55:1.0 56:1.0 63:1.0 65:1.0 70:1.0 75:1.0 79:1.0 83:1.0 87:1.0 118:1.0 143:1.0 148:1.0 151:1.0 160:1.0 
2.0 1:0.035 2:0.05 11:1.0 14:1.0 19:1.0 20:1.0 21:1.0 23:1.0 26:1.0 29:1.0 34:1.0 38:0.3 40:1.0 48:0.2355203185617401 63:1.0 70:1.0 79:1.0 121:1.0 133:1.0 
1.5189438970857756 1:0.12333333333333334 2:0.3 11:1.0 14:1.0 19:1.0 20:1.0 21:1.0 23:1.0 26:1.0 29:1.0 34:1.0 37:1.0 38:0.2 40:1.0 48:0.2355203185617401 63:1.0 70:1.0 121:1.0 
2.0 1:0.20666666666666667 2:0.6 11:1.0 14:1.0 20:1.0 21:1.0 23:1.0 26:1.0 29:1.0 34:1.0 37:1.0 38:0.2 40:1.0 48:0.2895546751934802 56:1.0 63:1.0 70:1.0 121:1.0 
0.26450625127136457 1:0.3 2:0.85 11:1.0 14:1.0 19:1.0 20:1.0 21:1.0 23:1.0 26:1.0 29:1.0 34:1.0 37:1.0 38:0.9 40:1.0 48:0.2355203185617401 63:1.0 65:1.0 70:1.0 79:1.0 119:1.0 120:1.0 121:1.0 133:1.0 184:1.0 
1.236484263395176 1:0.395 2:0.95 11:1.0 14:1.0 19:1.0 20:1.0 21:1.0 23:1.0 26:1.0 29:1.0 34:1.0 37:1.0 38:0.5 40:1.0 43:1.0 48:0.2355203185617401 63:1.0 65:1.0 70:1.0 83:1.0 118:1.0 121:1.0 143:1.0 
0.1937552882832161 1:0.17666666666666667 2:0.4 6:1.0 9:1.0 11:1.0 14:1.0 17:1.0 19:1.0 20:1.0 21:1.0 24:1.0 26:1.0 28:1.0 29:1.0 34:1.0 37:1.0 38:0.1 42:1.0 46:1.0 48:1.0 51:1.0 54:1.0 55:1.0 56:1.0 124:1.0 130:1.0 
0.42436366501011386 1:0.35333333333333333 2:0.95 6:1.0 9:1.0 11:1.0 14:1.0 17:1.0 19:1.0 20:1.0 21:1.0 24:1.0 26:1.0 28:1.0 29:1.0 34:1.0 37:1.0 38:0.8 42:1.0 46:1.0 48:1.0 51:1.0 54:1.0 55:1.0 56:1.0 63:1.0 65:1.0 79:1.0 87:1.0 119:1.0 120:1.0 133:1.0 148:1.0 184:1.0 
0.7025952622284231 1:0.415 2:1.0 6:1.0 9:1.0 11:1.0 14:1.0 17:1.0 19:1.0 20:1.0 21:1.0 24:1.0 26:1.0 28:1.0 29:1.0 34:1.0 37:1.0 38:0.35 42:1.0 46:1.0 48:1.0 51:1.0 54:1.0 55:1.0 56:1.0 63:1.0 79:1.0 87:1.0 133:1.0 148:1.0 
0.16017029130274021 1:0.05333333333333334 2:0.15 9:1.0 11:1.0 14:1.0 19:1.0 20:1.0 21:1.0 24:1.0 26:1.0 28:1.0 29:1.0 34:1.0 37:1.0 38:0.35 39:1.0 42:1.0 46:1.0 48:0.2355203185617401 63:1.0 70:1.0 122:1.0 
0.769037168177603 1:0.11333333333333333 2:0.2 6:1.0 9:1.0 11:1.0 14:1.0 17:1.0 19:1.0 20:1.0 21:1.0 24:1.0 26:1.0 28:1.0 29:1.0 34:1.0 38:0.3 42:1.0 46:1.0 48:1.0 51:1.0 54:1.0 55:1.0 56:1.0 79:1.0 133:1.0 
0.40475096230074986 1:0.37833333333333335 2:1.0 6:1.0 9:1.0 11:1.0 14:1.0 17:1.0 19:1.0 20:1.0 21:1.0 24:1.0 26:1.0 28:1.0 29:1.0 34:1.0 37:1.0 38:0.9 42:1.0 46:1.0 48:1.0 51:1.0 54:1.0 55:1.0 56:1.0 63:1.0 65:1.0 79:1.0 119:1.0 120:1.0 133:1.0 184:1.0 
0.12255960034034044 1:0.015 2:0.05 3:1.0 4:1.0 5:1.0 6:1.0 9:1.0 11:1.0 14:1.0 17:1.0 19:1.0 20:1.0 21:1.0 22:1.0 26:1.0 28:1.0 29:1.0 30:1.0 31:1.0 34:1.0 37:1.0 38:0.3 41:1.0 42:1.0 45:1.0 46:1.0 47:1.0 48:1.0 51:1.0 54:1.0 55:1.0 56:1.0 
2.0 1:0.07166666666666667 2:0.2 9:1.0 11:1.0 14:1.0 19:1.0 20:1.0 21:1.0 24:1.0 26:1.0 28:1.0 29:1.0 34:1.0 37:1.0 38:0.3 39:1.0 42:1.0 46:1.0 48:0.2355203185617401 63:1.0 70:1.0 122:1.0 
1.5731552950469476 1:0.30333333333333334 2:0.8 5:1.0 9:1.0 11:1.0 14:1.0 19:1.0 20:1.0 21:1.0 24:1.0 26:1.0 28:1.0 29:1.0 34:1.0 37:1.0 38:0.15 42:1.0 46:1.0 48:0.26956721120021304 
0.24095865576187722 1:0.011666666666666667 6:1.0 11:1.0 14:1.0 17:1.0 19:1.0 20:1.0 21:1.0 24:1.0 26:1.0 28:1.0 29:1.0 30:1.0 31:1.0 34:1.0 37:1.0 38:0.25 41:1.0 44:1.0 45:1.0 48:1.0 51:1.0 54:1.0 55:1.0 56:1.0 57:1.0 63:1.0 65:1.0 111:1.0 184:1.0 
0.646600351557277 1:0.055 2:0.1 6:1.0 11:1.0 14:1.0 17:1.0 19:1.0 20:1.0 21:1.0 24:1.0 26:1.0 28:1.0 29:1.0 30:1.0 34:1.0 37:1.0 38:0.3 41:1.0 44:1.0 45:1.0 48:1.0 51:1.0 54:1.0 55:1.0 56:1.0 57:1.0 63:1.0 65:1.0 68:1.0 87:1.0 111:1.0 177:1.0 184:1.0 
2.0 1:0.08666666666666667 2:0.2 11:1.0 14:1.0 19:1.0 20:1.0 21:1.0 23:1.0 26:1.0 28:1.0 29:1.0 34:1.0 37:1.0 38:0.4 39:1.0 44:1.0 48:0.2355203185617401 57:1.0 63:1.0 65:1.0 70:1.0 111:1.0 122:1.0 184:1.0 
1.4207854923031038 1:0.14666666666666667 2:0.25 3:1.0 4:1.0 5:1.0 6:1.0 11:1.0 14:1.0 17:1.0 19:1.0 20:1.0 21:1.0 23:1.0 26:1.0 28:1.0 29:1.0 34:1.0 38:0.35 44:1.0 48:1.0 51:1.0 54:1.0 55:1.0 56:1.0 57:1.0 63:1.0 65:1.0 67:1.0 79:1.0 87:1.0 111:1.0 133:1.0 177:1.0 184:1.0 
0.4617382282992195 1:0.235 2:0.5 3:1.0 4:1.0 5:1.0 6:1.0 11:1.0 14:1.0 17:1.0 19:1.0 20:1.0 21:1.0 23:1.0 26:1.0 28:1.0 29:1.0 34:1.0 37:1.0 38:0.25 44:1.0 48:1.0 51:1.0 54:1.0 55:1.0 56:1.0 57:1.0 63:1.0 65:1.0 111:1.0 124:1.0 130:1.0 184:1.0 
2.0 1:0.31833333333333336 2:0.8 11:1.0 14:1.0 19:1.0 20:1.0 21:1.0 23:1.0 26:1.0 28:1.0 29:1.0 34:1.0 37:1.0 38:0.25 44:1.0 48:0.26956721120021304 57:1.0 63:1.0 65:1.0 111:1.0 184:1.0 
2.0 1:0.0050 2:0.05 11:1.0 14:1.0 17:1.0 19:1.0 20:1.0 21:1.0 23:1.0 26:1.0 28:1.0 29:1.0 31:1.0 34:1.0 37:1.0 38:0.35 40:1.0 43:1.0 48:0.8300683821206202 51:1.0 54:1.0 55:1.0 56:1.0 57:1.0 63:1.0 65:1.0 70:1.0 82:1.0 87:1.0 88:1.0 110:1.0 118:1.0 121:1.0 184:1.0 
0.10000358935598051 1:0.02 2:0.05 5:1.0 11:1.0 14:1.0 17:1.0 19:1.0 20:1.0 21:1.0 24:1.0 26:1.0 28:1.0 29:1.0 30:1.0 34:1.0 37:1.0 38:0.25 40:1.0 41:1.0 45:1.0 48:0.8300683821206202 51:1.0 54:1.0 55:1.0 56:1.0 63:1.0 70:1.0 82:1.0 87:1.0 88:1.0 121:1.0 
2.0 1:0.03833333333333333 2:0.1 5:1.0 11:1.0 14:1.0 17:1.0 19:1.0 20:1.0 21:1.0 24:1.0 26:1.0 28:1.0 29:1.0 30:1.0 34:1.0 37:1.0 38:0.3 40:1.0 41:1.0 45:1.0 48:0.8300683821206202 51:1.0 54:1.0 55:1.0 56:1.0 63:1.0 70:1.0 121:1.0 
1.1587500912035087 1:0.06333333333333334 2:0.15 5:1.0 11:1.0 14:1.0 17:1.0 19:1.0 20:1.0 21:1.0 24:1.0 26:1.0 28:1.0 29:1.0 30:1.0 34:1.0 37:1.0 38:0.2 40:1.0 41:1.0 45:1.0 48:0.8300683821206202 51:1.0 54:1.0 55:1.0 56:1.0 63:1.0 68:1.0 70:1.0 82:1.0 87:1.0 88:1.0 121:1.0 177:1.0 
2.0 1:0.095 2:0.25 11:1.0 14:1.0 20:1.0 21:1.0 23:1.0 26:1.0 28:1.0 29:1.0 34:1.0 37:1.0 38:0.3 39:1.0 40:1.0 48:0.25835751983095356 63:1.0 70:1.0 121:1.0 122:1.0 
1.3050802678667321 1:0.155 2:0.3 11:1.0 14:1.0 17:1.0 19:1.0 20:1.0 21:1.0 23:1.0 26:1.0 28:1.0 29:1.0 34:1.0 38:0.25 40:1.0 48:0.8300683821206202 51:1.0 54:1.0 55:1.0 56:1.0 63:1.0 67:1.0 70:1.0 79:1.0 82:1.0 87:1.0 88:1.0 121:1.0 133:1.0 177:1.0 
2.0 1:0.24333333333333335 2:0.55 11:1.0 14:1.0 17:1.0 19:1.0 20:1.0 21:1.0 23:1.0 26:1.0 28:1.0 29:1.0 34:1.0 37:1.0 38:0.15 40:1.0 48:0.8300683821206202 51:1.0 54:1.0 55:1.0 56:1.0 63:1.0 70:1.0 121:1.0 124:1.0 130:1.0 
2.0 1:0.32666666666666666 2:0.85 5:1.0 11:1.0 14:1.0 20:1.0 21:1.0 23:1.0 26:1.0 28:1.0 29:1.0 34:1.0 37:1.0 38:0.15 40:1.0 48:0.2553442349089616 63:1.0 70:1.0 121:1.0 
2.0 1:0.08833333333333333 2:0.2 11:1.0 14:1.0 17:1.0 19:1.0 20:1.0 21:1.0 23:1.0 26:1.0 28:1.0 29:1.0 34:1.0 37:1.0 38:0.3 39:1.0 48:0.8300683821206202 51:1.0 54:1.0 55:1.0 56:1.0 63:1.0 70:1.0 75:1.0 79:1.0 82:1.0 87:1.0 88:1.0 114:1.0 122:1.0 151:1.0 
0.10091869608801068 1:0.09666666666666666 2:0.25 3:1.0 4:1.0 5:1.0 6:1.0 11:1.0 14:1.0 17:1.0 19:1.0 20:1.0 21:1.0 23:1.0 26:1.0 28:1.0 29:1.0 34:1.0 37:1.0 38:0.4 43:1.0 48:1.0 51:1.0 54:1.0 55:1.0 56:1.0 57:1.0 63:1.0 65:1.0 70:1.0 75:1.0 79:1.0 82:1.0 87:1.0 88:1.0 110:1.0 114:1.0 118:1.0 151:1.0 184:1.0 
0.5644591601163771 1:0.155 2:0.35 6:1.0 11:1.0 14:1.0 17:1.0 19:1.0 20:1.0 21:1.0 24:1.0 26:1.0 28:1.0 29:1.0 30:1.0 34:1.0 37:1.0 38:0.25 41:1.0 45:1.0 48:1.0 51:1.0 54:1.0 55:1.0 56:1.0 63:1.0 68:1.0 70:1.0 75:1.0 79:1.0 82:1.0 87:1.0 88:1.0 114:1.0 151:1.0 177:1.0 
1.241030664795013 1:0.18666666666666668 2:0.45 11:1.0 14:1.0 19:1.0 20:1.0 21:1.0 23:1.0 26:1.0 28:1.0 29:1.0 34:1.0 37:1.0 38:0.35 39:1.0 48:0.2355203185617401 63:1.0 70:1.0 75:1.0 79:1.0 114:1.0 122:1.0 151:1.0 
0.06343458805106668 1:0.24666666666666667 2:0.5 3:1.0 4:1.0 5:1.0 6:1.0 11:1.0 14:1.0 17:1.0 19:1.0 20:1.0 21:1.0 23:1.0 26:1.0 28:1.0 29:1.0 34:1.0 38:0.3 48:1.0 51:1.0 54:1.0 55:1.0 56:1.0 63:1.0 67:1.0 70:1.0 75:1.0 79:1.0 82:1.0 87:1.0 88:1.0 114:1.0 133:1.0 151:1.0 177:1.0 
2.0 1:0.006666666666666667 5:1.0 11:1.0 14:1.0 17:1.0 20:1.0 21:1.0 24:1.0 26:1.0 28:1.0 29:1.0 30:1.0 31:1.0 35:1.0 37:1.0 38:0.25 41:1.0 45:1.0 48:0.19073997057105296 52:1.0 56:1.0 57:1.0 65:1.0 81:1.0 154:1.0 155:1.0 184:1.0 
0.8026620911458712 1:0.07166666666666667 2:0.25 3:1.0 4:1.0 5:1.0 6:1.0 13:1.0 14:1.0 17:1.0 19:1.0 20:1.0 21:1.0 23:1.0 26:1.0 28:1.0 29:1.0 31:1.0 33:1.0 37:1.0 38:0.15 48:1.0 50:1.0 54:1.0 55:1.0 56:1.0 105:1.0 134:1.0 163:1.0 
0.647665474357595 1:0.07833333333333334 2:0.25 3:1.0 4:1.0 5:1.0 6:1.0 11:1.0 14:1.0 17:1.0 19:1.0 20:1.0 21:1.0 23:1.0 26:1.0 28:1.0 29:1.0 33:1.0 37:1.0 38:0.55 43:1.0 44:1.0 48:1.0000000000000002 50:1.0 54:1.0 55:1.0 56:1.0 65:1.0 105:1.0 118:1.0 119:1.0 120:1.0 127:1.0 134:1.0 163:1.0 
0.20878813273675037 1:0.16166666666666665 2:0.4 11:1.0 14:1.0 17:1.0 19:1.0 20:1.0 21:1.0 23:1.0 26:1.0 28:1.0 29:1.0 31:1.0 33:1.0 37:1.0 38:0.45 43:1.0 44:1.0 48:0.6235165107956457 50:1.0 54:1.0 55:1.0 56:1.0 65:1.0 105:1.0 118:1.0 119:1.0 120:1.0 127:1.0 134:1.0 163:1.0 
0.5628167292160157 1:0.24333333333333335 2:0.65 11:1.0 14:1.0 17:1.0 19:1.0 20:1.0 21:1.0 23:1.0 26:1.0 28:1.0 29:1.0 33:1.0 37:1.0 38:0.45 43:1.0 44:1.0 48:0.6235165107956457 50:1.0 54:1.0 55:1.0 56:1.0 65:1.0 105:1.0 118:1.0 119:1.0 120:1.0 127:1.0 134:1.0 163:1.0 
0.46464293735512535 1:0.13833333333333334 2:0.35 11:1.0 14:1.0 17:1.0 19:1.0 20:1.0 21:1.0 23:1.0 26:1.0 28:1.0 29:1.0 33:1.0 37:1.0 38:0.25 43:1.0 48:0.6235165107956457 50:1.0 54:1.0 55:1.0 56:1.0 65:1.0 75:1.0 79:1.0 105:1.0 118:1.0 134:1.0 146:1.0 147:1.0 151:1.0 
0.9105755919534713 1:0.385 2:1.0 3:1.0 4:1.0 5:1.0 6:1.0 11:1.0 14:1.0 17:1.0 19:1.0 20:1.0 21:1.0 23:1.0 26:1.0 28:1.0 29:1.0 33:1.0 37:1.0 38:0.35 43:1.0 48:1.0000000000000002 50:1.0 54:1.0 55:1.0 56:1.0 65:1.0 75:1.0 79:1.0 105:1.0 118:1.0 119:1.0 120:1.0 134:1.0 146:1.0 147:1.0 151:1.0 
1.5858754931893162 3:1.0 4:1.0 5:1.0 6:1.0 11:1.0 14:1.0 17:1.0 19:1.0 20:1.0 21:1.0 23:1.0 26:1.0 28:1.0 29:1.0 31:1.0 36:1.0 37:1.0 38:0.15 48:1.0 53:1.0 54:1.0 55:1.0 56:1.0 75:1.0 79:1.0 151:1.0 
1.0426821883133246 1:0.006666666666666667 2:0.05 5:1.0 11:1.0 14:1.0 20:1.0 21:1.0 23:1.0 26:1.0 28:1.0 29:1.0 31:1.0 33:1.0 37:1.0 38:0.4 40:1.0 43:1.0 48:0.7755964371288825 63:1.0 65:1.0 70:1.0 83:1.0 87:1.0 118:1.0 121:1.0 143:1.0 
1.1496116601514947 1:0.15333333333333332 2:0.4 3:1.0 4:1.0 5:1.0 6:1.0 11:1.0 14:1.0 17:1.0 19:1.0 20:1.0 21:1.0 23:1.0 26:1.0 28:1.0 29:1.0 31:1.0 35:1.0 37:1.0 38:0.5 41:1.0 44:1.0 45:1.0 48:0.9999999999999998 52:1.0 54:1.0 55:1.0 56:1.0 63:1.0 65:1.0 174:1.0 
2.0 1:0.19 2:0.5 3:1.0 4:1.0 5:1.0 6:1.0 11:1.0 14:1.0 17:1.0 19:1.0 20:1.0 21:1.0 23:1.0 26:1.0 28:1.0 29:1.0 36:1.0 38:0.35 48:1.0 53:1.0 54:1.0 55:1.0 56:1.0 65:1.0 75:1.0 79:1.0 105:1.0 133:1.0 151:1.0 
0.6176096956346927 1:0.075 2:0.3 3:1.0 4:1.0 5:1.0 6:1.0 11:1.0 14:1.0 17:1.0 19:1.0 20:1.0 21:1.0 23:1.0 26:1.0 28:1.0 29:1.0 33:1.0 37:1.0 38:0.05 48:0.9999999999999998 50:1.0 54:1.0 55:1.0 56:1.0 
0.0982455138350032 1:0.041666666666666664 2:0.05 5:1.0 6:1.0 10:1.0 11:1.0 14:1.0 17:1.0 20:1.0 24:1.0 26:1.0 28:1.0 29:1.0 30:1.0 31:1.0 33:1.0 37:1.0 38:0.75 41:1.0 44:1.0 45:1.0 48:1.0 50:1.0 54:1.0 55:1.0 56:1.0 57:1.0 63:1.0 65:1.0 82:1.0 87:1.0 111:1.0 184:1.0 
1.2043598215886502 1:0.14333333333333334 2:0.2 5:1.0 10:1.0 11:1.0 14:1.0 17:1.0 20:1.0 23:1.0 26:1.0 28:1.0 29:1.0 33:1.0 37:1.0 38:1.1 43:1.0 44:1.0 48:0.5753321064015612 50:1.0 54:1.0 55:1.0 56:1.0 57:1.0 63:1.0 65:1.0 70:1.0 81:1.0 82:1.0 87:1.0 111:1.0 118:1.0 142:1.0 184:1.0 
0.5316291677593953 1:0.045 2:0.05 5:1.0 6:1.0 9:1.0 11:1.0 14:1.0 17:1.0 20:1.0 24:1.0 26:1.0 28:1.0 29:1.0 33:1.0 37:1.0 38:0.75 42:1.0 43:1.0 46:1.0 48:1.0 50:1.0 54:1.0 55:1.0 56:1.0 57:1.0 63:1.0 65:1.0 82:1.0 87:1.0 110:1.0 118:1.0 184:1.0 
0.0020652703940383923 1:0.09166666666666666 2:0.1 3:1.0 4:1.0 5:1.0 6:1.0 9:1.0 11:1.0 14:1.0 17:1.0 19:1.0 20:1.0 21:1.0 22:1.0 26:1.0 28:1.0 29:1.0 30:1.0 33:1.0 37:1.0 38:0.45 41:1.0 42:1.0 45:1.0 46:1.0 47:1.0 48:1.0 50:1.0 54:1.0 55:1.0 56:1.0 63:1.0 82:1.0 87:1.0 
0.2628320979730828 1:0.19333333333333333 2:0.25 5:1.0 9:1.0 11:1.0 14:1.0 17:1.0 19:1.0 20:1.0 21:1.0 24:1.0 26:1.0 28:1.0 29:1.0 33:1.0 37:1.0 38:0.8 42:1.0 43:1.0 46:1.0 48:0.5753321064015612 50:1.0 54:1.0 55:1.0 56:1.0 57:1.0 63:1.0 65:1.0 70:1.0 81:1.0 82:1.0 87:1.0 118:1.0 142:1.0 184:1.0 
0.5067225762388458 1:0.051666666666666666 2:0.1 5:1.0 6:1.0 9:1.0 11:1.0 14:1.0 17:1.0 20:1.0 24:1.0 26:1.0 28:1.0 29:1.0 33:1.0 37:1.0 38:0.6 42:1.0 43:1.0 46:1.0 48:1.0 50:1.0 54:1.0 55:1.0 56:1.0 57:1.0 63:1.0 65:1.0 87:1.0 110:1.0 118:1.0 148:1.0 184:1.0 
0.1596241062866282 1:0.09833333333333333 2:0.15 3:1.0 4:1.0 5:1.0 6:1.0 9:1.0 11:1.0 14:1.0 17:1.0 19:1.0 20:1.0 21:1.0 22:1.0 26:1.0 28:1.0 29:1.0 30:1.0 33:1.0 37:1.0 38:0.3 41:1.0 42:1.0 45:1.0 46:1.0 47:1.0 48:1.0 50:1.0 54:1.0 55:1.0 56:1.0 63:1.0 87:1.0 148:1.0 
0.7680789445301921 1:0.2 2:0.3 5:1.0 9:1.0 11:1.0 14:1.0 17:1.0 19:1.0 20:1.0 21:1.0 24:1.0 26:1.0 28:1.0 29:1.0 33:1.0 37:1.0 38:0.65 42:1.0 43:1.0 46:1.0 48:0.5753321064015612 50:1.0 54:1.0 55:1.0 56:1.0 57:1.0 63:1.0 65:1.0 70:1.0 81:1.0 87:1.0 118:1.0 142:1.0 148:1.0 184:1.0 
0.4913845082087434 1:0.04666666666666667 2:0.05 5:1.0 6:1.0 9:1.0 11:1.0 14:1.0 17:1.0 19:1.0 20:1.0 21:1.0 24:1.0 26:1.0 28:1.0 29:1.0 36:1.0 38:0.6 48:0.9999999999999999 53:1.0 54:1.0 55:1.0 56:1.0 63:1.0 65:1.0 70:1.0 81:1.0 82:1.0 83:1.0 87:1.0 88:1.0 143:1.0 
1.7916041050832177 1:0.01 2:0.1 11:1.0 14:1.0 17:1.0 19:1.0 20:1.0 21:1.0 23:1.0 26:1.0 28:1.0 29:1.0 36:1.0 38:0.35 48:0.5655081614588165 53:1.0 54:1.0 55:1.0 56:1.0 65:1.0 79:1.0 80:1.0 89:1.0 90:1.0 92:1.0 103:1.0 133:1.0 140:1.0 
2.0 1:0.0033333333333333335 11:1.0 14:1.0 21:1.0 23:1.0 26:1.0 28:1.0 29:1.0 31:1.0 33:1.0 37:1.0 38:0.25 41:1.0 45:1.0 48:0.2545737517778882 61:1.0 70:1.0 154:1.0 155:1.0 162:1.0 183:1.0 
0.5441559173166177 1:0.03333333333333333 6:1.0 9:1.0 11:1.0 14:1.0 17:1.0 19:1.0 20:1.0 21:1.0 24:1.0 26:1.0 28:1.0 29:1.0 31:1.0 36:1.0 38:0.4 44:1.0 48:1.0 53:1.0 54:1.0 55:1.0 56:1.0 63:1.0 65:1.0 70:1.0 80:1.0 108:1.0 109:1.0 140:1.0 
0.40982882247126257 1:0.05 2:0.1 6:1.0 9:1.0 11:1.0 14:1.0 17:1.0 19:1.0 20:1.0 21:1.0 24:1.0 26:1.0 28:1.0 29:1.0 36:1.0 37:1.0 38:0.5 44:1.0 48:1.0 53:1.0 54:1.0 55:1.0 56:1.0 63:1.0 65:1.0 70:1.0 79:1.0 89:1.0 90:1.0 103:1.0 133:1.0 
2.0 1:0.021666666666666667 2:0.05 9:1.0 11:1.0 14:1.0 21:1.0 24:1.0 26:1.0 28:1.0 29:1.0 33:1.0 38:0.4 42:1.0 46:1.0 48:0.19959684688838245 63:1.0 64:1.0 70:1.0 95:1.0 162:1.0 
2.0 1:0.035 2:0.05 9:1.0 11:1.0 14:1.0 21:1.0 24:1.0 26:1.0 28:1.0 29:1.0 33:1.0 37:1.0 38:0.2 41:1.0 42:1.0 45:1.0 46:1.0 47:1.0 48:0.2595613977448171 
0.15516729225213807 1:0.12166666666666667 2:0.25 6:1.0 9:1.0 11:1.0 14:1.0 17:1.0 19:1.0 20:1.0 21:1.0 24:1.0 26:1.0 28:1.0 29:1.0 36:1.0 37:1.0 38:0.45 44:1.0 48:1.0 53:1.0 54:1.0 55:1.0 56:1.0 65:1.0 79:1.0 91:1.0 93:1.0 119:1.0 120:1.0 133:1.0 179:1.0 
1.2920680812424474 1:0.11833333333333333 2:0.15 5:1.0 9:1.0 11:1.0 14:1.0 17:1.0 19:1.0 20:1.0 21:1.0 24:1.0 26:1.0 28:1.0 29:1.0 36:1.0 38:0.55 48:0.5655081614588165 53:1.0 54:1.0 55:1.0 56:1.0 65:1.0 80:1.0 81:1.0 140:1.0 
1.6791143513191447 1:0.135 2:0.25 6:1.0 9:1.0 11:1.0 14:1.0 17:1.0 19:1.0 20:1.0 21:1.0 24:1.0 26:1.0 28:1.0 29:1.0 36:1.0 38:0.55 48:1.0000000000000002 53:1.0 54:1.0 55:1.0 56:1.0 65:1.0 79:1.0 81:1.0 91:1.0 93:1.0 133:1.0 179:1.0 
2.0 1:0.12833333333333333 2:0.2 11:1.0 14:1.0 21:1.0 23:1.0 26:1.0 28:1.0 29:1.0 33:1.0 38:0.55 44:1.0 48:0.19959684688838245 63:1.0 64:1.0 65:1.0 70:1.0 94:1.0 95:1.0 162:1.0 170:1.0 
2.0 1:0.14166666666666666 2:0.2 11:1.0 14:1.0 21:1.0 23:1.0 26:1.0 28:1.0 29:1.0 33:1.0 37:1.0 38:0.35 41:1.0 44:1.0 45:1.0 48:0.2595613977448171 63:1.0 65:1.0 94:1.0 170:1.0 
2.0 1:0.01 12:1.0 14:1.0 21:1.0 23:1.0 26:1.0 28:1.0 29:1.0 31:1.0 33:1.0 37:1.0 38:0.15 41:1.0 45:1.0 48:0.20461162903026456 70:1.0 154:1.0 155:1.0 
1.7166085560810644 1:0.06333333333333334 2:0.2 11:1.0 14:1.0 17:1.0 20:1.0 21:1.0 23:1.0 26:1.0 28:1.0 29:1.0 36:1.0 37:1.0 38:0.25 48:1.0 53:1.0 54:1.0 55:1.0 56:1.0 80:1.0 115:1.0 
0.1512626403516117 1:0.06666666666666667 2:0.2 11:1.0 14:1.0 19:1.0 20:1.0 21:1.0 23:1.0 26:1.0 28:1.0 29:1.0 35:1.0 37:1.0 38:0.25 48:0.16428446521451312 80:1.0 115:1.0 
2.0 1:0.07 2:0.2 11:1.0 14:1.0 17:1.0 19:1.0 20:1.0 21:1.0 23:1.0 26:1.0 28:1.0 29:1.0 36:1.0 37:1.0 38:0.3 48:0.28796042555194257 53:1.0 54:1.0 55:1.0 56:1.0 80:1.0 92:1.0 140:1.0 
2.0 1:0.06833333333333333 2:0.2 5:1.0 11:1.0 14:1.0 20:1.0 21:1.0 23:1.0 26:1.0 28:1.0 29:1.0 35:1.0 37:1.0 38:0.25 48:0.41942913838468776 80:1.0 115:1.0 
2.0 1:0.006666666666666667 2:0.05 11:1.0 14:1.0 21:1.0 23:1.0 26:1.0 28:1.0 29:1.0 33:1.0 37:1.0 38:0.45 42:1.0 46:1.0 48:0.19582137296982785 57:1.0 65:1.0 80:1.0 81:1.0 98:1.0 137:1.0 138:1.0 157:1.0 184:1.0 
1.5905715402197869 1:0.035 2:0.05 11:1.0 14:1.0 19:1.0 20:1.0 21:1.0 23:1.0 26:1.0 28:1.0 29:1.0 31:1.0 35:1.0 37:1.0 38:0.35 48:0.16428446521451312 57:1.0 63:1.0 65:1.0 75:1.0 79:1.0 80:1.0 151:1.0 184:1.0 
2.0 1:0.10833333333333334 2:0.25 11:1.0 14:1.0 17:1.0 19:1.0 20:1.0 21:1.0 23:1.0 26:1.0 28:1.0 29:1.0 35:1.0 37:1.0 38:0.35 48:0.18488154851910807 52:1.0 54:1.0 55:1.0 56:1.0 57:1.0 63:1.0 65:1.0 75:1.0 79:1.0 80:1.0 151:1.0 184:1.0 
1.6995376920171683 1:0.051666666666666666 2:0.1 3:1.0 4:1.0 5:1.0 6:1.0 11:1.0 14:1.0 17:1.0 19:1.0 20:1.0 21:1.0 23:1.0 26:1.0 28:1.0 29:1.0 36:1.0 38:0.45 43:1.0 48:1.0 53:1.0 54:1.0 55:1.0 56:1.0 65:1.0 70:1.0 80:1.0 103:1.0 115:1.0 118:1.0 
2.0 1:0.0050 11:1.0 14:1.0 21:1.0 23:1.0 26:1.0 29:1.0 31:1.0 33:1.0 37:1.0 38:0.4 40:1.0 43:1.0 48:0.21101956248456014 63:1.0 65:1.0 70:1.0 118:1.0 121:1.0 155:1.0 
2.0 1:0.01 2:0.05 9:1.0 11:1.0 14:1.0 21:1.0 24:1.0 26:1.0 28:1.0 29:1.0 31:1.0 33:1.0 37:1.0 38:0.4 39:1.0 42:1.0 46:1.0 48:0.4283728979918256 63:1.0 70:1.0 122:1.0 
1.0579674462059754 1:0.03 2:0.05 9:1.0 11:1.0 14:1.0 19:1.0 21:1.0 24:1.0 26:1.0 28:1.0 29:1.0 33:1.0 37:1.0 38:0.35 42:1.0 43:1.0 46:1.0 48:0.2603757093467751 65:1.0 118:1.0 
0.3281954990857187 1:0.15833333333333333 2:0.25 3:1.0 4:1.0 5:1.0 6:1.0 11:1.0 14:1.0 17:1.0 19:1.0 20:1.0 21:1.0 23:1.0 26:1.0 28:1.0 29:1.0 36:1.0 38:0.5 43:1.0 48:1.0 53:1.0 54:1.0 55:1.0 56:1.0 65:1.0 70:1.0 72:1.0 74:1.0 91:1.0 118:1.0 151:1.0 162:1.0 179:1.0 
1.15963064805015 1:0.15833333333333333 2:0.25 3:1.0 4:1.0 5:1.0 6:1.0 11:1.0 14:1.0 17:1.0 19:1.0 20:1.0 21:1.0 23:1.0 26:1.0 28:1.0 29:1.0 36:1.0 37:1.0 38:0.5 48:1.0000000000000002 53:1.0 54:1.0 55:1.0 56:1.0 70:1.0 72:1.0 74:1.0 79:1.0 91:1.0 133:1.0 151:1.0 162:1.0 179:1.0 
1.0250571335097733 1:0.085 2:0.15 11:1.0 14:1.0 21:1.0 24:1.0 26:1.0 28:1.0 29:1.0 30:1.0 33:1.0 37:1.0 38:0.3 41:1.0 44:1.0 45:1.0 48:0.24540366355798227 63:1.0 65:1.0 68:1.0 82:1.0 86:1.0 87:1.0 94:1.0 170:1.0 177:1.0 
2.0 1:0.09833333333333333 2:0.2 11:1.0 14:1.0 21:1.0 23:1.0 26:1.0 28:1.0 29:1.0 33:1.0 37:1.0 38:0.55 39:1.0 44:1.0 48:0.2199886593368569 63:1.0 65:1.0 70:1.0 94:1.0 122:1.0 170:1.0 
2.0 1:0.11833333333333333 2:0.2 11:1.0 14:1.0 21:1.0 23:1.0 26:1.0 28:1.0 29:1.0 33:1.0 37:1.0 38:0.5 43:1.0 44:1.0 48:0.22053505898693418 63:1.0 65:1.0 94:1.0 118:1.0 170:1.0 
2.0 1:0.2683333333333333 2:0.4 11:1.0 14:1.0 17:1.0 20:1.0 21:1.0 23:1.0 26:1.0 28:1.0 29:1.0 36:1.0 38:0.2 48:1.0 53:1.0 80:1.0 103:1.0 115:1.0 
2.0 1:0.07166666666666667 2:0.1 9:1.0 11:1.0 14:1.0 21:1.0 24:1.0 26:1.0 28:1.0 29:1.0 36:1.0 37:1.0 38:0.5 43:1.0 44:1.0 48:0.20713465513198648 57:1.0 65:1.0 80:1.0 98:1.0 103:1.0 111:1.0 118:1.0 137:1.0 138:1.0 184:1.0 
2.0 1:0.06166666666666667 2:0.05 11:1.0 14:1.0 21:1.0 23:1.0 26:1.0 28:1.0 29:1.0 33:1.0 37:1.0 38:0.5 39:1.0 44:1.0 48:0.2261745191843043 57:1.0 63:1.0 65:1.0 70:1.0 80:1.0 98:1.0 111:1.0 122:1.0 137:1.0 138:1.0 184:1.0 
2.0 1:0.07833333333333334 2:0.05 11:1.0 14:1.0 21:1.0 23:1.0 26:1.0 28:1.0 29:1.0 33:1.0 37:1.0 38:0.45 44:1.0 48:0.23320478108505688 57:1.0 63:1.0 65:1.0 80:1.0 81:1.0 111:1.0 137:1.0 138:1.0 157:1.0 184:1.0 
2.0 1:0.09333333333333334 2:0.1 11:1.0 14:1.0 21:1.0 23:1.0 26:1.0 28:1.0 29:1.0 33:1.0 37:1.0 38:0.45 44:1.0 48:0.23320478108505688 63:1.0 65:1.0 80:1.0 81:1.0 94:1.0 137:1.0 138:1.0 157:1.0 170:1.0 
2.0 1:0.016666666666666666 2:0.05 11:1.0 14:1.0 21:1.0 23:1.0 26:1.0 28:1.0 29:1.0 31:1.0 33:1.0 37:1.0 38:0.45 43:1.0 44:1.0 48:0.24540366355798227 63:1.0 65:1.0 82:1.0 86:1.0 87:1.0 94:1.0 118:1.0 170:1.0 
2.0 1:0.03166666666666667 2:0.1 11:1.0 14:1.0 21:1.0 23:1.0 26:1.0 28:1.0 29:1.0 33:1.0 37:1.0 38:0.45 43:1.0 44:1.0 48:0.24540366355798227 57:1.0 63:1.0 65:1.0 82:1.0 86:1.0 87:1.0 94:1.0 110:1.0 118:1.0 170:1.0 184:1.0 
1.1489921846459796 1:0.06833333333333333 2:0.1 11:1.0 14:1.0 21:1.0 24:1.0 26:1.0 28:1.0 29:1.0 30:1.0 33:1.0 37:1.0 38:0.35 41:1.0 44:1.0 45:1.0 48:0.24540366355798227 63:1.0 65:1.0 82:1.0 86:1.0 87:1.0 94:1.0 170:1.0 
1.061827438076975 1:0.09666666666666666 2:0.15 11:1.0 14:1.0 21:1.0 23:1.0 26:1.0 28:1.0 29:1.0 33:1.0 37:1.0 38:0.5 39:1.0 44:1.0 48:0.24289094905555364 63:1.0 65:1.0 70:1.0 80:1.0 94:1.0 98:1.0 122:1.0 137:1.0 138:1.0 170:1.0 
0.4995863849985491 1:0.013333333333333334 2:0.05 5:1.0 11:1.0 14:1.0 17:1.0 19:1.0 20:1.0 21:1.0 23:1.0 26:1.0 28:1.0 29:1.0 31:1.0 36:1.0 37:1.0 38:0.25 41:1.0 44:1.0 45:1.0 48:0.8802763901770597 53:1.0 54:1.0 55:1.0 56:1.0 65:1.0 68:1.0 87:1.0 148:1.0 177:1.0 
1.009975628631516 1:0.02 2:0.05 11:1.0 14:1.0 21:1.0 24:1.0 26:1.0 28:1.0 29:1.0 30:1.0 31:1.0 33:1.0 37:1.0 38:0.3 41:1.0 44:1.0 45:1.0 48:0.24540366355798227 63:1.0 65:1.0 68:1.0 82:1.0 86:1.0 87:1.0 94:1.0 170:1.0 177:1.0 
2.0 1:0.04 2:0.1 11:1.0 14:1.0 21:1.0 23:1.0 26:1.0 28:1.0 29:1.0 33:1.0 37:1.0 38:0.45 43:1.0 44:1.0 48:0.23320478108505688 63:1.0 65:1.0 94:1.0 118:1.0 170:1.0 
2.0 1:0.055 2:0.15 11:1.0 14:1.0 21:1.0 23:1.0 26:1.0 28:1.0 29:1.0 33:1.0 37:1.0 38:0.45 43:1.0 44:1.0 48:0.23320478108505688 63:1.0 65:1.0 94:1.0 118:1.0 170:1.0 
2.0 1:0.075 2:0.2 11:1.0 14:1.0 21:1.0 23:1.0 26:1.0 28:1.0 29:1.0 33:1.0 37:1.0 38:0.45 43:1.0 44:1.0 48:0.23320478108505688 63:1.0 65:1.0 94:1.0 118:1.0 170:1.0 
2.0 1:0.028333333333333332 2:0.1 11:1.0 14:1.0 19:1.0 20:1.0 21:1.0 23:1.0 26:1.0 28:1.0 29:1.0 36:1.0 37:1.0 38:0.55 48:0.8119613306202349 65:1.0 80:1.0 81:1.0 92:1.0 103:1.0 140:1.0 157:1.0 
2.0 1:0.0033333333333333335 4:1.0 11:1.0 14:1.0 21:1.0 23:1.0 26:1.0 29:1.0 31:1.0 33:1.0 37:1.0 38:0.25 43:1.0 48:0.18967077929242693 57:1.0 65:1.0 70:1.0 110:1.0 118:1.0 184:1.0 
0.016935367013124394 1:0.015 2:0.05 9:1.0 11:1.0 14:1.0 21:1.0 24:1.0 26:1.0 28:1.0 29:1.0 33:1.0 37:1.0 38:0.35 42:1.0 46:1.0 48:0.1935296180401365 70:1.0 80:1.0 113:1.0 
2.0 1:0.03166666666666667 2:0.05 9:1.0 11:1.0 14:1.0 21:1.0 24:1.0 26:1.0 28:1.0 29:1.0 33:1.0 37:1.0 38:0.35 42:1.0 43:1.0 46:1.0 48:0.19735602190990598 57:1.0 65:1.0 80:1.0 110:1.0 113:1.0 118:1.0 184:1.0 
2.0 1:0.06333333333333334 2:0.15 11:1.0 14:1.0 21:1.0 23:1.0 26:1.0 28:1.0 29:1.0 33:1.0 37:1.0 38:0.5 44:1.0 48:0.1935296180401365 63:1.0 65:1.0 70:1.0 80:1.0 94:1.0 113:1.0 170:1.0 
1.3930236707825345 1:0.08 2:0.15 11:1.0 14:1.0 21:1.0 23:1.0 26:1.0 28:1.0 29:1.0 33:1.0 37:1.0 38:0.5 43:1.0 44:1.0 48:0.19735602190990598 57:1.0 63:1.0 65:1.0 80:1.0 94:1.0 110:1.0 113:1.0 118:1.0 170:1.0 184:1.0 
2.0 1:0.075 2:0.2 11:1.0 14:1.0 21:1.0 23:1.0 26:1.0 28:1.0 29:1.0 33:1.0 37:1.0 38:0.5 44:1.0 48:0.1935296180401365 63:1.0 65:1.0 70:1.0 80:1.0 94:1.0 113:1.0 170:1.0 
2.0 1:0.09166666666666666 2:0.2 11:1.0 14:1.0 21:1.0 23:1.0 26:1.0 28:1.0 29:1.0 33:1.0 37:1.0 38:0.5 43:1.0 44:1.0 48:0.19735602190990598 57:1.0 63:1.0 65:1.0 80:1.0 94:1.0 110:1.0 113:1.0 118:1.0 170:1.0 184:1.0 
2.0 1:0.14833333333333334 2:0.35 11:1.0 14:1.0 19:1.0 20:1.0 21:1.0 23:1.0 26:1.0 28:1.0 29:1.0 36:1.0 37:1.0 38:0.25 48:0.24146145526064416 80:1.0 92:1.0 103:1.0 140:1.0 
1.8994382501958713 1:0.05 9:1.0 13:1.0 14:1.0 17:1.0 19:1.0 20:1.0 21:1.0 24:1.0 26:1.0 28:1.0 29:1.0 31:1.0 36:1.0 38:0.45 44:1.0 48:0.5655081614588165 53:1.0 57:1.0 65:1.0 98:1.0 111:1.0 176:1.0 184:1.0 
0.12142138535159851 1:0.03833333333333333 2:0.05 6:1.0 11:1.0 14:1.0 17:1.0 19:1.0 20:1.0 21:1.0 24:1.0 26:1.0 28:1.0 29:1.0 30:1.0 33:1.0 37:1.0 38:0.4 41:1.0 45:1.0 48:1.0000000000000002 50:1.0 54:1.0 55:1.0 56:1.0 63:1.0 65:1.0 75:1.0 79:1.0 82:1.0 86:1.0 87:1.0 94:1.0 151:1.0 170:1.0 
0.22734432979193092 1:0.03166666666666667 2:0.1 3:1.0 4:1.0 5:1.0 6:1.0 11:1.0 14:1.0 17:1.0 19:1.0 20:1.0 21:1.0 23:1.0 26:1.0 28:1.0 29:1.0 33:1.0 37:1.0 38:0.45 48:1.0000000000000002 50:1.0 54:1.0 55:1.0 56:1.0 63:1.0 65:1.0 70:1.0 75:1.0 79:1.0 82:1.0 87:1.0 88:1.0 94:1.0 114:1.0 133:1.0 151:1.0 170:1.0 
0.19783586053226185 1:0.07166666666666667 2:0.15 6:1.0 11:1.0 14:1.0 17:1.0 19:1.0 20:1.0 21:1.0 24:1.0 26:1.0 28:1.0 29:1.0 30:1.0 33:1.0 37:1.0 38:0.3 41:1.0 45:1.0 48:1.0000000000000002 50:1.0 54:1.0 55:1.0 56:1.0 63:1.0 70:1.0 75:1.0 79:1.0 82:1.0 87:1.0 88:1.0 114:1.0 151:1.0 
1.3178803585133247 1:0.015 2:0.1 11:1.0 14:1.0 17:1.0 19:1.0 20:1.0 21:1.0 23:1.0 26:1.0 28:1.0 29:1.0 36:1.0 38:0.4 43:1.0 48:0.5655081614588165 53:1.0 65:1.0 75:1.0 79:1.0 80:1.0 103:1.0 104:1.0 118:1.0 140:1.0 151:1.0 
1.6713092537773748 1:0.015 2:0.05 9:1.0 11:1.0 14:1.0 21:1.0 24:1.0 26:1.0 28:1.0 29:1.0 31:1.0 33:1.0 37:1.0 38:0.35 42:1.0 46:1.0 48:0.23320478108505688 65:1.0 80:1.0 81:1.0 137:1.0 138:1.0 157:1.0 
2.0 1:0.08666666666666667 2:0.15 9:1.0 11:1.0 14:1.0 21:1.0 24:1.0 26:1.0 28:1.0 29:1.0 33:1.0 37:1.0 38:0.5 44:1.0 48:0.23320478108505688 63:1.0 65:1.0 80:1.0 81:1.0 137:1.0 138:1.0 157:1.0 
2.0 1:0.03333333333333333 2:0.15 11:1.0 14:1.0 19:1.0 20:1.0 21:1.0 23:1.0 26:1.0 28:1.0 29:1.0 31:1.0 36:1.0 38:0.3 48:0.6566598786029497 80:1.0 92:1.0 140:1.0 
2.0 1:0.03833333333333333 2:0.15 11:1.0 14:1.0 19:1.0 20:1.0 21:1.0 23:1.0 26:1.0 28:1.0 29:1.0 31:1.0 35:1.0 37:1.0 38:0.25 48:0.16428446521451312 80:1.0 115:1.0 
2.0 1:0.03166666666666667 2:0.05 11:1.0 14:1.0 17:1.0 19:1.0 20:1.0 21:1.0 23:1.0 26:1.0 28:1.0 29:1.0 33:1.0 37:1.0 38:0.5 44:1.0 48:0.4100961375533907 50:1.0 54:1.0 55:1.0 56:1.0 65:1.0 80:1.0 81:1.0 119:1.0 120:1.0 137:1.0 138:1.0 157:1.0 
2.0 1:0.043333333333333335 2:0.1 11:1.0 14:1.0 19:1.0 20:1.0 21:1.0 23:1.0 26:1.0 28:1.0 29:1.0 33:1.0 37:1.0 38:0.8 43:1.0 44:1.0 48:0.19184687460769692 57:1.0 63:1.0 65:1.0 80:1.0 98:1.0 111:1.0 118:1.0 119:1.0 120:1.0 132:1.0 137:1.0 138:1.0 184:1.0 
2.0 1:0.045 2:0.05 5:1.0 11:1.0 14:1.0 19:1.0 21:1.0 23:1.0 26:1.0 28:1.0 29:1.0 33:1.0 37:1.0 38:0.45 43:1.0 44:1.0 48:0.2698954736592559 56:1.0 63:1.0 65:1.0 66:1.0 82:1.0 87:1.0 118:1.0 177:1.0 
1.5056099826006173 1:0.07833333333333334 2:0.1 11:1.0 14:1.0 19:1.0 21:1.0 23:1.0 26:1.0 28:1.0 29:1.0 33:1.0 37:1.0 38:0.6 44:1.0 48:0.3362838377980038 56:1.0 63:1.0 65:1.0 80:1.0 81:1.0 119:1.0 120:1.0 137:1.0 138:1.0 157:1.0 
2.0 1:0.03833333333333333 2:0.1 3:1.0 4:1.0 5:1.0 6:1.0 11:1.0 14:1.0 17:1.0 19:1.0 20:1.0 21:1.0 23:1.0 26:1.0 28:1.0 29:1.0 36:1.0 38:0.35 48:1.0 53:1.0 54:1.0 55:1.0 56:1.0 75:1.0 79:1.0 80:1.0 104:1.0 140:1.0 151:1.0 
1.6461070335903516 1:0.03833333333333333 2:0.1 3:1.0 4:1.0 5:1.0 6:1.0 11:1.0 14:1.0 17:1.0 19:1.0 20:1.0 21:1.0 23:1.0 26:1.0 28:1.0 29:1.0 36:1.0 37:1.0 38:0.5 43:1.0 44:1.0 48:1.0 53:1.0 54:1.0 55:1.0 56:1.0 65:1.0 80:1.0 118:1.0 137:1.0 138:1.0 140:1.0 
2.0 1:0.023333333333333334 12:1.0 14:1.0 21:1.0 23:1.0 26:1.0 28:1.0 29:1.0 33:1.0 37:1.0 38:0.35 39:1.0 48:0.18346260031452008 70:1.0 122:1.0 
2.0 1:0.011666666666666667 2:0.05 9:1.0 12:1.0 14:1.0 21:1.0 24:1.0 26:1.0 28:1.0 29:1.0 33:1.0 37:1.0 38:0.45 42:1.0 46:1.0 48:0.19346291346474634 70:1.0 80:1.0 113:1.0 123:1.0 
0.13864441242646394 1:0.04666666666666667 2:0.05 9:1.0 11:1.0 14:1.0 21:1.0 24:1.0 26:1.0 28:1.0 29:1.0 33:1.0 37:1.0 38:0.35 39:1.0 42:1.0 46:1.0 48:0.2205445632207393 70:1.0 80:1.0 113:1.0 122:1.0 123:1.0 
2.0 1:0.05 2:0.1 12:1.0 14:1.0 21:1.0 23:1.0 26:1.0 28:1.0 29:1.0 33:1.0 37:1.0 38:0.6 44:1.0 48:0.19346291346474634 63:1.0 65:1.0 70:1.0 80:1.0 94:1.0 113:1.0 123:1.0 170:1.0 
2.0 1:0.085 2:0.1 11:1.0 14:1.0 21:1.0 23:1.0 26:1.0 28:1.0 29:1.0 33:1.0 37:1.0 38:0.5 39:1.0 44:1.0 48:0.2205445632207393 63:1.0 65:1.0 70:1.0 80:1.0 94:1.0 113:1.0 122:1.0 123:1.0 170:1.0 
2.0 1:0.006666666666666667 2:0.1 5:1.0 12:1.0 14:1.0 17:1.0 20:1.0 21:1.0 23:1.0 26:1.0 28:1.0 29:1.0 36:1.0 38:0.2 48:0.9999999999999998 53:1.0 54:1.0 55:1.0 56:1.0 80:1.0 103:1.0 115:1.0 
2.0 1:0.0016666666666666668 11:1.0 14:1.0 21:1.0 23:1.0 26:1.0 29:1.0 31:1.0 33:1.0 37:1.0 38:0.15 48:0.2314550127962028 70:1.0 
2.0 1:0.02666666666666667 2:0.05 9:1.0 11:1.0 14:1.0 21:1.0 24:1.0 26:1.0 28:1.0 29:1.0 33:1.0 38:0.4 42:1.0 46:1.0 48:0.22613084874895958 65:1.0 70:1.0 80:1.0 98:1.0 137:1.0 138:1.0 
0.47328437077620755 1:0.03333333333333333 2:0.05 9:1.0 11:1.0 14:1.0 21:1.0 24:1.0 26:1.0 28:1.0 29:1.0 33:1.0 37:1.0 38:0.3 42:1.0 46:1.0 48:0.23320478108505688 65:1.0 80:1.0 81:1.0 137:1.0 138:1.0 157:1.0 
2.0 1:0.06833333333333333 2:0.25 11:1.0 14:1.0 21:1.0 23:1.0 26:1.0 28:1.0 29:1.0 36:1.0 38:0.35 48:0.3285295007161511 73:1.0 79:1.0 80:1.0 92:1.0 133:1.0 140:1.0 171:1.0 
2.0 1:0.06833333333333333 2:0.25 5:1.0 11:1.0 14:1.0 20:1.0 21:1.0 23:1.0 26:1.0 28:1.0 29:1.0 35:1.0 37:1.0 38:0.25 48:0.41942913838468776 80:1.0 115:1.0 
2.0 1:0.08 2:0.3 11:1.0 14:1.0 19:1.0 20:1.0 21:1.0 23:1.0 26:1.0 28:1.0 29:1.0 36:1.0 38:0.2 48:0.7071495435976384 80:1.0 92:1.0 140:1.0 
2.0 1:0.08333333333333333 2:0.3 5:1.0 11:1.0 14:1.0 20:1.0 21:1.0 23:1.0 26:1.0 28:1.0 29:1.0 35:1.0 37:1.0 38:0.2 48:0.41942913838468776 80:1.0 115:1.0 
2.0 1:0.075 2:0.15 11:1.0 14:1.0 21:1.0 23:1.0 26:1.0 28:1.0 29:1.0 33:1.0 37:1.0 38:0.4 48:0.25721450330968076 63:1.0 75:1.0 79:1.0 80:1.0 140:1.0 151:1.0 
2.0 1:0.12166666666666667 2:0.2 9:1.0 12:1.0 14:1.0 21:1.0 24:1.0 26:1.0 28:1.0 29:1.0 34:1.0 37:1.0 38:0.35 40:1.0 48:0.1613185189897784 63:1.0 70:1.0 80:1.0 113:1.0 121:1.0 123:1.0 
0.4415393433205726 1:0.16 2:0.35 11:1.0 14:1.0 17:1.0 20:1.0 21:1.0 23:1.0 26:1.0 28:1.0 29:1.0 36:1.0 37:1.0 38:0.3 43:1.0 48:1.0 53:1.0 65:1.0 80:1.0 103:1.0 115:1.0 118:1.0 
2.0 1:0.15166666666666667 2:0.25 3:1.0 4:1.0 5:1.0 6:1.0 11:1.0 14:1.0 17:1.0 19:1.0 20:1.0 21:1.0 23:1.0 26:1.0 28:1.0 29:1.0 35:1.0 37:1.0 38:0.25 48:1.0 52:1.0 54:1.0 55:1.0 56:1.0 80:1.0 115:1.0 
1.7410725166662762 1:0.1 2:0.15 3:1.0 4:1.0 5:1.0 6:1.0 11:1.0 14:1.0 17:1.0 19:1.0 20:1.0 21:1.0 23:1.0 26:1.0 28:1.0 29:1.0 31:1.0 33:1.0 38:0.5 44:1.0 48:1.0000000000000002 50:1.0 54:1.0 55:1.0 56:1.0 63:1.0 65:1.0 79:1.0 82:1.0 86:1.0 87:1.0 94:1.0 133:1.0 170:1.0 
2.0 1:0.17666666666666667 2:0.3 11:1.0 14:1.0 21:1.0 23:1.0 26:1.0 28:1.0 29:1.0 33:1.0 37:1.0 38:0.35 44:1.0 48:0.25721450330968076 63:1.0 65:1.0 80:1.0 94:1.0 140:1.0 170:1.0 
2.0 1:0.01 12:1.0 14:1.0 21:1.0 23:1.0 26:1.0 28:1.0 29:1.0 33:1.0 37:1.0 38:0.35 41:1.0 45:1.0 48:0.20639814433163323 70:1.0 154:1.0 155:1.0 
2.0 1:0.021666666666666667 2:0.05 12:1.0 14:1.0 21:1.0 23:1.0 26:1.0 28:1.0 29:1.0 33:1.0 37:1.0 38:0.5 42:1.0 46:1.0 48:0.1945602957145873 63:1.0 70:1.0 
2.0 1:0.043333333333333335 2:0.05 11:1.0 14:1.0 21:1.0 23:1.0 26:1.0 28:1.0 29:1.0 33:1.0 37:1.0 38:0.2 41:1.0 42:1.0 45:1.0 46:1.0 47:1.0 48:0.21527494478633494 
2.0 1:0.023333333333333334 11:1.0 14:1.0 19:1.0 20:1.0 21:1.0 23:1.0 26:1.0 28:1.0 29:1.0 36:1.0 37:1.0 38:0.25 48:0.42244759409885674 65:1.0 80:1.0 115:1.0 
0.5317719341712187 1:0.035 3:1.0 4:1.0 5:1.0 6:1.0 11:1.0 14:1.0 17:1.0 19:1.0 20:1.0 21:1.0 23:1.0 26:1.0 28:1.0 29:1.0 36:1.0 37:1.0 38:0.35 48:0.9999999999999998 53:1.0 54:1.0 55:1.0 56:1.0 65:1.0 80:1.0 140:1.0 
2.0 1:0.09 2:0.1 11:1.0 14:1.0 19:1.0 20:1.0 21:1.0 23:1.0 26:1.0 28:1.0 29:1.0 36:1.0 38:0.4 48:0.6566598786029497 80:1.0 103:1.0 140:1.0 
0.8985398533437663 1:0.095 2:0.1 3:1.0 4:1.0 5:1.0 6:1.0 11:1.0 14:1.0 17:1.0 19:1.0 20:1.0 21:1.0 23:1.0 26:1.0 28:1.0 29:1.0 36:1.0 37:1.0 38:0.45 48:1.0 53:1.0 54:1.0 55:1.0 56:1.0 79:1.0 80:1.0 92:1.0 103:1.0 133:1.0 140:1.0 
2.0 1:0.0016666666666666668 11:1.0 14:1.0 21:1.0 23:1.0 26:1.0 29:1.0 31:1.0 33:1.0 38:0.1 40:1.0 48:0.28228336938346316 70:1.0 121:1.0 
0.41031308567105634 1:0.03666666666666667 6:1.0 9:1.0 11:1.0 14:1.0 17:1.0 19:1.0 20:1.0 21:1.0 24:1.0 26:1.0 28:1.0 29:1.0 31:1.0 36:1.0 38:0.3 44:1.0 48:1.0 53:1.0 54:1.0 55:1.0 56:1.0 57:1.0 65:1.0 80:1.0 111:1.0 140:1.0 184:1.0 
0.6064334139149434 1:0.135 2:0.1 6:1.0 9:1.0 11:1.0 14:1.0 17:1.0 19:1.0 20:1.0 21:1.0 24:1.0 26:1.0 28:1.0 29:1.0 36:1.0 37:1.0 38:0.5 44:1.0 48:1.0 53:1.0 54:1.0 55:1.0 56:1.0 57:1.0 65:1.0 79:1.0 80:1.0 103:1.0 111:1.0 113:1.0 133:1.0 184:1.0 
1.2250453073468912 1:0.006666666666666667 2:0.05 9:1.0 11:1.0 14:1.0 21:1.0 24:1.0 26:1.0 28:1.0 29:1.0 31:1.0 33:1.0 37:1.0 38:0.25 39:1.0 42:1.0 46:1.0 48:0.23029789317461297 70:1.0 80:1.0 113:1.0 122:1.0 123:1.0 
2.0 1:0.023333333333333334 2:0.05 9:1.0 11:1.0 14:1.0 21:1.0 24:1.0 26:1.0 28:1.0 29:1.0 33:1.0 38:0.2 42:1.0 46:1.0 48:0.24625511477443904 80:1.0 140:1.0 
2.0 1:0.235 2:0.45 11:1.0 14:1.0 19:1.0 20:1.0 21:1.0 23:1.0 26:1.0 28:1.0 29:1.0 36:1.0 37:1.0 38:0.3 48:0.42244759409885674 80:1.0 103:1.0 140:1.0 
1.6744009820883659 1:0.041666666666666664 2:0.05 3:1.0 4:1.0 5:1.0 6:1.0 11:1.0 14:1.0 17:1.0 19:1.0 20:1.0 21:1.0 23:1.0 26:1.0 28:1.0 29:1.0 31:1.0 36:1.0 37:1.0 38:0.25 42:1.0 46:1.0 48:0.9999999999999998 53:1.0 54:1.0 55:1.0 56:1.0 80:1.0 140:1.0 
0.2646043539229946 1:0.24166666666666667 2:0.5 3:1.0 4:1.0 5:1.0 6:1.0 11:1.0 14:1.0 17:1.0 19:1.0 20:1.0 21:1.0 23:1.0 26:1.0 28:1.0 29:1.0 36:1.0 37:1.0 38:0.4 42:1.0 46:1.0 48:0.9999999999999998 53:1.0 54:1.0 55:1.0 56:1.0 65:1.0 80:1.0 91:1.0 93:1.0 140:1.0 179:1.0 
0.6361397824959473 1:0.2816666666666667 2:0.5 3:1.0 4:1.0 5:1.0 6:1.0 11:1.0 14:1.0 17:1.0 19:1.0 20:1.0 21:1.0 23:1.0 26:1.0 28:1.0 29:1.0 36:1.0 37:1.0 38:0.2 42:1.0 46:1.0 48:0.9999999999999998 53:1.0 54:1.0 55:1.0 56:1.0 91:1.0 179:1.0 
2.0 1:0.03 2:0.15 11:1.0 14:1.0 20:1.0 21:1.0 23:1.0 26:1.0 28:1.0 29:1.0 31:1.0 36:1.0 37:1.0 38:0.25 48:0.7718161141665285 56:1.0 80:1.0 115:1.0 
2.0 1:0.035 2:0.15 11:1.0 14:1.0 19:1.0 20:1.0 21:1.0 23:1.0 26:1.0 28:1.0 29:1.0 31:1.0 35:1.0 37:1.0 38:0.25 48:0.16428446521451312 80:1.0 115:1.0 
1.801883508846137 1:0.03666666666666667 2:0.15 11:1.0 14:1.0 17:1.0 20:1.0 21:1.0 24:1.0 26:1.0 28:1.0 29:1.0 30:1.0 36:1.0 37:1.0 38:0.45 43:1.0 48:0.5655081614588165 53:1.0 65:1.0 70:1.0 80:1.0 103:1.0 115:1.0 118:1.0 
2.0 1:0.021666666666666667 2:0.05 11:1.0 14:1.0 21:1.0 23:1.0 26:1.0 28:1.0 29:1.0 33:1.0 37:1.0 38:0.2 42:1.0 46:1.0 48:0.23913386370061465 80:1.0 140:1.0 
2.0 1:0.0016666666666666668 4:1.0 11:1.0 14:1.0 21:1.0 23:1.0 26:1.0 29:1.0 31:1.0 33:1.0 37:1.0 38:0.1 40:1.0 48:0.20139524722245075 70:1.0 121:1.0 
1.0206636957743647 2:0.05 9:1.0 11:1.0 14:1.0 21:1.0 24:1.0 26:1.0 28:1.0 29:1.0 31:1.0 33:1.0 37:1.0 38:0.5 39:1.0 42:1.0 46:1.0 48:0.19967538202346843 57:1.0 65:1.0 70:1.0 80:1.0 98:1.0 122:1.0 137:1.0 138:1.0 153:1.0 184:1.0 
0.765941169352444 1:0.07333333333333333 2:0.15 6:1.0 9:1.0 11:1.0 14:1.0 17:1.0 19:1.0 20:1.0 21:1.0 24:1.0 26:1.0 28:1.0 29:1.0 36:1.0 37:1.0 38:0.4 43:1.0 48:1.0 53:1.0 54:1.0 55:1.0 56:1.0 57:1.0 63:1.0 65:1.0 78:1.0 81:1.0 118:1.0 149:1.0 179:1.0 184:1.0 
0.7066202192927212 1:0.058333333333333334 2:0.1 11:1.0 14:1.0 17:1.0 21:1.0 24:1.0 26:1.0 28:1.0 29:1.0 30:1.0 33:1.0 37:1.0 38:0.3 41:1.0 44:1.0 45:1.0 48:0.24345432195894612 50:1.0 63:1.0 65:1.0 68:1.0 82:1.0 86:1.0 87:1.0 94:1.0 170:1.0 177:1.0 
2.0 1:0.015 2:0.05 11:1.0 14:1.0 17:1.0 21:1.0 23:1.0 26:1.0 28:1.0 29:1.0 31:1.0 33:1.0 37:1.0 38:0.45 43:1.0 44:1.0 48:0.24345432195894612 50:1.0 63:1.0 65:1.0 82:1.0 86:1.0 87:1.0 94:1.0 118:1.0 170:1.0 
1.1410350991652818 1:0.08 2:0.2 11:1.0 14:1.0 21:1.0 23:1.0 26:1.0 28:1.0 29:1.0 33:1.0 37:1.0 38:0.65 39:1.0 44:1.0 48:0.19967538202346843 57:1.0 63:1.0 65:1.0 70:1.0 80:1.0 94:1.0 98:1.0 122:1.0 137:1.0 138:1.0 153:1.0 170:1.0 184:1.0 
0.8476725096076674 1:0.09833333333333333 2:0.2 11:1.0 14:1.0 21:1.0 23:1.0 26:1.0 28:1.0 29:1.0 33:1.0 37:1.0 38:0.6 44:1.0 48:0.19735602190990598 57:1.0 63:1.0 65:1.0 80:1.0 81:1.0 94:1.0 98:1.0 137:1.0 138:1.0 157:1.0 170:1.0 184:1.0 
1.7160285511845643 1:0.05 2:0.1 3:1.0 4:1.0 5:1.0 6:1.0 11:1.0 14:1.0 17:1.0 19:1.0 20:1.0 21:1.0 23:1.0 26:1.0 28:1.0 29:1.0 36:1.0 37:1.0 38:0.3 48:1.0 53:1.0 54:1.0 55:1.0 56:1.0 80:1.0 92:1.0 103:1.0 140:1.0 
0.2778384830471368 1:0.03 2:0.1 3:1.0 4:1.0 5:1.0 6:1.0 11:1.0 14:1.0 17:1.0 19:1.0 20:1.0 21:1.0 23:1.0 26:1.0 28:1.0 29:1.0 36:1.0 37:1.0 38:0.6 43:1.0 48:1.0 53:1.0 54:1.0 55:1.0 56:1.0 65:1.0 80:1.0 92:1.0 103:1.0 118:1.0 119:1.0 120:1.0 140:1.0 
2.0 1:0.0033333333333333335 13:1.0 14:1.0 21:1.0 23:1.0 26:1.0 28:1.0 29:1.0 31:1.0 33:1.0 37:1.0 38:0.25 48:0.2006497760958732 70:1.0 176:1.0 
2.0 1:0.04 2:0.05 13:1.0 14:1.0 21:1.0 23:1.0 26:1.0 28:1.0 29:1.0 33:1.0 38:0.4 42:1.0 46:1.0 48:0.19454132202806196 70:1.0 80:1.0 176:1.0 
2.0 1:0.04833333333333333 2:0.05 11:1.0 14:1.0 21:1.0 23:1.0 26:1.0 28:1.0 29:1.0 33:1.0 37:1.0 38:0.2 42:1.0 46:1.0 48:0.2226490134358925 80:1.0 140:1.0 
0.24732603909022488 1:0.0050 2:0.1 11:1.0 14:1.0 19:1.0 20:1.0 21:1.0 23:1.0 26:1.0 28:1.0 29:1.0 31:1.0 36:1.0 37:1.0 38:0.25 48:0.8003148043695018 80:1.0 92:1.0 103:1.0 140:1.0 
2.0 1:0.015 2:0.05 9:1.0 12:1.0 14:1.0 21:1.0 24:1.0 26:1.0 28:1.0 29:1.0 33:1.0 37:1.0 38:0.25 42:1.0 46:1.0 48:0.19237874894372198 64:1.0 80:1.0 95:1.0 96:1.0 140:1.0 162:1.0 
0.8433483697246641 1:0.06166666666666667 2:0.15 12:1.0 14:1.0 21:1.0 23:1.0 26:1.0 28:1.0 29:1.0 33:1.0 37:1.0 38:0.4 44:1.0 48:0.19237874894372198 63:1.0 64:1.0 65:1.0 80:1.0 94:1.0 95:1.0 96:1.0 140:1.0 162:1.0 170:1.0 
2.0 1:0.07333333333333333 2:0.2 12:1.0 14:1.0 21:1.0 23:1.0 26:1.0 28:1.0 29:1.0 33:1.0 37:1.0 38:0.4 44:1.0 48:0.19237874894372198 63:1.0 64:1.0 65:1.0 80:1.0 94:1.0 95:1.0 96:1.0 140:1.0 162:1.0 170:1.0 
1.4282832500648885 1:0.0033333333333333335 2:0.1 11:1.0 14:1.0 17:1.0 20:1.0 21:1.0 23:1.0 26:1.0 28:1.0 29:1.0 31:1.0 36:1.0 37:1.0 38:0.25 43:1.0 48:1.0 53:1.0 65:1.0 80:1.0 89:1.0 90:1.0 103:1.0 115:1.0 118:1.0 
1.8430876182945164 1:0.0016666666666666668 11:1.0 14:1.0 21:1.0 23:1.0 26:1.0 29:1.0 31:1.0 33:1.0 37:1.0 38:0.1 40:1.0 48:0.2003537420847365 70:1.0 121:1.0 
2.0 1:0.05 2:0.1 11:1.0 14:1.0 21:1.0 23:1.0 26:1.0 28:1.0 29:1.0 33:1.0 37:1.0 38:0.45 44:1.0 48:0.23320478108505688 63:1.0 65:1.0 80:1.0 81:1.0 94:1.0 137:1.0 138:1.0 157:1.0 170:1.0 
0.7400998658691702 1:0.013333333333333334 2:0.1 3:1.0 4:1.0 5:1.0 6:1.0 11:1.0 14:1.0 17:1.0 19:1.0 20:1.0 21:1.0 23:1.0 26:1.0 28:1.0 29:1.0 36:1.0 38:0.4 48:1.0000000000000002 53:1.0 54:1.0 55:1.0 56:1.0 65:1.0 75:1.0 79:1.0 80:1.0 89:1.0 90:1.0 103:1.0 104:1.0 133:1.0 140:1.0 151:1.0 
2.0 1:0.0016666666666666668 11:1.0 14:1.0 21:1.0 23:1.0 26:1.0 29:1.0 31:1.0 33:1.0 37:1.0 38:0.15 48:0.21978104586420238 70:1.0 
0.09719289346815152 1:0.015 2:0.05 3:1.0 4:1.0 5:1.0 6:1.0 9:1.0 11:1.0 14:1.0 17:1.0 19:1.0 20:1.0 21:1.0 22:1.0 26:1.0 28:1.0 29:1.0 30:1.0 31:1.0 33:1.0 37:1.0 38:0.15 41:1.0 42:1.0 45:1.0 46:1.0 47:1.0 48:1.0000000000000002 50:1.0 54:1.0 55:1.0 56:1.0 68:1.0 87:1.0 148:1.0 177:1.0 
0.10601622887947705 1:0.03 2:0.1 9:1.0 11:1.0 14:1.0 21:1.0 24:1.0 26:1.0 28:1.0 29:1.0 33:1.0 37:1.0 38:0.4 42:1.0 46:1.0 48:0.20973162400177808 65:1.0 70:1.0 80:1.0 98:1.0 137:1.0 138:1.0 
2.0 1:0.045 2:0.1 9:1.0 11:1.0 14:1.0 21:1.0 24:1.0 26:1.0 28:1.0 29:1.0 33:1.0 37:1.0 38:0.3 42:1.0 46:1.0 48:0.23320478108505688 65:1.0 80:1.0 81:1.0 137:1.0 138:1.0 157:1.0 
0.33988805535415656 1:0.028333333333333332 2:0.05 6:1.0 11:1.0 14:1.0 17:1.0 19:1.0 20:1.0 21:1.0 24:1.0 26:1.0 28:1.0 29:1.0 30:1.0 33:1.0 37:1.0 38:0.3 41:1.0 44:1.0 45:1.0 48:1.0000000000000002 50:1.0 54:1.0 55:1.0 56:1.0 63:1.0 65:1.0 68:1.0 82:1.0 86:1.0 87:1.0 94:1.0 170:1.0 177:1.0 
1.8681418642090455 1:0.06166666666666667 2:0.15 11:1.0 14:1.0 21:1.0 23:1.0 26:1.0 28:1.0 29:1.0 33:1.0 37:1.0 38:0.55 44:1.0 48:0.20973162400177808 63:1.0 65:1.0 70:1.0 80:1.0 94:1.0 98:1.0 137:1.0 138:1.0 170:1.0 
2.0 1:0.07666666666666666 2:0.15 11:1.0 14:1.0 21:1.0 23:1.0 26:1.0 28:1.0 29:1.0 33:1.0 37:1.0 38:0.45 44:1.0 48:0.23320478108505688 63:1.0 65:1.0 80:1.0 81:1.0 94:1.0 137:1.0 138:1.0 157:1.0 170:1.0 
2.0 2:0.05 11:1.0 14:1.0 21:1.0 23:1.0 26:1.0 28:1.0 29:1.0 31:1.0 33:1.0 37:1.0 38:0.35 39:1.0 42:1.0 46:1.0 48:0.21662290804882509 70:1.0 91:1.0 122:1.0 179:1.0 
2.0 1:0.021666666666666667 2:0.05 11:1.0 14:1.0 21:1.0 23:1.0 26:1.0 28:1.0 29:1.0 31:1.0 33:1.0 38:0.25 48:0.2205445632207393 75:1.0 79:1.0 80:1.0 140:1.0 151:1.0 
0.4311974521585982 1:0.0033333333333333335 2:0.1 11:1.0 14:1.0 19:1.0 20:1.0 21:1.0 23:1.0 26:1.0 28:1.0 29:1.0 31:1.0 36:1.0 37:1.0 38:0.2 48:0.8003148043695018 80:1.0 103:1.0 115:1.0 
2.0 1:0.0016666666666666668 11:1.0 14:1.0 21:1.0 23:1.0 26:1.0 29:1.0 31:1.0 33:1.0 37:1.0 38:0.25 43:1.0 48:0.2450033744354938 65:1.0 70:1.0 118:1.0 
2.0 1:0.013333333333333334 2:0.05 9:1.0 11:1.0 14:1.0 21:1.0 24:1.0 26:1.0 28:1.0 29:1.0 33:1.0 37:1.0 38:0.3 42:1.0 46:1.0 48:0.2392206924076681 70:1.0 80:1.0 113:1.0 123:1.0 
2.0 1:0.03166666666666667 2:0.05 9:1.0 11:1.0 14:1.0 21:1.0 24:1.0 26:1.0 28:1.0 29:1.0 33:1.0 37:1.0 38:0.3 42:1.0 43:1.0 46:1.0 48:0.23320478108505688 65:1.0 80:1.0 118:1.0 140:1.0 
1.084113103303639 1:0.021666666666666667 2:0.1 4:1.0 5:1.0 9:1.0 11:1.0 14:1.0 17:1.0 19:1.0 20:1.0 21:1.0 22:1.0 26:1.0 28:1.0 29:1.0 30:1.0 31:1.0 34:1.0 37:1.0 38:0.4 43:1.0 48:0.633208925093653 51:1.0 54:1.0 55:1.0 56:1.0 65:1.0 70:1.0 80:1.0 83:1.0 113:1.0 118:1.0 123:1.0 143:1.0 
0.4344980996649097 1:0.035 2:0.05 6:1.0 11:1.0 14:1.0 17:1.0 19:1.0 20:1.0 21:1.0 24:1.0 26:1.0 28:1.0 29:1.0 30:1.0 31:1.0 33:1.0 37:1.0 38:0.3 41:1.0 44:1.0 45:1.0 48:1.0000000000000002 50:1.0 54:1.0 55:1.0 56:1.0 57:1.0 63:1.0 65:1.0 68:1.0 82:1.0 87:1.0 111:1.0 177:1.0 184:1.0 
2.0 1:0.051666666666666666 2:0.1 11:1.0 14:1.0 21:1.0 23:1.0 26:1.0 28:1.0 29:1.0 33:1.0 37:1.0 38:0.45 44:1.0 48:0.2392206924076681 57:1.0 63:1.0 65:1.0 70:1.0 80:1.0 111:1.0 113:1.0 123:1.0 184:1.0 
2.0 1:0.07 2:0.1 11:1.0 14:1.0 21:1.0 23:1.0 26:1.0 28:1.0 29:1.0 33:1.0 37:1.0 38:0.45 43:1.0 44:1.0 48:0.23320478108505688 57:1.0 63:1.0 65:1.0 80:1.0 111:1.0 118:1.0 140:1.0 184:1.0 
1.5200199946563095 1:0.013333333333333334 2:0.1 3:1.0 4:1.0 5:1.0 6:1.0 11:1.0 14:1.0 17:1.0 19:1.0 20:1.0 21:1.0 23:1.0 26:1.0 28:1.0 29:1.0 31:1.0 36:1.0 37:1.0 38:0.3 48:1.0 53:1.0 54:1.0 55:1.0 56:1.0 75:1.0 79:1.0 80:1.0 103:1.0 151:1.0 171:1.0 
1.6092316197439998 1:0.025 2:0.1 11:1.0 14:1.0 19:1.0 20:1.0 21:1.0 23:1.0 26:1.0 28:1.0 29:1.0 36:1.0 37:1.0 38:0.3 48:0.8119613306202349 75:1.0 79:1.0 80:1.0 103:1.0 151:1.0 171:1.0 
2.0 1:0.006666666666666667 11:1.0 14:1.0 21:1.0 23:1.0 26:1.0 28:1.0 29:1.0 33:1.0 37:1.0 38:0.25 48:0.2687352096231579 61:1.0 65:1.0 70:1.0 83:1.0 143:1.0 162:1.0 178:1.0 183:1.0 
2.0 1:0.018333333333333333 2:0.05 11:1.0 14:1.0 21:1.0 23:1.0 26:1.0 28:1.0 29:1.0 33:1.0 37:1.0 38:0.4 42:1.0 46:1.0 48:0.21671008536365863 64:1.0 65:1.0 70:1.0 80:1.0 83:1.0 95:1.0 113:1.0 123:1.0 143:1.0 162:1.0 178:1.0 
2.0 1:0.03833333333333333 2:0.05 11:1.0 14:1.0 21:1.0 23:1.0 26:1.0 28:1.0 29:1.0 33:1.0 37:1.0 38:0.2 42:1.0 46:1.0 48:0.2513956231420461 80:1.0 140:1.0 
1.822612177734309 1:0.045 2:0.1 11:1.0 14:1.0 21:1.0 23:1.0 26:1.0 28:1.0 29:1.0 33:1.0 37:1.0 38:0.55 44:1.0 48:0.21671008536365863 63:1.0 64:1.0 65:1.0 70:1.0 80:1.0 83:1.0 94:1.0 95:1.0 113:1.0 123:1.0 143:1.0 162:1.0 170:1.0 178:1.0 
2.0 1:0.11166666666666666 2:0.2 3:1.0 4:1.0 5:1.0 6:1.0 11:1.0 14:1.0 17:1.0 19:1.0 20:1.0 21:1.0 23:1.0 26:1.0 28:1.0 29:1.0 36:1.0 38:0.35 48:1.0 53:1.0 54:1.0 55:1.0 56:1.0 73:1.0 79:1.0 80:1.0 92:1.0 133:1.0 140:1.0 171:1.0 
2.0 1:0.11 2:0.2 3:1.0 4:1.0 5:1.0 6:1.0 11:1.0 14:1.0 17:1.0 19:1.0 20:1.0 21:1.0 23:1.0 26:1.0 28:1.0 29:1.0 36:1.0 38:0.35 48:1.0 53:1.0 54:1.0 55:1.0 56:1.0 73:1.0 79:1.0 80:1.0 92:1.0 133:1.0 140:1.0 171:1.0 
0.3584931283831407 1:0.13833333333333334 2:0.3 11:1.0 14:1.0 19:1.0 20:1.0 21:1.0 23:1.0 26:1.0 28:1.0 29:1.0 36:1.0 37:1.0 38:0.3 48:0.8119613306202349 80:1.0 92:1.0 103:1.0 140:1.0 
2.0 1:0.10833333333333334 2:0.2 3:1.0 4:1.0 5:1.0 6:1.0 11:1.0 14:1.0 17:1.0 19:1.0 20:1.0 21:1.0 23:1.0 26:1.0 28:1.0 29:1.0 35:1.0 37:1.0 38:0.25 48:1.0000000000000002 52:1.0 54:1.0 55:1.0 56:1.0 80:1.0 115:1.0 
1.138089158250198 1:0.011666666666666667 5:1.0 11:1.0 14:1.0 17:1.0 19:1.0 20:1.0 21:1.0 23:1.0 26:1.0 28:1.0 29:1.0 36:1.0 38:0.2 42:1.0 46:1.0 48:0.3884309216795581 53:1.0 54:1.0 55:1.0 56:1.0 80:1.0 108:1.0 109:1.0 140:1.0 182:1.0 
2.0 1:0.01 11:1.0 14:1.0 20:1.0 21:1.0 23:1.0 26:1.0 28:1.0 29:1.0 31:1.0 33:1.0 37:1.0 38:0.15 44:1.0 48:0.2008163977795138 65:1.0 
1.1746352185195945 1:0.07 2:0.05 5:1.0 6:1.0 9:1.0 11:1.0 14:1.0 17:1.0 19:1.0 20:1.0 21:1.0 24:1.0 26:1.0 28:1.0 29:1.0 36:1.0 38:0.5 44:1.0 48:0.9999999999999998 53:1.0 54:1.0 55:1.0 56:1.0 57:1.0 63:1.0 65:1.0 80:1.0 111:1.0 140:1.0 184:1.0 
2.0 1:0.0016666666666666668 11:1.0 14:1.0 21:1.0 23:1.0 26:1.0 28:1.0 29:1.0 31:1.0 33:1.0 37:1.0 38:0.2 44:1.0 48:0.20383794051398682 65:1.0 
1.8417414631324458 1:0.0016666666666666668 11:1.0 14:1.0 20:1.0 21:1.0 23:1.0 26:1.0 29:1.0 31:1.0 33:1.0 37:1.0 38:0.2 40:1.0 43:1.0 48:0.1990066860619447 65:1.0 70:1.0 118:1.0 121:1.0 
1.747270279426623 1:0.015 5:1.0 11:1.0 14:1.0 17:1.0 20:1.0 21:1.0 23:1.0 26:1.0 29:1.0 33:1.0 37:1.0 38:0.15 40:1.0 48:0.2651064030698568 50:1.0 54:1.0 55:1.0 56:1.0 70:1.0 121:1.0 
